-3.786497001046760236e+00,-2.888529248923345172e+00,-9.550739444906911624e-01,-1.900113583580369081e+01,-6.164986165983080468e+00,-1.324173379121983274e+01,-6.602215039346563508e+00,-2.385000010622677635e+00,-1.300347544432750801e+01,0.000000000000000000e+00,-6.483522442416131071e+00,-5.765175209779053844e+00,-1.360185320097349226e+01,-1.391011858280052493e+01,-8.276369589803989513e+00,-2.955384742280519061e-01,-6.846495868841490307e+00,-3.779717377254178245e+01,-1.767206934784333328e+01,-1.192533157863068993e+01,-1.787398072869048704e+01,-2.226585067712245802e+01,-2.105512661531052032e+01,-1.388260196234164034e+01,-5.605038612770268713e+00
1.756651092715001425e+02,4.232006398611977716e+01,4.757258005611225826e+01,3.034315061459699905e+02,1.241817296460844204e+02,-6.447056223449506263e+01,2.463079926973585430e+02,2.804998600409188025e+00,1.342321633298025461e+02,0.000000000000000000e+00,-1.083099651393088578e+02,1.359326725150739321e+02,1.504302997310444709e+02,2.957440010480140131e+02,2.779730493301922252e+02,6.851784444319817169e+01,1.134694925504144969e-01,5.966355630770889320e+02,4.975653756697973904e+02,2.883921133145364593e+02,5.882066147165362509e+02,-1.847436451348325761e+02,5.623357787224561122e+01,2.819887561163186547e+02,1.463359601689328429e+02
1.446836168063161949e+02,2.370161158304484417e+01,3.687236081374567931e+01,2.349466089496337418e+02,9.393677316108455955e+01,9.061256110765003768e+01,1.351051568936210003e+02,5.419998546481339829e+00,1.801507083691647608e+02,0.000000000000000000e+00,4.415392392498616658e+01,8.430677495361922524e+01,2.046843299595109329e+02,2.584906614673669196e+02,2.364069559128834612e+02,1.881122899856870490e+01,1.428063414035932510e+02,2.928480381880449386e+02,4.459430836562475520e+02,2.663935072861104345e+02,1.622307426583285519e+02,2.177176009607505023e+02,1.398808621506555028e+02,3.358350097081030867e+02,1.428608800347499255e+02
6.933207259840575887e+01,5.357731014981312967e+01,3.676213477565535470e+01,2.523579338865021953e+02,1.051918314175057532e+02,1.507560804237828620e+02,1.263278163738120980e+02,-1.637000148555498669e+01,1.475120937275241602e+02,0.000000000000000000e+00,2.590464439177977596e+01,7.004610418641200908e+01,2.670116612842130053e+02,3.225661464824937639e+02,1.739771700742206235e+02,3.976299818231226624e+01,1.686127255465852386e+02,4.672659561073074315e+02,3.274256922658455551e+02,2.239819845140039263e+02,2.957889864447152490e+02,2.100047206490312135e+02,1.899778390623132225e+02,2.517918303741229522e+02,1.665008315605467146e+02
2.296403407669154362e+01,6.673882560676364051e+01,4.115698580201338785e+01,3.642517983135425084e+02,1.416018600728468471e+02,1.478641708040407821e+02,1.548739973749186731e+02,2.346499846059556305e+01,3.307000661514698550e+02,0.000000000000000000e+00,1.156956070996489672e+01,1.065353613871702549e+02,3.084938095460654495e+02,3.269178317478451277e+02,1.446928724535726474e+02,5.703761349112023993e+01,1.465966671496847198e+02,2.908459197673494714e+02,3.779868479586030503e+02,2.183893353243925048e+02,5.014432591030467989e+01,2.490061774196696831e+02,2.013389651317025084e+02,2.254268836219357013e+02,1.942106544426399353e+02
4.467583124844431097e+00,1.532565107547561389e+01,4.104190443581946823e+01,3.285893924201955656e+02,1.228918741369885623e+02,1.919460649966741812e+02,1.137652523548465666e+02,2.162499842834028030e+01,2.577908198751047166e+02,0.000000000000000000e+00,-2.750630648488441921e+01,6.820382219269669122e+01,2.414906199182758542e+02,2.560243530141277688e+02,8.056361554975164552e+01,7.981722877497584534e+01,9.143347612915272293e+01,2.425821871280649873e+02,2.553081156068112136e+02,1.501573836119347902e+02,-1.515527644812115504e+01,1.425626138176157554e+02,1.215863432721683068e+02,-4.697365581201776052e+00,6.491523463452888620e+01
1.151613213601297936e+01,4.450316709994393705e+01,3.053182300487384992e+01,3.523565498861292440e+02,7.891190295885600392e+01,1.943124459480531243e+02,9.326404969970221259e+01,2.513999840847623091e+01,2.200929041806217015e+02,0.000000000000000000e+00,3.937106139757943879e+01,6.797444588017175704e+01,2.671575922247546941e+02,1.986845760188693646e+02,7.713515583236976170e+01,6.180738253033675988e+01,6.072650638314292593e+01,2.273741175529544307e+02,1.726715318819785807e+02,9.260341975939631709e+01,-3.431333468824870891e+01,2.163064092577102144e+02,1.334752589356822625e+02,-1.172379289271168119e+02,9.645988706588796902e+01
2.806184081664822028e+00,8.458273398228506323e+01,2.668674876358132053e+01,3.198124460927989503e+02,6.286691736010353537e+01,2.515399893451698006e+02,1.304474868579567044e+02,1.535999839984350679e+01,2.529522467704711630e+02,0.000000000000000000e+00,-1.268666752270474163e+01,1.561789495107883852e+02,2.405591120056791965e+02,1.565191088112076159e+02,8.314252780343967686e+01,5.210915169701086569e+01,5.851753046088160204e+01,3.582063151799401908e+02,1.253238995861301248e+02,9.271283888843080945e+01,1.313716825640560444e+02,4.020596330439380495e+02,2.102007640200026515e+02,-6.507113313409556099e+01,9.519957608789579240e+01
7.846228769452952001e+00,8.138604028075317842e+01,2.052674482338925088e+01,2.908937572774836440e+02,3.431693309682103887e+01,2.305128122177340799e+02,8.689330957740726546e+01,4.549998379945455973e+00,3.316850866459208191e+02,0.000000000000000000e+00,-7.476111486917963589e+01,1.702273939326759375e+02,1.851412114590175975e+02,1.453232708099796469e+02,4.908989724579626568e+01,3.366699782384566220e+01,4.315382845906491838e+01,7.457648546167519044e+01,1.110166109048442848e+02,3.840615775250236652e+01,1.888115601854707108e+02,3.404545948015315844e+02,1.859959917354819936e+02,4.703154096323749478e+00,8.449926023458716884e+01
-4.130264023148245478e+00,5.554888986024198516e+01,2.123667054972057144e+01,2.079105258760973811e+02,9.936932792452656926e+00,1.540398933652576261e+02,1.122197217042088653e+02,6.749998338368067508e+00,1.447082174614087080e+02,0.000000000000000000e+00,-1.133502014339042461e+02,8.134355338292441218e+01,1.796429331385805881e+02,1.008278788490079307e+02,1.524912272875732100e+01,6.909208654853629117e-01,6.310662339059881276e+01,2.193490426480187807e+02,1.057191510644789503e+02,9.000594715485433994e+01,2.876013435501395747e+02,2.560576975768399279e+02,2.364166181992075266e+01,7.515872387390402309e+01,6.102901864284198297e+01
-6.355213538830478903e+00,3.488780264900675832e+01,3.081740850821391930e+00,4.707391282936310972e+01,-1.045805321791861253e+01,1.521185105328686689e+02,-2.076340909884990538e+01,-1.704500168158776319e+01,-2.754953890568319252e+02,0.000000000000000000e+00,-1.692389256955740109e+02,3.318727342545498260e+01,1.068910003979877956e+02,5.177812896839083834e+01,-9.263763736827558049e+00,6.448228507563150913e+00,2.179319679613627514e+01,-1.659996809482545359e+02,1.380835447842200736e+01,-1.777359283167602655e+01,4.051959385630637911e+01,7.370998015144782300e+01,1.188751054211628322e+01,-6.711087946829003670e+01,-1.024108731568184361e+01
7.489839516020732724e+00,1.597946288922572933e+01,1.781673437628276346e+00,7.064066499849087677e+01,-4.283806806558834523e+01,-7.736774179347979441e+01,-8.206383537533744388e+00,-1.580001691208042569e+00,-4.817183652809545436e+01,0.000000000000000000e+00,-1.116695124090238096e+02,1.382228835259737707e+02,9.152102482996488675e+01,-1.054129666890370132e+01,-4.600930245695217025e+01,-2.840500230565373840e+01,1.369370795518420536e+01,-9.862552007282424427e+01,-7.271201065229577409e+01,8.805639085747867512e+01,1.147933731178875831e+02,2.525767495807590990e+02,8.890229125282760947e+01,1.498031886700178461e+01,-2.172615961048221322e+01
1.813811216690357497e-01,-1.312296487099049891e+00,6.631602742598019518e+00,-1.267567862157311538e+02,-5.857806764788391263e+01,-1.449665988300783113e+02,-2.146008665730625609e+01,-3.846000171209441731e+01,3.564133762154077800e+01,0.000000000000000000e+00,-8.306168109101264463e+01,1.145044671504381313e+02,7.878418021578029595e+01,-4.605030462056205209e+01,-3.804531489453015780e+01,-6.345161773404678485e+01,4.242756411310931242e+01,-1.647552539992449852e+02,-1.458206104713306672e+02,1.858530411953565249e+02,1.270210920361710691e+02,-1.216347119908106436e+02,-1.861530128953001508e+02,4.157507984313635774e+01,-2.799130214117726112e+01
8.286388372523903811e+00,2.858652230019724527e+01,8.331672746896495951e+00,-1.272273203295003725e+02,-2.916805242928761999e+01,1.626874344232552838e+00,6.441052137838289582e+01,-7.036500173291457827e+01,-1.061115800630432204e+00,0.000000000000000000e+00,-1.353220158204705115e+02,7.100531175037016851e+01,9.227518776073584661e+01,-9.435345479189456341e+01,1.051471578748947167e+01,-1.275687716162258880e+02,3.289701281884575224e+01,-1.165661113560232387e+01,-7.681236863161019812e+01,1.140623553873296885e+02,7.940049837705571179e+01,2.950696342926102744e+01,-5.230136878722728255e+01,4.390310647226979057e+01,-2.067651118639594543e+01
-5.983559897053750021e+00,2.877977920692677927e+01,1.472167317320140612e+01,-1.646570768684687209e+02,-2.978803825959328222e+01,9.218400902742594383e+01,1.279396012114082204e+01,-3.012500175441703831e+01,1.601805870978844837e+02,0.000000000000000000e+00,-1.384055534617133958e+02,6.567610736628223833e+01,7.288741887226780136e+01,-1.639265726818873077e+02,-4.089605152183473535e+01,-1.406553870461058011e+02,-4.117475624796721689e+00,1.378790239259156181e+02,-1.018549255120178429e+02,-8.241660848882345647e+01,-1.002678919230976931e+02,1.671249760910431803e+02,-2.039355620813041128e+02,3.088904410751560192e+01,-9.914165082690831809e+01
-3.233696956290994962e+01,-2.136584601558879726e+01,1.234152820450285581e+01,-5.673063056954434558e+01,-6.872305184384990184e+01,1.137444373603194663e+02,-3.770126823673752625e+01,-5.419500176455642304e+01,9.663826875493448654e+01,0.000000000000000000e+00,-1.318623812296694666e+02,2.206526441815390882e+01,1.426561698938402856e+01,-1.378029871628314709e+02,-9.924790820606402519e+01,-1.288859255509787261e+02,-8.209840514711931547e+00,2.210072164738385538e+02,-9.076717106331962270e+01,-1.820929663342205629e+02,-3.499476687437504552e+02,2.721080213353473454e+01,-1.508361447401748734e+01,5.743565159547086552e+01,-1.071368192556020489e+02
-4.646536475445344649e+01,-1.217965810935374193e+01,-3.353468907589242320e+00,-2.752397302256284206e+02,-8.079806475441937152e+01,1.568347535088325344e+02,-1.775310100486134388e+02,-8.752500179647249468e+01,-9.710885097117957798e+01,0.000000000000000000e+00,-1.892359040140179047e+02,-3.861027102281322243e+01,-2.824426839170034498e+01,-1.704675861678048250e+02,-1.032376370445705902e+02,-9.827200250963755934e+01,1.600670051656644555e+00,-4.414995520514615919e+02,-7.774122963061124381e+01,-1.925957279804006248e+02,-1.738643027922571775e+02,-2.448489976365659970e+02,-4.613610955281100701e+01,7.722131252407866953e+01,-1.419469223238283462e+02
-5.497530735997182916e+01,1.875051278433947033e+01,-5.083468875213440263e+00,-3.109310752545788432e+02,-7.522309353317982072e+01,-2.646868759681057099e+02,-1.852886582606391528e+02,-6.132000181745393519e+01,-1.433432546575819515e+02,0.000000000000000000e+00,-2.026346585982644513e+02,-7.124786571016643677e+01,-4.218089134959853936e+01,-2.647815960473390646e+02,-6.720076464682225037e+01,-7.974307945808693887e+01,1.478898733771118579e+00,-4.402315153752301171e+02,3.436011702815586943e+01,-1.341192426904627837e+02,-1.794787470404945680e+02,-3.087654104749022963e+02,-2.482575384424973208e+02,6.617221053700492739e+00,-1.428219917099169152e+02
-5.387025864950059884e+01,-6.289497486723030661e+00,-7.258253179109509290e+00,-2.280338631628314943e+02,-8.014310861901758187e+01,-9.219902321018759039e+01,-2.411330286519832100e+02,-1.254750018056144967e+02,-2.125588234855674727e+02,0.000000000000000000e+00,-2.174755631945172922e+02,-8.178775157809690199e+01,-1.166154406498964704e+02,-2.177481449476733815e+02,-2.593154739097839112e+01,-6.554915639331835564e+01,1.361968536673073160e+01,-5.629641988407537383e+02,-1.593268383435520974e+01,-9.020635632603584497e+01,-1.444010108874120135e+02,-2.789510073872923499e+02,-1.747913196443622610e+02,-6.202999682249951263e+01,-1.699270648727943467e+02
-4.279021130487384283e+01,-7.297327139235810023e+01,-6.802896422123156484e+00,-1.283975372130439894e+02,-1.200030637904623774e+02,-2.583569039337517097e+02,-2.417103627267465242e+02,-1.042800018264215680e+02,-2.270535779290159155e+02,0.000000000000000000e+00,-2.497602439395634235e+02,-9.342005124358938417e+01,-1.199377246869237865e+02,-1.399330870323196905e+02,-1.103641593929203850e+02,-5.678523333878395363e+01,3.366424971372209995e+01,-1.482549171920081506e+02,-8.206869013476141106e+01,-1.084666201495459319e+02,-3.969212933051513801e+02,-2.622442190947830341e+02,-2.190584446806252004e+02,-1.831017424595997625e+02,-1.886771322367548862e+02
-3.613361511561615913e+01,-9.530101112166494204e+01,-1.817752570461308448e+00,-1.083586411774158051e+02,-9.414312273947973608e+01,-1.737790566612041232e+02,-2.014053776329877508e+02,-2.626500184753487233e+01,-1.164295118218186929e+02,0.000000000000000000e+00,-1.281291646042040497e+02,-1.772478266683455956e+02,-3.134073547098852686e+01,-6.819398431535951488e+01,-9.904881758116039236e+01,-3.562577182472482207e+01,3.791775304119228451e+01,3.335221614767561391e+02,-5.764689456106646048e+01,-1.083902556874296295e+02,-1.922616691161694007e+02,-2.121438158820585045e+02,-6.992044949199846826e+01,-1.913926710808998166e+02,-1.652722669649626255e+02
-3.023706506543966199e+01,-1.019602882555904131e+02,4.697325378972352361e+00,-2.417516437439723802e+02,-1.068581504508043167e+02,-1.334206570759279771e+02,-1.619504039562437754e+02,3.208999815302421155e+01,-1.557642814867668335e+02,0.000000000000000000e+00,-1.690993824251232809e+02,-2.454740272839324007e+02,4.028379026143136699e+00,-2.868705317677913058e+01,-8.490935303970616133e+01,-1.664631028723463402e+01,3.298897345950863524e+01,-1.969803561109096108e+02,-4.542604867825001236e+01,-3.069626461142514131e+02,-1.439100433189171895e+02,-1.676463342778641561e+02,-7.895168350389757173e+00,-5.756148122680453127e+01,-1.585373006470731525e+02
-3.277057210467197024e+01,-8.968511783797926284e+01,8.722399355839034030e+00,-1.343861119161945794e+02,-1.153931363996574788e+02,-8.855082450346543510e+01,-1.163525251628830262e+02,1.126099981428390180e+02,-2.211446109190193852e+02,0.000000000000000000e+00,-1.841613616782998690e+02,-2.798563392712760560e+02,-1.358121833990935272e+02,-4.289828638313167630e+01,-8.248005273060915954e+01,-2.671310284246060984e+00,4.390247681831718296e+01,-5.291832217355306511e+02,9.553828175908915910e+01,-2.887294705086181352e+02,-1.209897311386886400e+02,-1.431620859804902466e+02,7.622667914911673392e+01,2.917555707088063244e+01,-1.739073363512756032e+02
-1.240893442675964664e+01,-6.782876747760536773e+01,-2.724527551793951563e-01,6.179555909573608830e+01,-7.533315637392526298e+01,-2.183513029088909363e+01,1.800414200185267788e+01,3.668499813224976691e+01,-7.633450283620040011e+01,0.000000000000000000e+00,-1.303094957929765485e+02,-2.229356289897484942e+02,-9.080688554585401562e+01,-3.144296267571990455e+01,-3.757389839079512228e+01,2.264868970553510863e+01,6.948720103340848198e+01,-2.968284444601040946e+02,2.489125652611523094e+02,-3.087134391899849675e+02,-4.150639965302263334e+01,7.395437825822158118e+01,-9.635899749108992296e+01,-2.815986902238987177e-02,-2.081174065871482810e+02
1.875112721221634970e+01,-1.412836860518514470e+01,-2.055737881068889905e+01,9.512494812574777825e+01,1.418544672477617397e-01,4.119473500287617895e+01,-9.959023155044189224e+00,-1.160500186722629579e+01,5.458055291808708631e+01,0.000000000000000000e+00,-1.437012408575839117e+02,-5.162358614816741920e+01,-3.348768826431956569e+01,2.230189818059255558e+01,3.730371137821882144e+01,6.106922817102422130e+01,1.036534211138579025e+02,-1.378092438136460487e+02,7.361216079589213734e+01,-3.579871276538719940e+02,-1.734117848200159528e+02,5.801126730490904748e+01,2.342860049155602198e+00,5.418169179018353532e+01,-1.395375055742750305e+02
3.337421043538443399e+01,1.873718461654909007e+01,-2.340208917009454836e+01,3.025783480518916235e+01,1.993685319185473759e+01,6.768878822238866633e+01,8.253296871678689683e+01,8.751999813325400623e+01,5.094808564610362112e+01,0.000000000000000000e+00,-1.822729890339343513e+02,2.621162540162013244e+01,4.580675937143128706e+00,1.303868988570653364e+01,1.077012792555314036e+01,7.419868969227479738e+01,1.437664903878044527e+02,-5.288788615273467713e+02,-2.014356685035226349e+02,-4.338861269565147154e+02,-1.553238557089127880e+02,-1.347841766759806603e+02,1.655599678527672722e+02,1.362100292555565595e+01,-6.765250555560064072e+01
6.096426772285678908e+01,-4.242427822890320499e+01,-2.947693727616956849e+01,1.984724450784819680e+02,2.477685440893039726e+01,2.769293841098121600e-01,2.015429425459100798e+02,-7.350000186644400912e+01,1.912973292832906793e+02,0.000000000000000000e+00,-1.565225168598909420e+02,-4.549842753475834201e+01,2.264145319086476249e+01,5.835374577766415172e+01,2.731057666930982819e+01,8.358368969226560807e+01,1.543879862116266111e+02,-5.305747433193027973e+02,9.533101832551707844e+00,-1.800830711171101939e+02,-1.520371573517479078e+02,-1.148074927736503952e+02,4.586091814363886101e+02,-9.293454689700624272e+01,4.424607622703407017e-01
8.562581500357859454e+01,-1.689503393515418139e+01,-5.744185985016662954e+01,2.764499363942021546e+02,5.654682625368501192e+01,2.866063769638963095e+02,2.350929564570696186e+02,-1.286500187693714814e+01,-1.884505365766507623e+01,0.000000000000000000e+00,-1.079554847258730348e+02,-5.557007216022584828e+01,2.970866095987262145e+00,1.830575104361418823e+02,1.781112049875063406e+02,9.780368968205682734e+01,1.803269237083153769e+02,-3.364145765438204450e+01,-2.055312570695488432e+02,-9.969050699330384191e+01,-1.467953393156523703e+02,-3.125845580824747572e+02,2.168825154998593803e+02,-2.117696108338813872e+02,4.751242999100148268e+01
8.048081644202434859e+01,2.743624235495635233e+01,-4.316178561430299965e+01,2.767484749640800032e+02,7.569179631664103169e+01,1.196594413315616805e+02,1.072209597527455998e+02,6.628999813420728060e+01,-4.467686144453110160e+02,0.000000000000000000e+00,-8.223740228877468894e+01,-6.509561645739144353e+01,1.463685640999823647e+02,2.080644510999482293e+02,-1.550594227645389651e+02,9.904922814305793111e+01,1.992004267532898041e+02,1.560475603065530379e+02,-6.626285435810489162e+02,1.178327571314684548e+02,-1.617451372368896330e+02,-4.704137128027024346e+02,1.447678696160602669e+02,-8.722024519711774815e+01,5.267239631028459712e+01
1.610451108948512342e+02,4.648131739380691130e+01,4.658750962550870867e+01,2.470062441685845158e+02,9.592175708222299590e+01,-1.072647584268975152e+02,2.042926933088357089e+02,-6.295001410385344442e+00,1.294311543624799867e+02,0.000000000000000000e+00,-7.016200883645534248e+01,9.460965680388994770e+01,1.338266493407702455e+02,2.584306348043453454e+02,2.442642534652621009e+02,5.835784442128309024e+01,-2.533924737267479799e+01,4.899829348635165616e+02,4.324076341857692682e+02,2.323667054859355687e+02,4.099665640543747145e+02,-1.629852764026665852e+02,6.657138773986906699e+01,2.482648302295280871e+02,1.218209543700643991e+02
1.191636113099961136e+02,1.632969986442355648e+01,3.526228680450349628e+01,1.873374341280504325e+02,6.480180043243811383e+01,3.828151644722209568e+01,1.041357028741390707e+02,-1.097000145343240263e+01,1.494331114312471129e+02,0.000000000000000000e+00,2.943193398891641976e+01,4.193652055668025724e+01,1.668325768969558567e+02,2.366721875641231065e+02,1.973323734502588422e+02,1.820622898535265577e+01,1.134198459199952254e+02,1.479270371574767466e+02,3.611521851999794421e+02,2.189669129821094486e+02,1.480319372165376137e+02,1.667606764140244024e+02,1.371073980140988340e+02,2.851968410162244254e+02,1.229159087861054047e+02
5.335903258981799269e+01,5.745523536498650685e+01,3.593198646036885435e+01,2.011546585075072358e+02,9.522682955574020980e+01,9.614229912684882606e+01,1.275005986551572192e+02,-2.739500149644075577e+01,1.298552401538476317e+02,0.000000000000000000e+00,2.040820660440743595e+01,4.421410997501720175e+01,2.398399927830168394e+02,3.294297959159326865e+02,1.318378306426101290e+02,4.359245969487739814e+01,1.313424508897222154e+02,3.581732061814363988e+02,2.863340354897331395e+02,1.902089443231539008e+02,2.732167896199628672e+02,1.843424382026401531e+02,2.020978601481022849e+02,2.062931340152507005e+02,1.660308257247178290e+02
6.097581626527817988e+00,5.716142553112420188e+01,3.846690539097661343e+01,3.027088576436834160e+02,1.243968588117423479e+02,1.028014211929516364e+02,1.328846557601409302e+02,7.549984605994728426e-01,1.802538947836277430e+02,0.000000000000000000e+00,2.557465712140614578e+00,5.968845123573731826e+01,2.362658583309186042e+02,2.599967671543112715e+02,8.992616675018565786e+01,7.963207500368558556e+01,1.031724542372830484e+02,1.152480171760938390e+02,3.041055459080847072e+02,1.863152511255753438e+02,1.365083473002096248e+01,2.066160589655731030e+02,1.646389046273658039e+02,1.634124680752640586e+02,1.611506128842222836e+02
-1.777386508168463664e+01,1.264414642031094971e+01,3.729682359847767970e+01,2.504122930708593628e+02,1.041719017758775578e+02,1.757412422848921665e+02,8.622528704866346061e+01,-6.900015716574460223e-01,6.324960129946610721e+01,0.000000000000000000e+00,-1.528818644933316939e+01,3.213795574376932507e+01,1.987743003935073887e+02,1.525330492163722340e+02,1.887352513596030690e+01,9.376115182201715470e+01,-1.521301938101264994e+01,2.315792321105469966e+02,1.324990789727348499e+02,1.273950260683932783e+02,7.536587278758437591e-01,1.118492956817421913e+02,1.167784627493057314e+02,-3.587930401955900805e+01,4.749522964829845506e+01
-4.515367621758057837e+00,4.182883153638299945e+01,2.902667830060156007e+01,2.868146313207981279e+02,6.017193077390922440e+01,1.459295649834354265e+02,7.033958648855816875e+01,4.014998408519167228e+00,1.131772721487318449e+02,0.000000000000000000e+00,2.935419955275301618e+01,1.190721287935451045e+01,2.001817437687359700e+02,1.634623529021009745e+02,4.353427232298104599e+01,6.404130557889085651e+01,-1.171498837672078253e+01,2.234767456470197260e+02,9.362628557514273098e+01,2.471419862263238620e+00,-2.823793464549568100e+01,1.923172801716584672e+02,9.401122964449589858e+01,-2.044744727493834091e+02,7.057484841613879212e+01
-4.086855878496571393e+00,7.343002376433140910e+01,2.405652656855558291e+01,2.462975897411163828e+02,5.043193051453352638e+01,1.520570810976734890e+02,9.697094827685666019e+01,1.966999839967604302e+01,2.215801242446481183e+02,0.000000000000000000e+00,-4.248833556552253299e+01,9.578066087752439728e+01,1.405002246925027691e+02,1.479621100419426227e+02,5.684479768061240890e+01,3.822307475878159266e+01,1.464753116654903842e+01,2.679787748159864691e+02,-1.615686848351946736e+01,-1.340034095928309625e+02,1.032130633802962763e+02,2.930236825236140703e+02,1.904286912850543274e+02,-1.688998696455773256e+02,3.597456824847077428e+01
-1.305690026304258922e+01,7.638129752931395444e+01,1.718652262836355504e+01,1.972826582647956002e+02,1.575194521580114859e+01,1.579829822603869331e+02,3.171232055996536303e+01,-8.205001620009417351e+00,2.899531622125881540e+02,0.000000000000000000e+00,-8.543602605830668040e+01,8.009064780788945370e+01,1.154849582597845341e+02,8.945525870035355354e+01,9.701084555242317720e+00,2.369592087691820126e+01,-2.611170831624475497e+00,1.535456587874842285e+02,3.783707369093422557e+01,-9.068397081993573750e+01,1.256679706375850998e+02,3.421963370860568716e+02,6.517138736079064643e+01,-1.277189211965551294e+02,1.670922071659251174e+01
-2.864675364659023771e+01,5.093898432415672062e+01,1.680651865579553217e+01,1.399306373698665880e+02,-1.980541450126644953e-01,-3.794480908171838962e+01,1.238872705148479554e+02,-1.090500165067055427e+01,1.262713710233867772e+02,0.000000000000000000e+00,-1.115962811264392087e+02,1.496849967994644715e+01,1.469211834884735310e+02,3.758197619562542968e+01,-2.945781439416105130e+01,6.824843917045953390e+00,-7.910936920945390582e-01,3.691055446816171184e+02,9.027302870615933728e+01,1.569406362895527138e+02,1.570777959277080527e+02,2.160116491158791803e+02,4.692443441143652905e+01,4.548693861925548987e+01,4.494394546178377681e+01
1.099983258125360308e+01,3.447104371438925341e+01,5.165218728808369519e-01,-3.763671415753055527e+01,-1.709804013326941430e+01,2.727755087906196536e+02,3.957984155339416077e+01,-9.775001692384368113e+00,-3.046170316294252416e+02,0.000000000000000000e+00,-1.425199250892535474e+02,4.412220779264755066e+01,6.823658174213731797e+01,6.207302697588919216e+01,-6.373810865024954353e+01,1.827161309512198883e+01,-6.236329907663206029e+01,-1.686228855244886233e+02,-4.293102816605532723e+01,4.583598494766980735e+01,3.954605984346376601e+01,-5.994669364482048195e+02,-2.640741744834349802e+01,1.245785230730109561e+01,2.761383459113823591e+01
-4.516743018956659306e-02,5.617313036722385355e+00,7.616376936558065580e+00,-1.581704917329635691e+02,-3.865304094991221007e+01,-2.102671860750691053e+02,-2.706028467813061766e+01,-4.835001691164260151e+00,-9.476246245406953506e+01,0.000000000000000000e+00,-4.064114577362121139e+01,4.282171061099617759e+01,-1.974933796027513111e+01,1.815544120363661307e+01,-1.305888792247990864e+02,-3.479554080178576214e+01,-3.799794628514650441e+01,1.809697384336269721e+01,-1.332193127704743176e+02,7.415909733315325525e+01,9.465541807902108928e+01,-1.158139167471591513e+01,1.400665184712579219e+02,2.845612437049614130e+01,-4.066627138658765972e+01
-1.929506260746560997e+01,5.950545417887240340e+00,9.436454330184234962e+00,-2.482107742778919715e+02,-1.770803999031598508e+01,-2.419520127383145223e+02,-3.083158909029988592e+01,-2.079500172280862103e+01,1.347226363467420924e+02,0.000000000000000000e+00,-8.277330116935019078e+01,5.762383773580164359e+01,4.281388529058239101e+01,-4.638489185088908329e+01,-2.208701249811842615e+01,-7.396269469570245292e+01,4.431106859234918716e+01,-9.356608143438208458e+01,-9.133164845069670434e+01,2.642735568985284544e+02,1.641038507541495903e+02,-8.480974410316185867e+02,-2.286343507513696522e+02,8.427914192239997249e+01,1.323862061466322082e+01
7.984891473193794553e+00,3.328195866151957460e+01,-2.299840467368302654e+01,-2.176933050857655303e+02,1.468197535687200705e+01,-1.505003386848833884e+02,-4.736115357429601325e+00,-2.535500173321899453e+01,2.510488610981565927e+01,0.000000000000000000e+00,-1.652785708449228537e+02,2.868197491232050922e+01,1.519407452033890138e+02,-1.022748035253266323e+02,1.300835688659257414e+02,-1.023048485646738612e+02,-1.297219941389902864e+01,-1.074550677758061425e+02,1.662106130565093665e+01,1.581427637975905611e+02,-1.271586036761784300e+01,-1.691196751157220888e+02,-3.342753523081968297e+02,1.569309307660099932e+02,5.306348384587246869e+01
-2.693500944517622386e+01,-3.868737714255080817e+01,-8.097916836250107053e+00,-1.120007958020723606e+02,-2.930256682954790470e-01,-9.592905761046326063e+01,-6.627698526614121732e+00,-9.745001765211165790e+00,1.193988130335039983e+02,0.000000000000000000e+00,-8.600495873442142170e+01,3.329737103973498424e+00,4.825583745463248420e+01,-1.512509659187326179e+02,8.434909099612580974e+01,-1.390009255320462387e+02,-7.426668820965272744e+01,5.615894597073229733e+01,-1.625026067380350980e+02,-1.011236317326376479e+02,1.050827214214641891e+01,-2.284502578539293154e+02,-3.609321765833653330e+02,1.266423795235257614e+02,-7.781668947664252300e+01
-5.446341190116641684e+01,-2.834116302057555714e+01,2.061906951743634053e+01,-3.069169575400314329e+02,-2.618802320649286841e+01,6.010912872172259824e+01,-4.404530251262615081e+01,-5.273500177552460855e+01,1.040832544300154865e+02,0.000000000000000000e+00,-7.110351910714837231e+01,-1.531622159180324161e+01,1.749565539270884429e+00,-6.281983295165415626e+01,-1.158821633883711399e+02,-1.161420024994191778e+02,-6.204011519921422035e+01,8.720390974424439889e+01,-1.286439856364181935e+02,-2.811673210806162615e+02,-5.570993756932517726e+02,-2.370296739547501943e+02,-7.006189829874381303e+01,1.732462833629262775e+02,-1.130768291171524567e+02
-4.817186028793825869e+01,7.112161854210581780e+00,-6.171633854222948301e+00,-5.873426042786431935e+02,-2.559809845131030670e+01,2.353047064188682782e+02,-1.239309459414144357e+02,-7.251000178580309807e+01,-1.580074562211749267e+01,0.000000000000000000e+00,-1.299752300880408029e+02,-3.799823084613554158e+01,-1.631451006688417493e+01,1.246843675413315111e+02,-7.563555719369014696e+01,-8.635807944636542288e+01,-3.600188722207619918e+01,-3.451182509270713581e+02,-1.229933514121060654e+02,-1.644208506464486845e+02,-9.621192219206131995e+02,9.512169416274241840e+00,2.489640156378892755e+02,2.538223751947502365e+02,-1.345819301632501208e+02
-5.712175991835619016e+01,-4.633281768594665806e+01,-2.264606865553663440e+01,-2.526277892100595466e+02,-4.124801090161183481e+01,-2.528028995007153696e+02,-9.410642262334567931e+01,-4.083500180674244007e+01,-7.962986507107653722e+01,0.000000000000000000e+00,-1.347557752802493667e+02,-1.125065061794218195e+02,2.393021161961845777e+01,-1.288155326158648677e+02,6.742600396687660691e+01,-7.537915639331922080e+01,-9.343531383736296902e+01,-5.925823429373867839e+02,-6.322718088445696338e+01,-1.522804489869334930e+02,-1.595082629633430713e+02,-2.047849287668089175e+02,-1.665725775315343355e+02,5.480673510331469345e+01,-1.422820697853040031e+02
-5.199170551392978723e+01,4.542699140384349477e+01,-2.389247894512063652e+01,-6.371649208120587673e+02,-7.554300922752342728e+01,3.152619024789324698e+01,-1.642384395020696388e+02,-6.559000180574217609e+01,-1.724615918075744787e+02,0.000000000000000000e+00,-1.932927613941172922e+02,-1.019638959204639974e+02,-5.028304273226407162e+01,-1.544945734676271059e+02,5.588523017390748748e+01,-7.083077180577687670e+01,-1.089057484214099532e+02,-5.259542712842950323e+02,9.867427478961384679e+01,-1.609713297710997324e+02,4.815951284013802365e+02,-4.776241023517086859e+01,-6.298124546937178820e+02,-5.663402982748591796e+01,-1.223521420800364297e+02
-3.132164799752442264e+01,-3.503286717749854517e+01,-2.608297368082770618e+01,-3.424719416684434350e+02,-1.317733731183060684e+02,-4.138936253586491034e+02,-1.386640973072640861e+02,-8.504500182672239816e+01,-2.044575708865356205e+02,0.000000000000000000e+00,-2.579666565281314092e+02,-1.213642721454477424e+02,-8.043490564924647401e+01,-3.123712021030652863e+02,8.185896354719167789e+01,-5.819131028871775868e+01,-5.081224582298966652e+01,-6.838023310823253951e+02,5.726072592446712406e+01,-7.697579803034427925e+01,6.627373753265618461e+01,-8.798003564824504963e+01,-1.550810671006904045e+02,-2.911541488930366484e+01,-2.109321708311519785e+02
-3.727011211580441596e+01,-3.271218585309429727e+01,-2.304818281325827556e+01,-1.565668491621032672e+02,-1.151930945213125028e+02,-1.573826749862078600e+02,-1.487014691463925544e+02,-3.367000184749215208e+01,-1.412153034141231274e+02,0.000000000000000000e+00,-1.391704525003295032e+02,-1.348558706930100755e+02,-3.429365457356146862e+01,-2.876592866955580234e+02,-7.104681865329725099e+01,-4.519238722546304388e+01,-6.244630118576500166e+01,-6.492292353767054465e+02,-3.580160447917401001e+01,-1.808202827177006213e+02,-1.244883308604363208e+02,-7.082458193350936426e+01,-2.558199787971695116e+02,-4.989455821068105479e+01,-1.986272747859259482e+02
-2.022356044227674587e+01,-8.517066636786162803e+01,-7.273102137794293931e+00,-4.689115303346488304e+02,-1.388680784185229982e+02,-1.658989510513401910e+02,-1.391414222825553964e+02,-1.314500185776983265e+01,-1.842579673022509610e+02,0.000000000000000000e+00,-1.221823388050417094e+02,-2.391624260118709344e+02,1.531310073507491722e+02,8.207839094966294624e+01,-8.990495041685223043e+01,-2.102292568498112146e+01,-4.102008003872926167e+01,-3.593881465353557587e+02,-2.153192331209939709e+02,-3.330223177434302215e+02,-1.510854211138046423e+02,7.661959109071136709e+01,-4.107282481159620033e+02,-4.495858646952963511e+01,-1.134673758321289228e+02
-3.325202026935493649e+01,-1.429252673199601134e+02,-5.017675014956191504e+00,-1.500784889965412674e+02,-1.074881084424119280e+02,-2.405166129405480149e+02,-7.122642648332423221e+01,-3.009500185711517517e+01,-2.327733222520385823e+02,0.000000000000000000e+00,-9.481269840239919233e+01,-2.265336638264064391e+02,-7.819164339137573450e+01,1.470826038649695704e+02,-2.653616769027508759e+00,7.737074304791267565e+00,-3.283779749691885286e+01,-3.854571468682134423e+02,3.124439319730078424e+01,-1.536937362916741847e+02,3.752869650572385041e+01,-1.727660192705255611e+02,2.326923514576292984e+00,1.194378744520947748e+02,-8.683741155479417273e+01
-4.902542570344794370e+01,-7.941947118488089075e+01,-1.227597491827294052e+00,2.852066308011534801e+01,-6.420313348648555518e+01,-2.245500905022820604e+01,4.262020046512116522e+01,-1.444500186756852145e+01,-1.022770458473684130e+02,0.000000000000000000e+00,-1.717309089551441730e+02,-2.477644549776542533e+02,-1.270566127424740301e+02,9.982629372230684695e+00,-3.917116214032579791e+01,8.762612757080312065e+00,-1.579807365097014227e+01,-5.471223259982646141e+02,2.253371497571758084e+02,-5.876052068765608283e+01,7.844893524863483947e+01,-1.030767266104567170e+01,1.497917987866833656e+01,-1.158850680393956090e+01,-1.740774461048512762e+02
-1.354887697769901500e+01,-8.828257728926073966e+00,-1.255745245837755775e+01,1.079525448925225106e+01,-3.155811996344584713e+01,-5.924207158650443006e+01,-1.222750848407195150e+02,8.544999813281687295e+01,-3.161267253872869532e+01,0.000000000000000000e+00,-1.317823707513701379e+02,-5.303473247954222813e+01,-6.445037511654334139e+01,-4.158934848734942591e+01,-9.300083650862710272e+00,5.121207428133833162e+01,2.920420851988300015e+01,-7.945205637406478161e+01,-5.094269348298389133e+01,-9.136874473845283617e+00,-1.140664875379890901e+02,1.990233864650203941e+02,-1.428373304754775006e+02,9.178650838421990699e+00,-1.485325125639980399e+02
4.505617746857302564e+01,1.272229609345661494e+01,-9.467311035942344688e+00,9.348679539729062071e+01,-9.328134120476629931e+00,-1.046785840189293992e+02,-4.187284546807940444e+01,8.282499812245860937e+01,4.159442539786522275e+01,0.000000000000000000e+00,-1.480691330774576784e+02,2.138126527698609891e+01,-5.584648188136779368e+01,2.436658444333211904e+01,-1.014594570658626083e+01,5.613207428283207889e+01,1.094487740083985301e+02,-5.506074570284336005e+02,-1.728316209986817569e+02,5.888231871163072384e+01,-1.023512360358255648e+02,4.150380509476152469e+01,1.750282604384846366e+02,7.858125829839829990e+00,-4.204254507346150405e+01
7.573277507903455330e+01,-3.428901226697163906e+01,-2.844215231391773457e+01,1.449484744640759573e+02,3.601867661021333600e+00,-1.682901775702114833e+02,1.857839136191487057e+02,-4.841000187740939253e+01,1.717858313444068301e+02,0.000000000000000000e+00,-1.812702510554107960e+02,-7.882303549117906982e+01,-2.536663737652565231e+01,7.302244110008025757e+01,2.882207315985978013e+01,8.515761274683474369e+01,1.264787736212786058e+02,-4.954141882685274823e+02,2.136354858903781917e+01,8.445131886403022747e+01,-1.885594594330724476e+02,-6.986690125220729897e+01,1.082568581554204030e+02,-7.964126271460563089e+01,6.692421262754952416e+00
5.037431948274693383e+01,-2.730571986419928976e+01,-6.635702973441220820e+01,1.003553126028360936e+02,2.448683863171952879e+01,3.915731127169534886e+01,2.034286053571564139e+02,1.625499811222946533e+01,1.094724148461403423e+01,0.000000000000000000e+00,-5.543501970053767991e+01,-7.607644503004350156e+01,-4.627461270365435553e+01,1.606694267109892280e+02,9.253617489049624112e+01,8.496261274532076868e+01,1.438937732318409530e+02,-3.010176750255761817e+02,-1.919686960846179247e+01,-8.388633433540542583e+00,-1.467422787258902304e+02,-1.593291645763607107e+02,1.184107437245143331e+02,-1.150217898256392743e+02,2.278238556022410677e+01
5.282436822319348124e+01,1.755546749882813984e+01,-3.386684654938103733e+01,2.990553603157568929e+01,3.957182171802529780e+01,1.405448202490518099e+02,4.305434067582262969e+01,8.774999811274888373e+01,-3.735750260146458004e+02,0.000000000000000000e+00,-3.423004602562308918e+01,-8.749451095047449201e+01,9.927464106550145573e+01,1.689993492118814231e+02,-1.342895856980269116e+02,9.308815120632263529e+01,1.852962141684260757e+02,1.731077446567128959e+02,-4.212245014389365565e+02,4.030744909280221577e+01,-1.322365496692258091e+02,-2.630584256722969485e+02,1.286991494454352960e+02,-7.810868254648202225e+00,4.160738762151297720e+01
1.526836169137552019e+02,4.481363582783666999e+01,4.058242491272635277e+01,1.885122365320066535e+02,6.928676974422552348e+01,-1.137530135714292072e+02,1.782551289062762123e+02,-5.915001421487458444e+00,1.110261000719527971e+02,0.000000000000000000e+00,-4.771091767079183654e+01,6.080248403568383253e+01,9.007659113686666785e+01,2.099767639522902982e+02,2.189804792805817897e+02,6.406730594555838820e+01,-7.678846004231039046e+01,3.660181533720408993e+02,3.879932265186105269e+02,1.701505627699553713e+02,2.351354856958917594e+02,-1.464853248940153208e+02,1.057379790685448171e+02,2.167643372837224831e+02,1.026609801941289106e+02
1.044055741897454652e+02,5.917567720480256810e+00,3.317712817960608618e+01,1.102933336274187042e+02,4.722179836073948422e+01,-1.159682132466918247e+01,8.545133151611227618e+01,-2.231500146435982046e+01,1.363068543482083328e+02,0.000000000000000000e+00,2.091823174655226225e+01,-2.377617162837257325e+00,1.047292218810145954e+02,1.983771756734101643e+02,1.299919771762647258e+02,3.789622896192839363e+01,6.413457054781586919e+01,1.872021924632775125e+01,2.730876604765998081e+02,1.659075460032872797e+02,1.764817248187660539e+02,1.456397697796261355e+02,1.837473044090105248e+02,2.237973824758807666e+02,9.174086635943660895e+01
3.640412748682501132e+01,6.269655201558339286e+01,3.339683499274831036e+01,1.347410550454403335e+02,7.281684219660348845e+01,4.785586064087422642e+01,1.157834823407919913e+02,-3.104500150740996389e+01,-2.900600538645952042e+01,0.000000000000000000e+00,3.536950674889768464e+01,1.879411565986566401e+01,1.991190800471458147e+02,2.861426904835346363e+02,8.745795297231441623e+01,7.663692122065766910e+01,8.842839632307114073e+01,3.557616199325522075e+02,2.133879000722138528e+02,1.632121209148804724e+02,2.210244972829277970e+02,1.319099967315142692e+02,2.056074108459337424e+02,1.545946187033773640e+02,1.563207862068198892e+02
-1.801386659273348556e+01,3.513789685061640000e+01,3.863175356180296660e+01,2.105890449280533687e+02,1.058268707237664046e+02,6.746977237136223948e+01,1.033875330049542498e+02,-7.915001550368344851e+00,-4.231697405495306263e+00,0.000000000000000000e+00,-1.292449272684180350e+01,1.874758924032022733e+01,1.792008422416404301e+02,2.206622561944219001e+02,4.617031659660275977e+01,8.274599805223003557e+01,6.510595800763954344e+01,1.133963727036124993e+02,2.178635159606532170e+02,1.494290390074640698e+02,5.030007588728745560e+01,1.437731776320592303e+02,9.606800184084505645e+01,8.969325010249855268e+01,1.550405713442613376e+02
-4.157540489721739618e+01,9.825202172558602953e+00,3.074674604297261737e+01,1.664172396844888056e+02,8.021192817064383007e+01,2.593285343563178458e+02,6.852078884661885638e+01,-1.321500156086898059e+01,3.792084104557695845e+00,0.000000000000000000e+00,-2.002015403259833448e+01,1.170963161519016005e+01,1.916600080348445658e+02,1.062158518852374414e+02,5.036551633160689434e+00,6.253507487358647410e+01,-4.410101109644552508e+01,2.152330397623193221e+02,6.067462118363780377e+01,7.025014589668600706e+01,5.487629990564160209e+01,1.462745649909330439e+02,1.657706509354783861e+02,2.908748567363338466e+01,5.930015933863001720e+01
-2.603190034050599877e+01,4.093282012638042033e+01,2.565152676823004185e+01,1.747436445481303338e+02,4.620194324749985526e+01,1.475420822418027171e+02,3.770588938341862928e+01,-2.070000158051251660e+01,-2.687089946650081274e+01,0.000000000000000000e+00,-9.878307698816632954e-01,-3.724784170092988944e+01,1.412454498498726707e+02,1.056631253453290924e+02,4.045020703417194596e+01,3.810469017814507708e+01,-2.208420094344697659e+01,2.194547958179564375e+02,2.900152207679774463e+01,-1.040116702005864795e+02,5.537639639552418913e+01,1.589290755396229997e+02,1.071445076601928008e+02,-6.711308742734804866e+01,5.986480687608312934e+01
6.300462621148035236e-01,5.668091673638512873e+01,2.314651970808021275e+01,1.183844159522978998e+02,3.189697290908184968e+01,-1.147141852197194112e+02,6.957637567324628947e+01,3.303499838909565511e+01,-1.447731512317075442e+02,0.000000000000000000e+00,-5.560594095219332900e+01,6.161041863920545580e+01,1.277585008114847938e+02,1.203368581263076038e+02,4.186467475986027864e+01,1.996253628755410858e+01,1.571182129467805133e+01,1.982532108816601806e+02,-4.654717915373011294e+01,-1.960278179050708331e+02,1.722344576948966619e+02,2.500788634935800872e+02,2.802827741370830950e+02,-1.411622370858144793e+00,8.050449302633255400e+01
-3.477990305420923534e+01,7.291557331151172150e+01,1.355651218924979950e+01,4.597299605069745354e+01,-2.588012880158998996e+00,1.546144716049057877e+02,-2.138368297025274600e+01,2.494998358437284125e+00,1.777902240072376117e+02,0.000000000000000000e+00,-1.251284202723796284e+02,1.259930150990978603e+01,7.853431188643715188e+01,2.200129023732424471e+00,-7.499480465412624142e+01,2.142484392695818229e+01,1.649190027870818298e+01,9.147449269491319512e+01,2.280840931946256234e+01,-1.914013264991314998e+02,-7.963820486194761017e+00,3.077716919006584817e+02,-1.548224029412487823e+01,-4.558541854847320707e+01,3.375417917638892362e+01
-4.371824928050233439e+01,4.223692603738981433e+01,1.336644146184387161e+01,2.191615825382411842e+01,-1.208801248969933440e+01,-3.077657629914799600e+02,2.797708117663238880e+01,-5.840001661594251381e+00,2.169693745861296463e+02,0.000000000000000000e+00,-7.364204871215721937e+01,-4.803421653981785333e+00,1.739864567565115578e+02,-4.577901453084278316e+00,-6.878060102957897470e+01,-6.192309969632553646e+00,1.896575659354040511e+01,2.456967447458779930e+02,1.768168657788757798e+02,1.543551690819756743e+02,2.112864194328745171e+01,2.237194168867075916e+02,4.866942551307912623e+01,1.405698688042381228e+01,3.180393473241680624e+01
5.224174528876849166e+01,3.067631790496818311e+01,1.283151179532035435e+01,-8.533082469978326401e+01,-5.519802730381830713e+01,3.888086599380854409e+02,5.843228154532017982e+01,1.249982966134186579e-01,-5.704340247896899427e+02,0.000000000000000000e+00,-1.074129484526216629e+02,-5.166694016713726256e+01,3.628289844742022296e+01,9.425486878935009827e+01,-3.271166099847336994e+01,1.101553614667390946e+01,-2.516479531928209568e+01,-3.301157998648219660e+01,-1.411343680433613024e+01,1.574476288598761187e+02,1.529937835465443072e+02,-7.526798898927876280e+02,-2.172199813685735990e+02,8.787678314068776331e+01,1.343187922032474262e+02
-8.758251846639225846e+00,-1.217523413529045939e+01,4.182009974742435077e+00,-2.584646882103977532e+02,-5.719299949344956957e+01,-2.551278074620528855e+02,-1.746169353719173500e+01,1.555999828707192911e+01,-2.249882663169325383e+02,0.000000000000000000e+00,-8.506492034960308146e+00,-5.655723831155695791e+01,-7.776661184170049523e+01,2.082912078049699289e+01,-1.725347862187153112e+02,-5.088661775172872126e+01,-2.384444220014036731e+01,1.334835012386745916e+02,-1.876243746713826113e+02,1.185003556498535104e+01,2.295754826375562629e+01,-3.098699303882983713e+02,1.085907674427902379e+02,4.990798682139967468e+01,-2.508128211595698076e+01
-2.911319587258167019e+01,1.774755775994845308e+01,-1.016808936932816598e+00,-2.279391611999817542e+02,4.404700075519787106e+01,-1.788580937368905097e+02,1.293237652603994192e+01,4.784499825568188669e+01,4.761991627690779438e+01,0.000000000000000000e+00,-1.059616642537824447e+02,-3.859880305598009187e+01,-8.576521317676635192e+01,6.974963449320283360e+01,-6.758209944841257766e+01,-7.805431010965672556e+01,-4.989770986449712353e+01,-1.265510719943324034e+02,5.044034173363287010e+01,1.908436804074501936e+02,5.348439262738340716e+01,-9.713093747161145757e+02,2.843151807639942490e+02,6.899661832302045639e+01,-3.306138722488766746e+01
4.329844634119338309e+01,1.042071866530199884e+02,3.964256203900697884e+00,-3.280129323871524321e+02,2.942195501621849374e+01,-2.200329865220778345e+02,2.387432849730963369e+01,3.721999824507172150e+01,5.104540810605371348e+01,0.000000000000000000e+00,-1.610514341889318644e+02,-4.765826674251683670e+01,2.789476383237300183e+01,-4.246214708558530759e+01,5.389083467081854906e+01,-7.212038705061372923e+01,-1.459491610744517409e+01,-4.226896568447216964e+02,2.409896941827262538e+02,1.509296954323921796e+02,2.050694987686670743e+02,-8.079661877407120301e+02,-2.564266286618052391e+02,1.608558583250631386e+02,9.567837208852968445e+01
-3.036557908164605912e+00,-6.948642623970189902e+01,-5.844783058169984002e+00,-9.929303173537563509e+01,-3.158012559666323327e+00,-1.034965346772193726e+02,9.005770527246011170e+01,2.370499823446114718e+01,1.291793086380129125e+02,0.000000000000000000e+00,3.886477738354560074e+01,-5.301174715084631828e+01,6.351636084915604386e+01,-2.765150868238536077e+02,6.211841719583266475e+00,-9.442754094298476275e+01,-7.275090116042022714e+01,2.546777370870612742e+02,3.166346402342952047e+02,7.421391278951978165e+01,-2.286681909313223855e+02,-5.902559221944618457e+02,-2.316792112490557187e+01,6.899365719467272129e+01,2.237320076964785898e+01
-1.830495613897216245e+01,-2.222309117794572444e+02,3.388920933859687068e+01,-1.900176385398544880e+02,1.795201399355558536e+01,1.960265892891030148e+02,4.896970773843405311e+01,-6.250017759471859780e-01,5.726219491544636497e+01,0.000000000000000000e+00,9.708342674968829300e+00,-2.865104569088108022e+01,1.025951301367502708e+02,-3.798319083704034256e+02,-3.722499900860045585e+01,-5.505915636416830949e+01,-8.438794823376504439e+01,2.665040592547593405e+02,1.653367727714267801e+02,-1.076866559131741212e+02,-4.572313188579666985e+02,-4.362829772434306506e+02,-9.756222647903572920e+01,8.072917978411110695e+00,-3.397693802126406837e+01
-2.023992162782590754e+01,-1.176723265625020787e+01,1.190894861849299424e+01,-3.485578070201785863e+02,1.376820660124390088e+02,-1.136266439457653803e+02,3.609499723110968006e+01,-1.509500180772690925e+01,9.385600508984617818e+01,0.000000000000000000e+00,7.812073519276547806e+00,8.139300573367435732e+01,-1.284997189477206518e+02,3.209454510251793735e+00,-9.514466578788230322e+01,-3.541969484711122362e+01,5.275121410545953182e+00,-3.676363150087300369e+02,-6.557503540149355103e+01,5.489854469380050972e+01,-1.198727851210080416e+03,4.795154802107676915e+02,2.797094380514571554e+01,-9.031144821088261665e+00,-4.813190432046878442e+01
1.136669170272783091e+01,-1.354277624180569717e+02,-3.480704498736690056e+01,-2.324807475156525882e+01,6.522178633750299070e+01,-2.290170482726820467e+02,-2.371009376577752903e+01,-2.385500181777889139e+01,2.456483907396876276e+01,0.000000000000000000e+00,2.137251741102937785e+01,-2.083845009228623724e+02,-2.738734401146708137e+02,3.283891395618122715e+02,3.021458290531170121e+01,-5.376577180425687175e+01,-6.115588539642375920e+00,-3.562684980279634601e+02,-5.305567508560502432e+01,1.690746651425173042e+01,-5.000997188023297895e+02,-1.129710074435860463e+02,3.098322912253444770e+02,1.451902336704951324e+02,-6.320704396114646784e+01
-2.895663171495743882e+01,-8.300434019617654258e+01,-3.200767809030548960e+01,-7.152741145541625656e+02,-1.490762252819091138e+01,6.021224249128372463e+01,-8.162953259787893501e+01,-1.907500181681373519e+01,6.232035147266939745e+00,0.000000000000000000e+00,-1.998738119975685379e+01,-8.882742740669185366e+01,2.767476545915950510e+02,1.055380214257724276e+02,6.568168381238022846e+01,-5.058184875271210501e+01,2.781397686180402928e+01,1.376457744221383734e+02,2.537817101940237308e+02,-1.972626600969544484e+02,9.045006735983976753e+00,4.441420439892204968e+02,3.758199505925383050e+02,2.776674693678668149e+01,-6.385221034920972727e+01
-4.926656311080255790e+01,-5.028883392411951547e+01,-6.732436823430548145e+01,-5.302595648469681464e+02,-4.780415229727167770e+01,-4.338825859342938429e+02,-3.561663062660950629e+01,-6.803500183775960863e+01,-2.137268447543787175e+01,0.000000000000000000e+00,-2.722833793107261044e+02,-3.092907295792309696e+01,1.223021355450370464e+02,-1.352399772650449279e+02,1.978903443866946361e+02,-4.173238722695637648e+01,-6.442980311123884007e+01,-5.117426440475715026e+02,2.341791143498601286e+02,2.696541366729348965e+00,1.584925276563813270e+02,-2.452271647183321690e+01,3.374443680272218558e+02,7.036490075888394813e+01,-1.538823113767492146e+02
2.369344099384773727e+01,-3.719945416875893329e+01,-7.539535527107295820e+01,-5.981641505984328688e+01,9.171695594467129453e+00,9.949930022932687734e+01,-1.130552468513534592e+02,-3.451000185890063676e+01,-3.497695800456352977e-01,0.000000000000000000e+00,-2.777098917649613554e+02,-5.037713228630957829e-02,5.949521967642630926e+01,-5.551371737092463263e+02,1.497496355811545072e+02,-1.770346416069378037e+01,-8.236279598970702409e+01,-7.066079423922707292e+02,-4.933632240498528176e+02,-1.051898057207140909e+02,-8.598908340713916232e+01,6.124514506317729712e+01,-5.024807387097395690e+02,8.115403959451516869e+01,-1.852623183296470586e+02
9.219956971624535313e+00,6.387434582639661329e+01,-3.946648616492085893e+01,-4.812401152304113907e+02,-9.094799431804761980e+01,-1.090023091551537391e+02,-4.135008738905168002e+01,-7.637000186911009791e+01,-6.588612127492211812e+01,0.000000000000000000e+00,-2.658746683546787892e+01,-1.362299106523946932e+02,9.306955347103966858e+01,-7.400267742308459162e+01,-9.147035451179012000e+01,8.375997354850579057e+00,-8.723807216148024679e+01,-7.142433401946750564e+02,-1.680648104318064213e+02,-1.068454473107147464e+02,3.092227055361602766e+02,5.682466692427210546e+02,-6.696431761421689544e+02,1.120815240814553277e+02,-9.729234914007896862e+01
-3.830508473708663075e+01,-1.446181974165303927e+02,-3.877304221105664794e+01,-2.933943880734240679e+02,-8.128309488757324175e+01,-3.345693657065319258e+02,-7.545811211623383485e+01,-2.282000186833330702e+01,-1.029411612940898095e+02,0.000000000000000000e+00,-1.316126183571230968e+02,-1.413736157611399733e+02,5.056652544672581939e+01,2.181706455603408017e+02,-5.607673112838059026e+00,4.358599735633602279e+01,-8.441350631727384268e+01,-2.285623674093174600e+02,1.089756134533840708e+02,6.384962584163951504e+01,4.797146087927238511e+01,1.237666661802865633e+02,-1.325782260975771010e+02,-3.343539903480355235e+00,1.121754694209712966e+01
-2.369695845119730393e+01,-1.107524011675039901e+02,-1.337760724020951209e+01,6.836949148272921661e+01,-4.335309309942125111e+01,1.181949130209242327e+02,3.171922836608590757e+01,-4.772500187861682264e+01,-2.214767186566678845e+02,0.000000000000000000e+00,-2.168793749748720643e+02,-1.906830455883819013e+02,-1.135673379245500314e+02,1.343227508887547685e+02,3.711784655800536825e+01,2.380599734462182226e+01,-7.040728586956100798e+01,-3.913199285025454515e+02,2.878738874827690779e+02,3.782740683050388686e+00,7.712544194005324982e+01,-8.131444629327391738e+01,1.184962424447446523e+02,4.427818658886177161e+01,-6.590748673970765026e+01
9.413086045536013913e+00,-7.708464780708161435e+00,4.417470676848703093e+00,-1.027022124602519710e+02,-5.494309407436232817e+01,-1.298836443777537397e+02,1.058410017691910809e+01,3.348999810059815729e+01,-1.434801342973956473e+01,0.000000000000000000e+00,4.886132328423219207e+00,-7.576722690700600538e+01,-6.034898169955194192e+01,4.948673482983905103e+01,-6.503500456033968646e+01,2.393653579690269595e+01,-1.741272111385324095e+01,-5.788737226611171138e+01,6.462190894905288019e+01,9.920427556454691853e+01,1.311549822714453626e+02,2.641743071740416440e+02,-1.898191749481638624e+02,8.743229666234810793e+01,-9.414258489582252309e+01
6.209622364852850751e+01,7.461925867997080353e+00,-5.707452129199952040e+00,4.395681903074621033e+01,-3.610312013627552830e+01,-1.648366860867429295e+02,9.529633895651257092e+01,3.158499810074298964e+01,5.687515339599685404e+01,0.000000000000000000e+00,-4.933872896717204526e+01,-1.187665677440242185e+01,3.823763632268368440e+01,7.850736846206018527e+01,-2.227070460929596862e+01,4.548153579689233084e+01,1.276499552299819307e+01,-2.561465366579367355e+02,-1.148818044601414385e+02,-8.343963944100005392e+01,1.122428817797504337e+02,2.714460251007801617e+02,2.608416269148647189e+02,5.470200093024515553e+01,-4.651258372321340318e+01
1.311627646038061279e+01,-2.375252058765886787e+01,-3.577739240213647065e+01,1.087123923888245258e+02,-3.488116147163099257e+00,-1.173322044359827885e+02,1.751281252741612491e+02,2.392999809024977864e+01,1.679027717335327168e+02,0.000000000000000000e+00,-1.101898186456489981e+02,-8.663325447719995509e+01,-9.120838120934575244e+00,1.091212409134285082e+02,2.709632451653320828e+01,7.533099732116799885e+01,9.947999549912994155e+01,-2.804823664681026116e+02,9.091884111946767177e+01,2.558997631202940397e+02,-1.163248009443202449e+02,6.496358884977934167e+01,-8.562156458512185964e+01,1.168063735910032541e+01,-3.026258168294253181e+01
1.024282242641926821e+01,-3.310600765760265318e+01,-6.292217684277942169e+01,6.888411072098284649e+01,-7.143147211453326761e+00,-1.199947287883020834e+02,2.677227424540122911e+02,-1.407500190936227291e+01,2.629654847435983545e+00,0.000000000000000000e+00,2.352848305505330728e+01,-8.505481946461080156e+01,-7.803317444371396405e+00,1.449882397396676197e+02,4.284570030800568219e+01,7.388099733286991011e+01,1.097722777069568707e+02,-3.798114428565950220e+02,2.218651833070694295e+02,2.185784104157043544e+02,4.646113159133921755e+00,2.040298232565644412e+02,-5.806575078504066596e+02,1.622336698648714730e+02,-8.507583685260764028e+00
4.755441866609464796e+01,-1.846304054842992315e+01,-2.973177191525413576e+01,5.360178662150135409e+01,2.122183687544485764e+01,2.148096477137729323e+02,6.423039699559336668e+01,-3.480000190888514311e+01,-4.796416831079779968e+02,0.000000000000000000e+00,6.658457054168160028e+00,-1.654279676823936711e+02,7.003297200229317809e+01,1.564342620796089705e+02,-8.598241233815706153e+01,8.328153579386314220e+01,1.542297182644837790e+02,1.504547675241609568e+02,-1.862785205704793157e+02,1.733066155537287329e+02,-8.040825923730839264e+00,2.027639613775311744e+01,2.021557573461056734e+02,2.331765782067853934e+02,4.074741433219271869e+01
1.479505296098260203e+02,3.709215030673166780e+01,3.609720307925393712e+01,7.374127725933408328e+01,5.278178181173365147e+01,-1.397412537372771908e+02,1.483119000412713149e+02,-1.238500142115007918e+01,5.884778180479396781e+01,0.000000000000000000e+00,-3.003489289258148531e+01,4.314132558512332594e+01,2.793548621418895550e+01,1.620135153952812743e+02,1.573087833564579228e+02,6.591730592513268050e+01,-1.185876734191008666e+02,2.163945399770771587e+02,2.965161064611356210e+02,1.071124677628371558e+02,1.068627228531179583e+02,-7.007174207113938280e+01,8.632277324651768424e+01,1.888990284875904138e+02,9.259594156273992382e+01
8.353902992905396729e+01,-1.490887581924678074e+00,2.893698058742629087e+01,3.200865801431096713e+01,3.948679613154303780e+01,1.342709435940451179e+01,6.755134409515147809e+01,-3.898000146440901403e+01,7.160851188450912730e+01,0.000000000000000000e+00,6.761120562528880384e+00,-4.174654976771864767e+01,1.707419784917305350e+01,1.489109886199333062e+02,7.910372329267744362e+01,3.968569048918959652e+01,3.597913649405987968e+01,3.710523288173288137e+00,1.723801770790356329e+02,8.600890566236778056e+01,2.180314648452516053e+02,1.057898623186834612e+02,1.491188274178063580e+02,1.605400326905488839e+02,7.784585646083768040e+01
2.115253009241494908e+01,6.352803095674158840e+01,2.958682481806046383e+01,6.334302871829032000e+01,7.028685441196444117e+01,4.343763978315474361e+01,1.074962060351014372e+02,-2.932000151837691249e+01,1.304468239854143263e+01,0.000000000000000000e+00,4.466857478207774790e+01,-1.813093969984904064e+01,1.868015743651391176e+02,2.408064149874705322e+02,3.980284930923837550e+01,1.026313827479331593e+02,-2.096065786031887157e+01,3.416334777900207769e+02,1.422417856607319209e+02,9.556864587476393069e+01,1.083631945363264748e+02,3.908620821413541790e+01,1.545205244980770374e+02,1.098888510742640392e+02,1.139107783673574801e+02
-2.017046526883067159e+01,2.018656287576766317e+01,3.498667603867370701e+01,1.239577682247797554e+02,9.972189757866836146e+01,-7.860780062822578884e+01,7.131734414382394505e+01,-1.574000155062936024e+01,-1.584397235377759614e+02,0.000000000000000000e+00,-1.054164148573967807e+01,-2.203415685161519377e+01,1.421311940364405473e+02,1.740081608978661620e+02,1.263328542847606428e+01,1.019599211124795772e+02,-1.303825464609280793e+01,9.586332857689333764e+01,1.788390965847689245e+02,9.291468748145655354e+01,-3.622928876161667144e+00,5.645106641040383977e+01,-3.426881339662075732e+01,5.426168141883793083e+01,1.327505298226864738e+02
-4.199342471118661990e+01,2.784923626759788107e+00,2.766652063086145219e+01,8.484673013271238062e+01,6.752191114407777661e+01,2.764672749092341633e+02,4.373640908597830190e+01,-2.982000158263452505e+01,1.543721008517079269e+02,0.000000000000000000e+00,-1.781932412872696503e+01,-2.700235154377725522e+01,1.484724043457987079e+02,8.170151927653787993e+01,1.184847487267015387e+00,4.658399792061192812e+01,-2.618400282542436130e+01,1.069158845145412897e+02,2.185696882399442131e+01,-7.532154286034833035e+01,9.323740337187290450e+00,8.569610804387035330e+01,1.882424739453475127e+02,5.750737783506031064e+01,3.793010914642775333e+01
-3.592498192233851739e+01,3.330287404287127373e+01,2.144644277855453041e+01,3.381783318474722577e+00,3.773694089507884541e+01,8.239695496341259684e+01,1.359716782349145880e+01,-1.484500159130507591e+01,1.414898946697023803e+02,0.000000000000000000e+00,-9.077118717730376929e+00,-4.637365741079816672e+01,1.182928575991998912e+02,5.153772338690917110e+01,4.144293544866205714e+00,1.471915168048473355e+01,9.749303911846396886e+00,9.289840249720181475e+01,2.998123791046169995e+00,-8.541468263545861817e+01,1.023238469797209262e+02,9.307520987331062656e+01,2.886953918828797896e+02,9.578557658606742109e+01,1.541397961464124080e+02
-7.881486716832959871e+00,4.656636150376860428e+01,2.037143890311415717e+01,8.131034839268367875e+01,2.079197079247019886e+01,-2.877074472467974715e+02,4.334957114722598703e+01,1.903499838900643937e+01,-4.248631405852395915e+02,0.000000000000000000e+00,-3.413688647266678799e+01,4.704999082973468205e+01,6.488212893005108128e+01,9.898822159121185393e+01,-3.186914609537569021e+01,-4.034079138119956554e+00,5.154532433168051853e+01,1.336099140609683786e+02,-6.948224437336607195e+01,1.796061499080294865e+01,1.952676635380202015e+02,2.366697116958056597e+02,4.553002060488332177e+02,4.062923656146385554e+01,1.369544485963115221e+02
-5.343142153774935110e+01,6.210787937859940655e+01,2.009643493054653973e+01,5.110272193548837549e+00,-1.445800030646188716e+01,3.280918378754706737e+02,-4.579536730306915615e+01,1.098499834751250326e+01,-6.735899438881136803e+01,0.000000000000000000e+00,-1.118257265434407515e+02,-5.016965780899293748e+01,-3.395285009764558026e+01,-4.309304578269596675e+01,-9.756097656596284651e+01,-1.374069455596151279e+01,4.667766577946684237e+01,4.803734554268812929e+01,-2.955802971828214964e+01,-8.618237745175306941e+00,-3.875116141177438323e+01,1.638225256036855058e+02,-1.163836499611187207e+02,-1.771679127567555767e+01,8.399913765487625028e+01
-4.645638959969796389e+01,2.514253311460567630e+01,2.849629314655738810e+01,-1.274330738948897768e+01,-4.978298535389479440e+01,-3.001667492566501778e+02,-3.600835006606409650e+01,9.484998316430239385e+00,6.897050864999965825e+01,0.000000000000000000e+00,-5.161981115995934033e+01,-6.121539311105151882e+01,1.398509503717767757e+02,-4.690994715062210929e+01,-3.035904403905533044e+01,-2.875677151583517599e+01,5.190669764420183441e+01,9.756615329513721235e+01,2.437550922441780301e+02,-1.070858532954216855e+02,8.606260772758831479e+01,3.516365302614414077e+02,-3.599144744057938397e+02,1.185916693689800780e+02,8.422389117004556169e+01
6.939870664645604847e+01,2.884934831523337806e+01,2.432685525766094514e+01,4.953164623774465269e+01,-1.689679862146929850e+02,1.490897047674487794e+02,1.761235001203972317e+01,2.744998296316109254e+00,-5.647220639793652026e+02,0.000000000000000000e+00,-4.961541942894994150e+01,-4.168152152310004510e+01,1.331010867243177245e+02,9.775269634274478037e+00,-5.844574039745776162e+00,-1.039554080326736951e+01,3.830221478895213494e+01,4.156935120551002427e+01,1.053234146611010402e+02,-1.018533372707549489e+02,2.547252343243817165e+02,-2.390051470310361026e+02,-4.391751912323379088e+02,2.166317374192353498e+02,2.101587149597104940e+02
-6.701290298872050855e+00,-8.342209031354600768e+01,-1.374121808875344541e+01,-8.220602596302904885e+01,-2.158029828325572907e+02,-9.993546916572687167e+01,1.283967543448194704e+01,3.393999826518317064e+01,-5.326709282626674167e+02,0.000000000000000000e+00,-1.335923966261140450e+01,-6.130225486245417699e+01,-1.071493884845909008e+02,6.590697045760774131e+01,-1.055829602325200689e+01,-4.033823315397825837e+01,4.463150432752208019e+01,1.886557979748951652e+01,-1.578213088455807735e+02,-1.187952802050925527e+02,1.682467361190900235e+01,-2.360083601326844303e+02,-1.926368694383805860e+02,1.381441122565827300e+02,7.561871291672267148e+01
-4.369969568453853981e+01,-6.550901891525782617e+01,-2.674726798122851967e+00,-3.455560725407695344e+01,-7.723298251266210457e+01,-1.485383091501599324e+02,-2.380317103109661403e+01,8.802499825501494968e+01,-2.008915428194757737e+02,0.000000000000000000e+00,-1.230257487223003494e+02,-1.020005024326482470e+02,-1.024249379166792977e+02,2.757890455586078247e+02,5.428783292557027096e+01,-8.124484858087710393e+01,-1.487784186457047610e+02,7.015283034590353850e+00,-1.325180398029746414e+02,5.559769926913546101e+00,-9.353427402479008279e+00,-3.092263630604449531e+02,2.858093709756868748e+02,1.077573021137062526e+01,-8.687146040635882116e+01
6.637693222916625757e+01,1.662806143170089399e+02,2.500251106500711273e+01,-1.134134684895477108e+01,1.860705480282399549e+01,-3.521185440679466865e+02,1.123907117815491148e+02,6.800499824545964600e+01,-3.694370483329759622e+02,0.000000000000000000e+00,-8.592465032467192998e+01,-9.348466015868938328e+00,-1.468906923657608843e+02,2.644412952403827717e+02,7.869464001927370589e+01,-2.878646396112717198e+01,-9.884924570616522033e+01,-1.551448266989658293e+02,2.360623397617878823e+02,8.576311400035296906e-01,2.560483046184839395e+02,-1.075446805988697861e+03,-4.903022417224897254e+02,-5.461978754311988382e+01,7.766333053020714772e+01
4.599696953319956094e+01,-2.935190596416978792e+01,3.801004462955610563e+01,-2.675999739184925730e+01,7.911698437089299318e+01,2.891221405653766041e+01,5.538532772200301935e+01,-2.940001765363002839e+00,-8.634546991024876661e+00,0.000000000000000000e+00,1.753591356549321745e+01,9.097651715840495257e+00,-1.218795542640693981e+02,-2.076971080380631065e+02,-4.395122804079174017e+01,-2.243361791247872716e+01,-1.935267241861933130e+01,-6.034154825990656690e+01,2.698360042950577053e+02,8.862748516809242005e+01,-2.246058999250776367e+02,-4.410109608851132066e+02,-1.322591400034763183e+02,-3.576718819614480367e+02,3.945322659373740493e+01
3.543696804454425120e+01,-4.312003857332251187e+02,5.160582250985356723e+01,-2.226015813062109885e+02,-5.415279369209461890e+01,3.861412164035964452e+02,-1.213539019140597652e+01,6.643499820945970669e+01,3.306199541704376657e+02,0.000000000000000000e+00,1.375326964190964816e+02,-1.233617807677757554e+02,-2.734076513461775448e+02,-2.083763569702411758e+02,-2.037213959623260351e+01,5.960305148396265906e+00,-4.092188542236610971e+01,-3.199323485583774413e+02,4.937499724016969367e+02,2.568637378169014482e+02,-1.139623752307412730e+02,-3.479968020370709958e+00,-2.121912404934087135e+02,-4.618003067948947091e+02,4.602822748041640466e+01
7.062348496772789019e+01,-1.835031550570676586e+02,-2.859156282740168642e+00,-3.517420708507626159e+01,6.203712800506470870e+01,-1.895992772398867885e+02,8.288615675315590181e+01,6.778999818821361600e+01,-3.729634596101772814e+01,0.000000000000000000e+00,1.096356637517593100e+02,6.528825741086203038e+01,-5.287673433909011464e+02,-3.961308245571494240e+02,1.146726616885237746e+02,2.770422820444132483e+01,1.182696876254895244e+02,-6.622748921947279541e+02,3.356808988653193069e+02,-1.249271085780519428e+02,-1.649095712528926470e+02,4.231361273048715930e+02,-8.020525742022299198e+01,-1.127845158622003368e+02,1.885268363660300395e+01
1.051701228287498395e+02,-1.806510553800527248e+02,-5.263071259330811102e+01,-8.348080688782077630e+01,1.709265474281576473e+02,-1.407722717171146769e+02,1.261236348622572301e+01,5.088999816982119029e+01,-1.524919855678795102e+02,0.000000000000000000e+00,1.454403660172036723e+02,-1.058440505717170765e+02,-7.954142315704849580e+02,-4.482227877027519867e+02,1.827853552807172548e+02,2.433151257511981136e+00,-2.239830526101511410e+01,-3.239225683523744124e+02,6.678422891096998910e+02,3.938371622432311625e+01,-5.027486750799675406e+02,-6.628147919108694452e+01,-1.655269342280701750e+01,7.313550283603511559e+01,4.032788370696707858e+01
8.453331022596150035e+01,-1.711822146880797391e+02,-5.501169944123943623e+01,-1.568963572215022850e+02,4.118724366981426499e+01,-1.597626360779550225e+02,3.462556848771468765e+01,3.215999816030459613e+01,2.250113248181861820e+02,0.000000000000000000e+00,1.378534202453795956e+02,-2.201373941866879704e+02,2.639943954237943444e+02,-4.337634401253039229e+00,-9.612712722354879702e+01,-2.214292569095079699e+01,1.089360268841703316e+02,1.533150696037021277e+01,1.414467782682990844e+02,-9.996283239160743506e+01,-5.743526851505429249e+02,5.068716735016974440e+02,3.493466717950737461e+02,2.873992372119530181e+00,1.263795309343321449e+01
6.238354286302926255e+01,-2.566206817102280979e+02,-8.838739639588999353e+01,-1.064966039398999840e+02,4.410069252521687844e+01,-2.645771661503943051e+02,8.465912123133865919e+01,-5.800018608923358521e-01,1.444389341853363078e+02,0.000000000000000000e+00,-8.812406340543898153e+00,-9.360461756953617041e+00,4.181122010479652431e+02,1.755944246987943984e+02,-6.561258647357855978e+01,-3.587846417389983600e+01,1.585837014776730882e+02,-3.605429870431469226e+02,-3.116299903605349542e+01,8.605834073679062612e+01,-3.591470593431041607e+02,4.564686290724880564e+02,5.228439426233462655e+02,-5.529336727407146412e+01,6.684281056277131938e+01
2.616855885442145180e+01,-1.479252439765162990e+02,-1.097671778171571049e+02,1.454956072701885148e+02,8.154163638595278485e+01,2.149466808370034698e+02,-1.238096312111846942e+02,2.063999812799631428e+01,-3.250170340297127147e+00,0.000000000000000000e+00,-2.352006312294615213e+02,4.168223545962865728e+01,2.969478765517100669e+02,-2.687753177267813953e+02,9.601179418752386141e+01,5.075458890858183914e+00,6.284692911271594795e+01,-2.621884292115038306e+02,-5.117341921730378118e+01,4.934213542758452320e+01,-3.051310186368462496e+02,4.239357576819919018e+02,5.160757110686269300e+01,-1.077334980146808050e+02,-3.868242723375927739e+01
4.672349958165663253e+01,2.993431797489865787e+01,-6.954633562938491309e+01,-2.250314188235568622e+02,-8.780609669562871034e-01,-6.988133456902804141e+01,-1.227461857788805020e+02,-3.136000188191785654e+01,-1.776696361955704901e+02,0.000000000000000000e+00,1.051160710236311502e+01,-2.072855572798408019e+01,-1.420954307279687896e+02,-2.354491886844205055e+02,1.630582618979196070e+02,3.577045888063180001e+01,5.096649457590230270e+01,3.441497730955081806e+02,-4.226167004150695305e+01,8.590421637503489194e+01,-2.485537439542180493e+02,1.404130997640962164e+02,-4.557594105048691517e+02,1.444125419002387218e+02,-8.570759564420544052e+01
-8.120648510600004499e+01,-5.498613743520694896e+01,-6.960290341211468501e+01,-2.023071156666901231e+02,-6.757306984156171836e+01,-8.322608992235977610e+01,-8.311390784644467544e+01,8.032999810982870770e+01,-4.360438929519272477e-02,0.000000000000000000e+00,-2.615829951493695944e+02,-1.379715632405377335e+02,-1.183839022203469682e+02,-2.470266999084291797e+02,6.427450645770309734e+01,3.595992040639323761e+01,-1.369622332574954982e+01,5.449107068657203712e+01,3.570465429711432535e+02,9.448902968487102783e+01,-4.029209735422357994e+02,-8.593145649466160663e+00,-1.489854501925937313e+02,5.987629387139270420e+01,5.022246886683360856e+01
5.475188183858048063e+00,-1.736629743309817684e+02,-2.814310860434877881e+01,2.779446976021118303e+02,-1.460808156534716318e+01,1.144248396880572187e+02,-1.304939527753318984e+01,5.908999809820949167e+01,-2.549257789899224917e+02,0.000000000000000000e+00,-1.326139768738840132e+02,-1.068571979297071408e+02,1.177849920695159511e+02,-1.719222100820821311e+02,6.526751893222578360e+01,5.337938194237990785e+01,-3.704606506826294776e+01,-4.486870431423791956e+02,4.484542799073959429e+01,-1.511922088568458946e+02,-9.375326657353404869e+01,1.333539361893578530e+02,1.000356879848288401e+02,-5.251906509620484087e+01,1.654746971653447574e+01
7.941177701387671561e+01,-7.692657409598689355e+01,-1.352607304961496393e+00,7.387297547995324010e+00,-5.479806953174186646e+01,-7.005389529700678075e+00,6.724044672713458226e+01,-5.781500191113329379e+01,-5.130458951235347342e+01,0.000000000000000000e+00,1.185738627696508729e+02,-2.929778210768717273e+01,-8.269822498438949765e+01,-3.296649210675006003e+01,-1.922565195988679676e+01,5.091938193216110875e+01,-5.655278750860951220e+00,-3.809117012161712523e+01,-3.428707032953575151e+01,2.028273026231058225e+02,3.539303818563668642e+02,3.755834773150299384e+02,-4.606160017270200342e+02,7.395591971574698675e+01,-6.217559921258186684e+00
3.834318226254777073e+01,-8.433199913487102961e+00,-6.807593254833281371e+00,-8.430195422565412855e+01,-5.426809019422343994e+01,-2.906209870622042217e+02,-4.514263715919089037e+01,3.916999809014453859e+01,7.007065182805482095e+01,0.000000000000000000e+00,-4.049009375241037390e+01,1.570469369392526104e+01,-3.543146805071902605e+00,-1.080821868645411001e+02,-7.910869764106105606e+01,6.070492038293809856e+01,-3.024527950965362066e+01,2.503641853028708795e+02,-2.920977948646343521e+02,-8.084698696527259187e+01,8.502999138866321971e+01,1.051865444637055731e+02,4.052658442841171222e+02,1.200470562618752552e+02,-1.103526272667708525e+02
-6.484524790104987346e+01,-3.849686680448341836e+00,-3.733749106791947980e+01,5.921340032784985397e+01,1.290189745826623913e+01,-6.956052550916224675e+01,9.338457808612695032e+01,-2.450500190974480574e+01,1.428522302456451314e+02,0.000000000000000000e+00,-5.021692319611619659e+00,-4.258352339039839762e+01,1.560821558888222569e+02,8.838856391403740531e+01,1.519497383374756438e+01,5.505938191891767985e+01,2.909243750455355837e+01,1.479682826053754354e+02,2.405675237362511254e+01,4.079533029976071816e+02,-7.445055275400521566e+01,4.913608097381754760e+02,-1.160585719965104090e+02,7.598565794029046572e+01,-6.732265688634880973e+01
-2.396367453484905141e+01,-4.491130399554671015e+01,-6.174704296180630081e+01,-9.181630094603605130e+01,-3.933120024793852920e+00,-1.462924677458989038e+02,1.328044126378350995e+02,-1.072300019093583074e+02,-8.386948945126884158e-01,0.000000000000000000e+00,5.359887584307308828e+00,-5.008996019131303257e+01,-3.145967971929339058e+01,8.817787003684063052e+01,9.945186171166325551e+01,6.214492039463162598e+01,8.798322384346155900e+01,4.995358464030574908e+01,1.806656933951032897e+02,2.346211251965088991e+02,2.030075261319792901e+02,1.783850871780712168e+02,-7.614139715041729914e+02,2.004982446802937375e+02,-4.977765684885296338e+01
8.447824167068771928e+00,-4.731815787390359418e+01,-2.730670687919857897e+01,-1.936495190858763351e+02,8.566864294867663432e+00,1.948916430213227784e+02,1.304166843343989797e+02,-1.924350019090121009e+02,-3.441800840378732005e+02,0.000000000000000000e+00,-8.044643550759102979e+00,-1.385915990360084891e+02,2.074995967332780467e+01,1.034543540322601558e+02,-3.831923971280497199e+01,7.518492039312675956e+01,1.119694432205675980e+02,-1.378144203549767610e+01,-9.286979652188945522e+01,-1.726103598101391512e+01,7.639981120760563726e+01,-2.025596817210264646e+02,1.227159822944302192e+02,1.993830905816001575e+01,-8.765886992642091258e-02
1.349524422332956703e+02,3.318381920841174804e+01,3.054711514938638217e+01,1.170820081085090081e+01,3.969180918163652194e+01,-1.471264259472005165e+02,1.046537839432893833e+02,-2.832000142135755283e+01,1.971382971065908052e+01,0.000000000000000000e+00,-2.942220528443798955e+01,7.029293311218895113e+00,-3.284528468180216976e+01,1.139150886199743553e+02,1.052489315357739059e+02,3.879176743767996527e+01,-1.120068860684828991e+02,1.468972246275951079e+02,2.004058600532925993e+02,6.660077199001652559e+01,3.609193394269666122e+00,-6.743498710195201795e+01,5.339772981326118639e+01,1.406678908123372196e+02,9.154093368639192363e+01
6.414248269547130121e+01,-5.599163955043334973e+00,2.234189587464377524e+01,-5.543746287145557972e+01,3.547683783735446639e+01,-5.135315090533983096e+01,3.672633186088629031e+01,-5.171000147520431511e+01,6.859532273960230953e+01,0.000000000000000000e+00,-1.385635041381846300e+01,-7.476853289437649153e+01,-4.247813562152861522e+01,9.369478688622375273e+01,3.381598907032545043e+01,3.596015200025025393e+01,1.204386154728111080e+01,-7.331903220201400018e+01,1.061912172131530099e+02,4.590834908003105852e+01,2.181506034133611251e+02,9.178659058841573426e+01,6.840895949130297993e+01,1.100264185581252150e+02,8.119081987013591117e+01
1.042939695977074521e+01,6.084917662273465311e+01,2.379174729493143658e+01,-3.461482078811877638e+00,5.832188091301990340e+01,1.001524285622397912e+02,9.534396117209590216e+01,-3.838000151833112028e+01,9.406540046519404541e+01,0.000000000000000000e+00,4.261454203907427996e+01,-5.187286096915278932e+01,1.443112260538570126e+02,1.918182245662381149e+02,1.767116848161676756e+01,9.984030580668758148e+01,-1.063106571368370936e+02,1.851278685611768537e+02,8.647850168780549041e+01,-1.086661344800341134e+01,4.697019878260841352e+01,-2.264731230306260201e+01,9.468815447148209330e+01,6.956486805906128268e+01,5.908077052773740689e+01
-3.837201533045095658e+01,3.403034110025211945e+00,3.005659165506898489e+01,1.877085440187493504e+01,5.378191022040566338e+01,-1.398896013427806508e+02,3.510062084825595008e+01,-3.541000155050282672e+01,-4.078838011452770047e+02,0.000000000000000000e+00,-2.242546134388565449e+01,-5.407662522987015308e+01,8.866814904364856886e+01,1.250127746081754765e+02,-3.107203684415298284e+01,1.009083056970294763e+02,-6.611124608167273209e+01,-1.265066912663416474e+02,8.557613540234629568e+01,5.398110464767816197e+00,-1.207932589877869489e+01,-4.464502197684149110e+01,-1.327120295303402884e+02,3.423948401631784932e+00,1.387955191116063247e+02
-3.428995746695484570e+01,2.688979608631448137e+00,2.090136919561702200e+01,6.023993910642772676e+01,4.622192482971411920e+01,2.512820660269053690e+02,1.965660782236220072e+01,-3.836500158241438641e+01,1.506863964100318469e+02,0.000000000000000000e+00,3.854387395652328507e+01,-5.370934663288625899e+01,8.024963903662292353e+01,2.577825517841126768e+01,-4.285653806586887526e+01,5.334292097066846594e+01,-7.414471198070357616e+01,7.813682139356184564e+01,-7.058474797529522959e+01,-1.078084529504032787e+02,-2.432821955457109908e+01,3.268399755805587859e+01,9.287575872429690094e+01,2.569587148206270300e+01,-1.597489480237897652e+01
-4.121148178131919337e+01,3.350112326055872813e+01,1.754643598283077210e+01,-5.524883165643242933e+01,1.886195325862433947e+01,1.482536300738359714e+01,5.315016033569489906e+01,1.504998398030097606e+00,3.592681938792800338e+02,0.000000000000000000e+00,5.939763975849029976e+01,-8.667872473347819096e+01,5.013463635747466185e+01,3.949179102308825406e+01,-8.597971157789457664e+01,3.931361319453025516e+01,-5.340746589726382609e+01,1.729137752360031755e+01,-6.527287489659536845e+01,-9.306953753094839854e+00,8.696491170074684973e+00,1.196076274264746786e+02,4.226152332189633398e+02,5.255879067324513443e+01,1.392197566470387073e+02
-3.460803096036107007e+01,4.273631782406314272e+01,2.094122028672683911e+01,6.774928015282306148e+01,4.563698292617419838e+01,-1.732086149334280947e+02,2.500799766147799374e+01,-4.510001621907564484e+00,-1.869360506496006451e+02,0.000000000000000000e+00,-4.112395727012578561e+01,8.439795839084067097e+01,1.830741530952413498e+01,1.096631792672416168e+02,-1.099974326344494671e+02,2.114843913430667577e+00,-1.283889520099303283e+01,1.575769097103122363e+02,5.261672771849346475e+01,2.510252789130003350e+02,2.232765413527391729e+02,2.614782918317995950e+02,4.588677142714883530e+02,-1.700958825238501504e+01,9.130444279750241776e+01
-1.080129670463782929e+02,4.138630116245558810e+01,3.776121318878214339e+01,-1.426665390182453130e+01,-4.691795814829937683e+01,3.579914731832929533e+02,-5.086490993498541968e+01,3.039998347437813386e+00,-1.362416398527261663e+02,0.000000000000000000e+00,-1.060133986417629472e+02,-7.365168937433985263e+01,-3.445395254608754954e+01,-1.307814777606779622e+01,-1.331880881945242834e+02,-2.929677151764655818e+01,2.651115163353259163e+01,6.590295755474168971e+01,2.806110989045067328e+01,1.684720910015247455e+02,1.978144670507691316e+01,9.438619527398542175e+01,-2.057021152996046283e+02,-7.103566080821484263e+01,9.477412981553823101e+01
-5.714288359266583939e+01,-1.937317790017409180e+01,5.914620999323327055e+01,1.024454667930636447e+02,-3.877795972831669502e+01,-1.527694112162889155e+02,-3.103395193176149647e+01,2.771999831690136418e+01,-1.408578033288310678e+02,0.000000000000000000e+00,-7.243711511042270956e+01,-1.066771742738672799e+02,2.208728661262557296e+02,-1.102863705360939406e+02,4.809386452882758789e+01,-6.516231000179863031e+01,6.003018934806514295e+01,7.436885052141872166e+01,4.202470215872133252e+01,-1.182691141202670480e+02,3.390136886739874456e+01,3.865928748417127849e+02,-5.437001455150185620e+02,7.606989725553293624e+01,2.140738545609089272e+02
8.902713792508630775e+01,5.875549127836891472e+01,1.996726986287735528e+01,2.857003481884369762e+02,-8.016294478033843518e+01,8.861234574432656075e+01,7.780738422432668244e+01,4.575499829724883938e+01,-4.202816002947388370e+02,0.000000000000000000e+00,1.306840082845592121e+01,1.969824780880740889e+01,3.932980382741114767e+01,-2.266581728736399839e+02,1.867033779487093739e+02,-4.043161773131379988e+01,1.021880044081418504e+02,5.141956970808704455e+02,1.039426034516485373e+02,-2.610202055866314481e+02,3.376558999401436267e+02,1.559941821959413133e+01,-4.409765207107192282e+02,-3.376420503172741228e-01,2.048836792372348725e+02
2.350712638228375795e+01,-4.954387479052915921e+01,-3.064023860319245074e+01,5.876244112101074535e+01,-9.381294580692915019e+01,1.376314403929779218e+01,9.441463400613734791e+01,5.794499827689486438e+01,-4.348763135796031065e+02,0.000000000000000000e+00,5.002604499511789982e+00,-7.839327008996812651e+01,-1.224601810430361581e+02,-9.230930376352480948e+01,1.217096764249476166e+02,-2.390931009222834547e+01,1.038287872639845233e+02,5.611211358163233598e+01,-8.596477704720599888e+01,-4.568688884569922948e+01,1.953833759144158080e+02,-3.430984468326096817e+02,-2.709164931575771220e+02,2.448410539693018109e+02,6.392360202721675932e+01
2.919726867250164659e+01,-5.776663838032775544e+01,1.844836337448079178e+01,1.341579021455138729e+02,-9.500795650764369782e+01,-2.179105752207422952e+01,1.362071027858682157e+02,1.221099982569680549e+02,-1.181437386864648431e+02,0.000000000000000000e+00,-2.491704060827838774e+01,2.921272521585854776e+01,-1.723365291366833958e+02,2.617227407764626150e+02,-1.023311432906400000e+02,-7.840592553534060016e+01,-2.062821716813325068e+01,5.220988438769167033e+02,-1.817566272096330522e+02,1.651538858492642703e+01,9.959131163991629876e+01,1.975130602174397154e+02,-1.337397819696363968e+02,-1.136498770932335560e+02,4.784376548800593554e+01
4.947027593276612834e+01,1.019819896727715900e+02,6.177566094223369930e+01,3.830184764658216068e+02,3.247206077713141781e+01,-3.846894166094866705e+02,1.926508207741677552e+02,9.558999824975920490e+01,-4.332485774996151804e+02,0.000000000000000000e+00,1.307943154030577659e+02,6.068741585935838145e+01,-5.823839701686252965e+02,4.828809683308537046e+02,1.549494679474067027e+02,-2.910254086929461792e+01,-2.403587773123746274e+02,2.840375173378590716e+02,5.452161685942318172e+02,-7.462307486438555770e+01,2.012241335309579426e+02,-3.014109402129316209e+02,-5.428456090316982454e+02,-2.421816620393889252e+01,1.264783613035635881e+02
-1.440468415434927252e+01,-4.358779577531556981e+01,5.885658038833524586e+01,2.052712299302823169e+02,2.192320231190784057e+02,1.499512384381282573e+02,1.006264862467820791e+02,5.116499822480051307e+01,-2.211111569978987745e+02,0.000000000000000000e+00,5.024966348535631511e+01,5.251632985023314859e+01,6.831445931946926464e+01,1.608685185005940923e+02,2.391025035733172786e+02,-7.324156367179524452e+00,-2.008485839140059852e+02,3.369403777007078133e+02,8.163999240411349945e+01,-6.166534491210872204e+01,1.446381161065070273e+02,-1.523032993677130946e+02,-3.865202731100499705e+02,-1.541258768484392760e+02,5.211318798088436210e+01
9.131048084377897567e+01,-3.474014869571167878e+02,4.120598149449585890e+01,-3.072756250524464008e+02,5.407742899264056291e+01,3.280320552622394530e+02,-1.099235934733867879e+02,9.642499819805358641e+01,4.895113074606396140e+02,0.000000000000000000e+00,7.254646183438141804e+01,-3.848297864927624090e+01,-1.515108188426034417e+02,1.628894541967881651e+02,-9.963531333798356648e-01,3.307868970853913737e+01,-8.146489667593897366e+00,-2.622915533910822887e+02,2.793604305631690110e+01,3.513285907547855800e+02,9.393227110227607568e+01,-3.864071071752687772e+02,-9.475538287537715121e+01,6.449014967837107370e+00,6.592737265819683046e+01
1.720455184241013740e+02,-2.225614900979710171e+02,7.561760337730478732e+00,-1.709632759526554366e+02,7.076738639316734414e+00,-1.480309058804153040e+02,3.408065492898423798e+01,1.202849981832070796e+02,5.711180693362479843e+01,0.000000000000000000e+00,1.216778367870056883e+02,6.427529680247171484e+01,-4.119558260734646638e+02,1.550072029868505865e+02,1.665338458579480800e+02,6.302815126352991371e+01,1.648014626474328566e+02,-5.579650258480849061e+02,1.670949178631227880e+02,-1.155111102563278536e+02,1.926398429945695412e+01,-9.126726027861580803e+01,1.518010455535641086e+02,1.106904928775821304e+02,8.834108782712928587e+01
1.013758369514798545e+02,-1.913319247898532467e+02,-1.528373973485093984e+01,-9.752735399838819319e+01,-9.328176186549555382e+00,-2.854971392518297648e+02,-5.465514590375368442e+01,1.780499981610169300e+02,4.547030016079547465e+01,0.000000000000000000e+00,2.352962221892977368e+02,-1.556818740443627824e+01,-3.417723290317778719e+02,-2.560494510646278741e+02,2.367576497500890582e+02,6.065707429435261133e+01,-6.865745525821539275e+01,2.848541182967377949e+02,4.235204470222892041e+02,-1.498974371099975542e+02,-8.816420877990075269e+02,-6.410278757682192463e+01,-2.491612456260756687e+02,-8.250246924362491541e+01,2.199243915471441113e+01
-3.710509716692522630e+01,-1.002419689682209452e+02,-1.236941673901525149e+02,2.267922325299163333e+02,-1.837786132876608747e+01,-3.105794827233671640e+02,-2.579340997670779245e+01,9.996499814344991819e+01,2.458345797373495429e+02,0.000000000000000000e+00,2.102023821958859173e+02,-1.120099862660421763e+02,-2.508424757654910024e+02,1.943520601231499541e+02,1.339762014477213370e+02,4.441545889810195291e+01,3.260581420132750985e+00,-3.733076420014277801e+02,2.811727288003434069e+02,1.251258489460041368e+01,-1.692323186010287941e+02,-2.032730377271348914e+02,-8.136072228945975837e+01,-6.428514234101766078e+01,2.237905791480691242e+00
2.305193509120168756e+02,-2.082106900437028685e+02,-1.782400883242581244e+02,8.628984465516010971e+01,-1.714939720229364752e+02,8.269284414854080012e+01,6.369971474505136655e+01,6.226999813753686652e+01,3.480120269737246304e+02,0.000000000000000000e+00,2.040553205968630550e+02,-2.688644392195855914e+01,2.507525001699662255e+02,1.904768381243172115e+01,4.203007238753578463e+02,3.049545887766018382e+01,8.237713112507725555e+01,7.138578755573649914e+01,3.753187869471832272e+01,3.028375600653192237e+02,-2.582879867760891557e+02,5.160960225179915142e+02,1.178109731874117188e+02,8.534437105346171393e+01,1.320184118909960773e+02
3.118617354060233993e+02,-1.253609685409766143e+02,-1.349697947552127175e+02,2.713657269606536033e+02,-2.033531028890031109e+02,1.558735289717382386e+02,-1.981650077155334699e+01,2.016999812800048986e+01,1.671849663612858023e+02,0.000000000000000000e+00,4.454437042953494341e+01,9.892496856882065970e+01,-5.598860035882285757e+01,-5.359523094099088780e+01,-1.108258257197277317e+02,4.779438194241001270e+01,1.000954341391343831e+02,-9.519155274914377287e+02,1.853499029820327735e+02,2.587197557215169468e+02,-2.468056642846427167e+02,6.373860352703519538e+02,2.849748387614495755e+02,2.564857622140273179e+02,1.103040806201792066e+02
1.115384079974063525e+02,-1.201587717371774175e+02,-1.013088643047734507e+02,-2.587450634111893422e+01,-7.218886937513805435e+01,1.261360724085285767e+02,-3.860954066279514052e+01,1.614999811729302337e+01,-7.077701334311591097e+01,0.000000000000000000e+00,-5.156751909784679100e+01,6.381696797391598608e+01,6.112948471474281575e+01,-3.360796783122948455e+02,-1.092191155231412409e+02,7.952384348139750614e+01,2.072152348756630715e+02,-7.897471752028327501e+02,-2.469685621211174862e+02,1.122263686453097478e+02,5.472221566842146956e+01,-4.699790925770165018e+01,-1.021989418520359436e+02,-8.280928663295719616e+01,-2.596624681300258253e+00
-2.251135808541118166e+01,-3.326250467826645973e+01,-1.278369013947180122e+02,-2.329946585472912091e+02,-5.386303567737272857e+01,-3.182485211479325393e+00,-1.464705074416814625e+02,2.216999809725921367e+01,2.105313253195093637e+02,0.000000000000000000e+00,-1.742655825685289699e+02,-8.813982601574613795e+01,-4.079613232985379909e+02,1.016113443794418174e+02,1.405741877789585317e+02,3.912330500564677038e+01,1.275665719684597406e+02,-3.784695334538922111e+02,-5.400071834430716677e+01,4.217793117772562539e+01,-5.924506194707118993e+02,-4.376954605265288478e+02,-6.291770627341966104e+01,2.926389850545510285e+02,1.351774659027410337e+02
-7.793530201305743788e+01,-7.895440145802157872e+01,-7.569641933992062377e+01,2.511288647157893763e+02,1.060269271926095200e+02,8.009363217282020742e+01,-1.617698672733376384e+02,7.887499809676276641e+01,-5.150352574854336041e+01,0.000000000000000000e+00,-2.811356859536344643e+01,1.917055446257561613e+01,1.909793887217037707e+02,-9.163136744290014235e+01,4.052786340987563563e+01,6.108830500563657040e+01,1.481444727358450208e+01,-6.031868410479656859e+02,1.213234811455611322e+02,-7.173445742300165762e+01,5.334409403116295323e+01,-4.734535265049510713e+02,3.602573623000296266e+01,-5.756346523090522993e+01,1.915572252159307141e+02
-5.100041259074314937e+00,-7.668781405565702869e+01,4.611962484606706880e+00,-3.183690551144386305e+01,-4.564307482088644718e+01,7.915214357628990172e+01,4.133429396298938485e+01,-4.706500190099536240e+01,-1.392776059071892121e+02,0.000000000000000000e+00,1.955519977030708390e+02,8.434851527327032272e+01,4.795213132922412314e+01,-1.579503888546191774e+02,-3.936725166318224467e+01,7.310276652990334867e+01,6.400667494744537223e+00,-3.612564395805247841e+02,-4.996539982752058506e+01,1.760881404704717568e+02,2.194593524056694775e+02,1.128598640228249792e+02,-4.303860645768504014e+02,-3.169741164446488142e+02,4.251229458384888460e+01
-4.809802042847100978e+01,-1.774856171402690563e+01,-3.517631993878657770e+00,-3.720156968555016874e+01,-3.745305955584471747e+01,-1.575258692306502155e+02,-1.570339176052912649e+02,8.582999809023012006e+01,4.448988773489787718e+01,0.000000000000000000e+00,-2.547383894231629142e+01,8.274332712604511642e+00,-1.598406546341649346e+02,-1.795981816565305280e+02,-4.141288784430328462e+01,6.951830498219166543e+01,4.179216247469102541e+01,3.325418543337663095e+02,-3.370063669574536220e+02,9.169438385839638883e+00,1.503065035248934862e+02,-3.939516014507952377e+02,1.991161012137764601e+02,1.160450121020916185e+02,-1.281826688068923659e+02
-1.147866171783540068e+02,6.499805026802649266e+00,-4.227747597274930769e+01,4.262267625901955626e+01,3.322694074712748602e+01,-2.186946400533602741e+02,-1.022813927670613054e+02,7.399998090276121765e+00,1.445919541356115587e+02,0.000000000000000000e+00,3.663617038341963905e+01,-4.811443413938612679e+01,2.565751328267064650e+02,1.547872387880898692e+01,1.706043695346674127e+01,5.278330499239042695e+01,-8.746616696836651883e+00,5.965177590238985204e+02,-2.487093637465024187e+02,4.277270203184495472e+02,-3.218369570334220242e+01,4.402762666506539517e+02,-2.804881681627874173e+02,1.016961084160903539e+02,-6.095270243366174157e+01
-5.980167025677232573e+00,-3.678981232221777731e+01,-6.660204458528738769e+01,-6.161227534275685969e+01,-2.543106400542773926e+00,-6.180928554349351600e+01,1.116109237373979681e+02,-2.097050019093111928e+02,7.573551274935546473e+01,0.000000000000000000e+00,-1.782345704780218654e+01,-1.028505604360566679e+02,-7.031863610264788633e+01,4.083775616423649168e+00,9.436771724833509722e+01,6.695884345488846634e+01,8.616444502603107480e+01,4.014107130064408580e+02,9.750012847866102561e+01,5.676653057618965903e+01,8.078482927095100763e+01,-1.049458125177185650e+02,-3.902516347381330775e+02,-1.287759915559485933e+02,-9.656773900591906568e+01
-3.280862402793949428e+01,-4.166329155228785197e+01,-4.812686485657629731e+01,-3.185537224793878863e+02,2.451863417426140668e+00,1.221101501088095063e+02,9.108283827038791003e+01,-2.979900019089687930e+02,-8.511743396869921696e+01,0.000000000000000000e+00,-9.014852458969846438e+00,-1.478015075719500260e+02,-2.032522877199296474e+01,4.608025878140234965e+01,1.745125705474311317e+01,7.226884344315892861e+01,1.163379480705659006e+02,1.418420591549552228e+02,-1.124620807984747373e+01,-9.078655770271741687e+01,-2.781051485674296586e+01,-3.935907920736952974e+02,-2.033248782559249435e+02,-2.254859328654756325e+02,-5.634773409097159202e+01
1.211759395505958850e+02,2.349531878494716253e+01,2.432704117251964249e+01,-7.790007370140615706e+01,1.306183716058439082e+01,-2.214678923880745742e+02,5.300065165876065265e+01,-3.940500143232462449e+01,2.610843255637755789e+01,0.000000000000000000e+00,-3.495660820936473812e+01,-4.277244081805301334e+01,-3.024314578375540563e+01,7.819112879537799188e+01,8.213012990546140202e+01,3.069122896344444484e+01,-1.169883815880790934e+02,5.596442419809536517e+01,1.389280036253839228e+02,1.861994467386747232e+01,-1.393818909469677081e+01,-1.293047529519028842e+02,-8.997962687143708393e+00,7.775650931489062145e+01,8.025596438590646642e+01
3.841939678113265444e+01,4.771473726666020099e-02,1.761181831913891926e+01,-1.307759571745200162e+02,1.473188028879583911e+01,-1.086042793387617706e+02,1.568626192575693068e+01,-6.643500147536894929e+01,4.628370032381714338e+01,0.000000000000000000e+00,3.560316875901501366e-01,-1.004215074803939274e+02,-5.650782755716345207e+01,5.804866262655680487e+01,4.254037289002516431e+00,1.664622891804817684e+01,4.094602907519372792e+01,-6.839372588945560949e+01,-7.611862497046482545e+00,2.095034834693318970e+01,1.735979879267056845e+02,3.719752788556546363e+01,2.666720941988331717e+01,8.343065611526350267e+01,1.043508120494588098e+02
-5.921472657329451827e-01,5.485065617392552184e+01,2.123159195187065151e+01,1.622135854570264257e+01,4.640692326949790214e+01,7.175175375697384084e+01,6.617653735792032421e+01,-3.824000152929534124e+01,8.852039445621808511e+01,0.000000000000000000e+00,5.149683355266840579e+01,-6.522324941850136781e+01,9.865250458523208010e+01,1.407230196398523105e+02,2.320080534929769200e+01,6.401692118549620147e+01,-7.530242801461351121e+01,1.331846263819373632e+02,6.801640162977420800e+01,-5.488125157681876232e+01,-6.925582543290952131e+00,6.629326462350218208e+01,2.807788803183415993e+01,1.694326045776332990e+01,-6.672926899022476732e+01
-4.540510556016648991e+01,-6.681883621630927195e+00,1.675643979351946911e+01,6.027003484552768242e+00,2.413693801225124247e+01,-2.365361246263981698e+01,-6.993991835434457904e+00,-6.249500156150894981e+01,-4.386912068401300075e+02,0.000000000000000000e+00,-4.900013488757811331e+01,-8.302089612418988906e+01,3.816185685588262544e+01,5.650841274669090097e+01,-3.746583675004549718e+01,5.989884415083258773e+01,-5.234880446136519794e+01,-1.742255002808808513e+02,1.269488769192939515e+01,-1.527085657599011199e+02,-5.704937708975496946e+01,-4.734894716144582105e+01,-1.043851395670837547e+02,-6.195876373194722930e+01,4.419547094068926185e+01
-3.072809489738202871e+01,-3.190502527943459121e+00,1.486628769991990673e+01,6.076422604950315076e+01,7.486953738799650537e+00,1.079482959291997304e+02,-2.225713287914121707e+01,-4.883000158223697440e+01,1.770930163666177037e+01,0.000000000000000000e+00,5.464082124457468126e+01,-7.168132810207590921e+01,-1.079446229540438935e+02,-4.176896981320755486e+01,-8.386715473414005828e+01,5.186292095893843168e+01,-4.782699447512550250e+01,3.162483744842524658e+01,-1.015610013959361311e+02,-1.044673918886086561e+01,-8.992986184250631254e+01,2.599235975262970655e+01,3.227372853125161356e+01,-3.957053016658228728e+01,-3.304800483886166429e+00
-3.793956609044347061e+01,3.667285880299417045e+01,4.791213458627294308e+00,-4.091359318943143819e+01,2.805198182798722328e+01,7.369317491830892664e+01,6.250987271366285114e+01,-1.277500160200433044e+01,4.847573558444200330e+02,0.000000000000000000e+00,8.214326912493399391e+01,-8.194489423573115516e+01,-1.310574635091314804e+02,4.978223514796487592e+01,-1.658987679541736782e+02,3.988307473052600471e+01,7.300253380298609329e+01,8.377879340227285354e+01,7.702701864224242456e+01,1.715367429724362864e+02,9.309413787236584525e-01,6.472341634833445312e+01,3.991411364033049836e+02,1.055186472181017798e+01,-6.266023285090023620e+01
-5.678953490718858887e+01,3.892722607923677458e+01,1.349128031059282584e+01,4.253855470949593354e+01,3.909700965787983762e+01,7.134975901425966072e+01,3.275153683932377646e+01,-5.928000163266305833e+01,-1.482621547685953942e+02,0.000000000000000000e+00,-2.044489342192158077e+01,9.230739563903897249e+01,7.485964662741117159e+00,9.733033280637427254e+01,-1.452798397193268158e+02,2.652430543767705373e+01,3.802747413005291399e+00,1.831316217021339128e+02,8.418618565329621717e+00,1.952336339588326268e+02,1.530237063866305789e+02,8.503123590177855817e+01,4.422024824366518487e+02,2.164320938951423656e+01,-6.216061028497552599e+01
-1.432994911899921249e+02,-4.346006056110653759e+01,4.649662669321607922e+01,-1.817321121635290382e+01,-7.277794683179507729e+01,2.768599654618521413e+02,-6.267193013368567023e+01,-6.772500167412681549e+01,-1.745843843621310896e+02,0.000000000000000000e+00,-1.561408490896256467e+02,-6.339583412158960130e+01,2.362942686051843921e+01,-6.915603748562124053e+01,-1.120821193458105967e+02,1.632690019801716685e+00,5.720138827720403185e+01,-1.501217465201535504e+02,-1.476894964327025548e+02,1.781413120217253834e+02,2.738962267139232765e+01,-4.026939428030762258e+01,-2.396664229304983280e+02,1.296171765143287935e+01,9.605909320643067417e+01
-1.035759048204780157e+02,-6.539740167533867066e+01,3.396705148395839302e+01,8.480169320039753700e+01,1.673705366002764450e+01,-1.353216186503433960e+02,-1.502922900243852311e+01,-1.647500169291742367e+01,-2.964915838605730301e+02,0.000000000000000000e+00,-8.516330217298678917e+01,-1.040308620242802959e+02,1.488647288963911421e+02,-2.953889976628485670e+02,-6.019264443177209500e+01,-4.444892540405896142e+01,4.936708674287346099e+01,-2.054977584286293677e+02,2.637303693897396073e+01,1.206981233673795195e+01,-3.418927128093105239e+01,2.690810068475337289e+02,-3.901134975672121072e+02,-1.189981018475746879e+02,1.953688130584671114e+02
-2.936439115927336019e+01,1.190114744368776059e+02,-1.061126060068899157e+01,2.092051713917281006e+02,-2.401793607289582155e+01,1.596599909139666540e+00,9.431635155372065071e+01,3.204998293541165832e+00,-1.691707621843252412e+02,0.000000000000000000e+00,2.197762929608937554e+01,6.744184559789506928e+00,8.476109170101280199e+01,-2.817079631001460029e+02,1.064052990486728589e+02,-4.737715621726923843e+01,1.153600980627541901e+02,6.609022692173098221e+02,2.497636149206972789e+01,-4.203113936437796738e+00,2.652896402896271866e+02,2.606863651922792542e+02,-1.584254729274811382e+02,-2.085141893464517580e+02,5.216367136086225997e+01
-1.487743396014218149e+02,2.508173192542739827e+01,9.177445552332068601e+00,-5.183026871191077412e+00,-7.112917716631376841e+00,2.953799448160209522e+02,1.507326755864257564e+02,2.249999827167303579e+01,-1.185958154903645578e+02,0.000000000000000000e+00,-9.065483324424158695e+01,-4.551784291386918646e+00,1.920796722570064219e+02,-1.408648340611431991e+02,5.301430715409048133e+01,-3.025484858838066771e+01,7.792935640668933672e+01,1.294488344952770262e+02,9.852576157280920199e+01,-2.584523268518596950e+01,1.244427628191427004e+02,-2.754192666927245909e+02,-1.984962585900426575e+02,-1.639698087120203525e+02,-1.798109785368645319e+01
8.207224709535006468e+01,-1.145618816604621770e+02,1.064014943979392314e+02,-4.086590793554054812e+01,2.028770673904016633e+02,1.440373624915182518e+02,1.110451193533724989e+02,8.056999824992830384e+01,-2.510308836550221372e+02,0.000000000000000000e+00,6.742326260848643926e+01,2.274018488253883277e+02,2.040326244758328471e+02,7.830872625811198873e+01,-4.999089477869370057e+01,-1.158075409436082595e+02,9.091823404003504550e+01,6.807645270169886089e+02,-4.303951223917611628e+02,-1.822590209666345551e+00,1.056807561959560218e+02,9.109811381321014778e+01,-1.697547149435185929e+02,-4.985441172821140867e+02,2.446730731576382567e+01
6.749065056467763668e+01,1.162968202518960794e+02,1.338170963245981397e+02,2.950137730634519926e+02,-7.210270715123007790e+01,7.652358140223432770e+01,2.268008923752752537e+02,1.236899982371354838e+02,-1.016779973755548383e+02,0.000000000000000000e+00,2.250938137780787542e+02,6.735970177040827878e+01,-2.009989993166545617e+02,3.548200871981450177e+02,2.130818891633734609e+02,-1.033446947551018980e+02,-1.092065457639783261e+02,4.823790236838323722e+02,-2.318664076891193417e+02,-4.248371689526338741e+02,3.524083684002350196e+02,1.935376257803953237e+01,-6.703312454621908500e+01,1.694558254521221556e+02,1.481916365646661404e+02
-7.926078185910087726e+00,-1.035017912671713418e+02,1.040723838126562555e+02,3.339574168154829295e+02,5.681660540511097679e+01,8.548388923347823720e+01,7.679646105154036206e+01,1.401099982210999144e+02,-2.691721900244563699e+02,0.000000000000000000e+00,1.507141805244877162e+02,1.533123196777134183e+02,1.454748757704649336e+02,3.332180677241763647e+02,2.581961965883201628e+02,-6.031077171345314270e+01,-2.073360536180724125e+02,1.434308486885556420e+02,-1.465348974699927851e+02,-3.614515591013239373e+02,3.963074455816803265e+02,5.201619126533269366e+01,-5.766019181329427568e+01,-1.366894536465444503e+02,2.173663565995571290e+01
9.836972161809272563e+01,-2.646184634208242983e+02,4.997646263964382740e+01,1.785653787888357442e+02,-4.473757576231295019e+01,-1.536783192516074905e+02,-1.546306052332718650e+02,1.762649981841262843e+02,1.709937175848667152e+02,0.000000000000000000e+00,5.960427162305842330e+01,2.243124367505841477e+01,5.072105202147016456e+01,2.430365683396044005e+02,-7.203982720452751565e+00,-2.573184880896535631e+01,2.046356947340165888e+01,-1.801541680252309519e+01,-1.032508553879209103e+03,1.047317936881319582e+02,1.199997335568658059e+02,-3.088772443287148803e+02,-1.140133093120645782e+02,2.679412237976989175e+01,4.949061826336325254e+01
9.553572331597798950e+01,-7.140241838350205228e+01,-2.102818656725998991e+01,-6.244784349568715953e+01,7.894664810120363541e+01,-2.178740199335415468e+02,1.728708044942705913e+00,1.226249981602993699e+02,3.370347272535140632e+02,0.000000000000000000e+00,8.796313516076676819e+01,1.197730948973138823e+02,-5.159520820316539584e+02,2.881514420457481265e+02,-4.299898687992109103e+01,3.629207430005823198e+01,-1.906859151712288636e+01,-1.740817542311924626e+02,9.317309072046258223e+01,-8.941863252582096777e+01,2.975002886993451625e+02,-1.081176282046822763e+02,-1.590585745629548740e+02,-1.191074306469653692e+02,1.658710483090811181e+02
