-3.415081517211482787e+00,-3.155427568073927880e+00,-9.849999999683888285e-01,-1.905247910730053817e+01,-6.425006845975762992e+00,-1.309550779236745655e+01,-6.599684752003152965e+00,-2.505008441350520254e+00,-1.280728975684046489e+01,0.000000000000000000e+00,-5.938283088544728194e+00,-6.636529704172337674e+00,-1.462775744980840464e+01,-1.399728284678954360e+01,-7.874185656730699812e+00,-6.153001456770526012e-01,-6.548456147905411306e+00,-3.762743771610702481e+01,-1.773872336404086880e+01,-1.155064624561601860e+01,-1.937738414907974516e+01,-2.152584058321823690e+01,-1.955348074071713071e+01,-1.340425596476456072e+01
1.714315139996074322e+02,5.066008027104061284e+01,4.840500000423553217e+01,3.078589051739232332e+02,1.164589006704381546e+02,-7.965103815891062311e+01,2.345321033306554739e+02,-2.386882419136710176e+00,1.414587896402421165e+02,0.000000000000000000e+00,-1.100258154608924031e+02,1.556972256325055071e+02,1.658498257002761989e+02,3.125290440686624152e+02,2.634058737627216260e+02,7.338760632974407372e+01,-4.553510881504305274e+00,5.827363422117434766e+02,5.071455408927727717e+02,2.765186819005192547e+02,6.366956757803927758e+02,-1.854330697209310017e+02,6.304647197744891685e+01,2.812730713856050215e+02
1.410870686623455867e+02,2.783334467965764247e+01,3.884000000426644306e+01,2.471085809311717298e+02,9.287389572504346802e+01,8.201323875626249560e+01,1.304729643427232872e+02,5.368105974352766374e+00,1.829309774117047596e+02,0.000000000000000000e+00,3.284093209764613164e+01,9.059788577809661092e+01,2.152184435486015275e+02,2.598083598016756923e+02,2.253488268716727418e+02,2.386584836169277324e+01,1.321936678054709660e+02,2.905101292485691715e+02,4.500464665197191039e+02,2.596880353109733051e+02,1.734026886885328054e+02,2.047771291361573560e+02,1.362596090337271448e+02,3.250099686919883766e+02
6.284388402343160607e+01,6.077169264456795617e+01,3.585500000435813206e+01,2.587515870583263222e+02,1.049138845444205117e+02,1.436925580611415683e+02,1.214167216163849616e+02,-1.526189982888528895e+01,1.529197795484238043e+02,0.000000000000000000e+00,2.908290721707427195e+01,7.468201991816809482e+01,2.867643338201096412e+02,3.216486119775914290e+02,1.611030814010998142e+02,4.307355364907208894e+01,1.546601376279887745e+02,4.729781960257843707e+02,3.276342058395443360e+02,2.177554129431822219e+02,3.164325089098526291e+02,2.005470251821161867e+02,1.855949502993100282e+02,2.487217299036672387e+02
1.832363293164990381e+01,7.683085800400382936e+01,3.892000000441783669e+01,3.645199925698503876e+02,1.419588377377935444e+02,1.382757793640794546e+02,1.542070290472214253e+02,2.601808592650694862e+01,3.340873046422803441e+02,0.000000000000000000e+00,8.892119663398972307e+00,1.182148063277424939e+02,3.297452147090780272e+02,3.290780665684387714e+02,1.355062338205374317e+02,6.463290950506720378e+01,1.352843900487771123e+02,2.946016623972424213e+02,3.831122647025590595e+02,2.138899923917294075e+02,6.077794921200541722e+01,2.422294872327649671e+02,1.984573167279709764e+02,2.288150597008618945e+02
2.654993115199196563e+00,1.997427842863063319e+01,4.028000000448135864e+01,3.314023366452236132e+02,1.277137931371290875e+02,1.827528243164899493e+02,1.114898131353359787e+02,1.833807431997980686e+01,2.543177679022709867e+02,0.000000000000000000e+00,-2.988858432527143449e+01,7.423446607242850348e+01,2.524557315319124768e+02,2.535433214006291678e+02,7.697507256531156372e+01,9.409118761424478805e+01,8.454313147680726104e+01,2.486499331187024495e+02,2.635668965866222493e+02,1.482823681972705572e+02,-2.617427755778601295e+01,1.384875747524264682e+02,1.242625670499582498e+02,-1.123749591016019167e+01
1.000276864336565907e+01,5.076804304247259125e+01,3.103000000453999618e+01,3.517947507439097876e+02,7.755379310295843709e+01,1.900833907130781029e+02,9.481502978530636483e+01,2.614306851674006538e+01,2.163709685015951720e+02,0.000000000000000000e+00,3.614563822228424783e+01,7.213650135072271041e+01,2.876591643717077886e+02,1.951708121653761907e+02,7.044760422871055994e+01,7.302874146661805810e+01,5.277311048690761908e+01,2.266811778078120199e+02,1.793366144434762077e+02,8.751754199618844154e+01,-3.966225696595003569e+01,2.023645666385663731e+02,1.345116740640042110e+02,-1.130215577280181520e+02
2.507234558816318071e+00,9.625798112532633866e+01,2.575500000456971961e+01,3.242411479330307884e+02,6.695877880025062723e+01,2.465961383280234429e+02,1.302386402027266286e+02,1.869806007537306058e+01,2.520756170202264457e+02,0.000000000000000000e+00,-1.342541121847740726e+01,1.687279401210398646e+02,2.556427671987057977e+02,1.546317822575830121e+02,8.070932181763807023e+01,6.126662373701486786e+01,5.091081268320036202e+01,3.546757213918331217e+02,1.342344613892234406e+02,9.271816528324140450e+01,1.348411855701659476e+02,3.914448982266470694e+02,1.992437514744202076e+02,-5.989764291598106638e+01
5.899316715041242887e+00,9.165595603420062787e+01,1.774500000456778537e+01,2.867330176802547612e+02,3.692378385710387789e+01,2.230781320684072568e+02,8.385492236722200232e+01,8.098051106972596003e+00,3.276399811600433054e+02,0.000000000000000000e+00,-6.962171162021402893e+01,1.854396320192406904e+02,1.897509959567836688e+02,1.422096299126423276e+02,5.031561971302578229e+01,4.191405776750148249e+01,3.853007033572974649e+01,7.779169497925120424e+01,1.187053399963528335e+02,3.899816539524591263e+01,2.067456209465741779e+02,3.382734360380696330e+02,1.776599731393514503e+02,2.977225140357480981e+00
-6.517281064703245974e+00,6.180057235427632634e+01,2.001000000459787387e+01,2.049129378784476216e+02,1.320869694418988871e+01,1.540010337148168560e+02,1.141251887713398929e+02,6.968048468859914024e+00,1.410008404207358126e+02,0.000000000000000000e+00,-1.073737501070095135e+02,9.026157206515657094e+01,1.844851760408514281e+02,1.032248806954345781e+02,1.576055290267665043e+01,5.887416740481853594e+00,4.994882402354092932e+01,2.149961365584904627e+02,1.092820151163842439e+02,8.861534200714518761e+01,3.142501454525728377e+02,2.371588713547238285e+02,6.347302398616680108e+00,7.110740617517458872e+01
-3.816482022364890092e+00,3.972591827525239694e+01,4.345000004599824273e+00,5.005871685604667931e+01,-1.000126079185219297e+01,1.546531963765943374e+02,-1.992488160062887914e+01,-1.551694889304774350e+01,-2.814842716282855690e+02,0.000000000000000000e+00,-1.598716956263525617e+02,3.182613978442960345e+01,1.151231660490288391e+02,5.191696663082063168e+01,-7.708558429982707239e+00,5.566626616003927275e+00,1.344050868607263638e+01,-1.629478320230232953e+02,1.900946014090907354e+01,-2.619101231911146144e+01,4.719832627410746539e+01,6.562194713431135540e+01,8.009444645755429804e+00,-5.173165090096719609e+01
8.673697628128762105e+00,1.584509265671561273e+01,-1.344999995401946258e+00,7.415253576418405146e+01,-4.645124974201387857e+01,-7.758184292539057481e+01,-8.239539967050575342e+00,5.780479418165649363e-01,-4.259436683784246469e+01,0.000000000000000000e+00,-1.044830203444222718e+02,1.513152036403554916e+02,9.850883848966277867e+01,-1.181555396621129184e+01,-4.252650207395099358e+01,-2.936370479227594998e+01,1.318880297152419523e+01,-9.403200091425530616e+01,-6.833727790066161845e+01,8.560265768314134505e+01,1.248789341947069289e+02,2.412449770190552840e+02,9.044605572459568066e+01,2.165767235890400144e+01
7.628608087588649056e+00,2.794675676708336720e+00,3.765000004597350625e+00,-1.348844209527080977e+02,-5.864130060691805824e+01,-1.382689756248885828e+02,-2.147676471556378175e+01,-4.344696049955652484e+01,3.889369572134008024e+01,0.000000000000000000e+00,-7.784382090538264265e+01,1.298018957377269373e+02,7.773501835607109456e+01,-3.858077212036062775e+01,-3.446910006948640159e+01,-7.313959473509761722e+01,4.202157880511396826e+01,-1.696797774343335163e+02,-1.419442284710474382e+02,1.855248379832133310e+02,1.463762279749731192e+02,-1.067265550754990926e+02,-1.918809905122865871e+02,3.921494629571051149e+01
1.489833935350754146e+01,3.426967063602301522e+01,6.435000004593932843e+00,-1.279416033075047210e+02,-2.802133565633323897e+01,7.371045411756671939e+00,7.223813220305787297e+01,-7.345196049955869455e+01,-4.569419522328237449e+00,0.000000000000000000e+00,-1.318320751324014850e+02,7.956511683221401654e+01,9.675020357824742234e+01,-9.023393468300699283e+01,1.318877547948732953e+01,-1.431556079503373269e+02,2.656826348641168778e+01,-1.422409855700513326e+01,-7.150197714585893038e+01,1.175830649077703782e+02,1.030939782921217898e+02,2.926260297806673449e+01,-6.421672836612272306e+01,3.693773767259555996e+01
-3.612027635260886882e+00,2.449069064180855548e+01,1.429500000459067266e+01,-1.531380140764797773e+02,-3.712134965366340822e+01,9.334383494086904420e+01,1.572627014571878590e+01,-2.799695786146612519e+01,1.589370588551435901e+02,0.000000000000000000e+00,-1.347934495402025732e+02,6.614680974241532851e+01,7.734776912271384219e+01,-1.614774933180523817e+02,-4.225731060557836827e+01,-1.576816554887257382e+02,-1.090123393516928374e+01,1.506870956257817511e+02,-9.390909709916934389e+01,-7.336860823059875258e+01,-9.230288556207000283e+01,1.602635362538762251e+02,-2.072930713002006371e+02,3.247829495203004058e+01
-2.912721510463570951e+01,-2.919629887323735673e+01,1.094500000462046962e+01,-5.620079811646721168e+01,-7.422633285375175660e+01,1.176014560825086761e+02,-3.816141365188382650e+01,-5.591195838851795230e+01,9.540627521492660890e+01,0.000000000000000000e+00,-1.267376336463458841e+02,2.916765572291047448e+01,1.052842038492613064e+01,-1.348350502684225489e+02,-9.356558861448347386e+01,-1.440276677474417397e+02,-1.402881805130982862e+01,2.059773743434629978e+02,-8.265776343976686746e+01,-1.751309723881636273e+02,-3.592165080330084947e+02,2.972389600924020314e+01,-3.325076770240345070e+01,5.350405146687617730e+01
-3.834311840346434508e+01,-8.796262501163699454e+00,-9.549999954110315326e-01,-2.828587626684396241e+02,-8.504133650930923238e+01,1.617147249080081508e+02,-1.719447514471409590e+02,-9.084194994718647820e+01,-1.001202324521662632e+02,0.000000000000000000e+00,-1.753456327810754374e+02,-4.080649609054705707e+01,-3.195905801226473031e+01,-1.708317840347849597e+02,-9.488416274211218138e+01,-1.116381528585365999e+02,-2.938818960756495624e+00,-4.433216198460361284e+02,-7.603664919570009317e+01,-1.863879369655536777e+02,-1.771687175325780004e+02,-2.395902199493418152e+02,-6.248875506210132613e+01,7.204950365274721946e+01
-4.547410346307276541e+01,2.901885033597495323e+01,-6.849999954110281841e-01,-3.102621433649750315e+02,-8.446635100591514345e+01,-2.488424988815706342e+02,-1.765743961394599921e+02,-6.359194414393154915e+01,-1.478307907763436617e+02,0.000000000000000000e+00,-1.917323577426015220e+02,-7.650827530981523239e+01,-4.732695129177390925e+01,-2.637622321701023225e+02,-6.404717852907373299e+01,-9.062858765150241425e+01,-3.298684241135710238e+00,-4.348661982654542726e+02,4.213236237774633963e+01,-1.275277370912071149e+02,-1.895601970219267400e+02,-3.049394413876179897e+02,-2.500970067938311843e+02,1.150142051297859425e+01
-4.553000735072937033e+01,-3.008681965016161808e+00,-6.129999995444005201e+00,-2.291074326906053784e+02,-8.839636025178812417e+01,-7.819669897644870105e+01,-2.286856703082029298e+02,-1.293269473090949759e+02,-2.117468779576220754e+02,0.000000000000000000e+00,-2.036035236100627799e+02,-8.832633100382889779e+01,-1.320830527471146070e+02,-2.180051042525905132e+02,-2.578954997684451556e+01,-7.432882782901219798e+01,9.605796369948160773e+00,-5.627945176246734036e+02,-9.599325440021768685e+00,-8.597045070522825938e+01,-1.511795888177803988e+02,-2.777495946361889310e+02,-1.799003946613116796e+02,-5.632498698986272245e+01
-3.588083006643262252e+01,-7.381817610414508124e+01,-3.789999995477573158e+00,-1.247977335702921522e+02,-1.243213483489820277e+02,-2.397721716130126595e+02,-2.312736632382556650e+02,-1.091819362296338767e+02,-2.253090718429006358e+02,0.000000000000000000e+00,-2.342325373212086106e+02,-9.489285787481659895e+01,-1.337922774597093394e+02,-1.401970560006702158e+02,-1.073450976758387156e+02,-6.111950564339750258e+01,3.030144247515000444e+01,-1.438316484261738992e+02,-7.185094298994354745e+01,-1.036762707225872617e+02,-4.192927908022800807e+02,-2.626573077940909684e+02,-2.202524573453581240e+02,-1.709079412080720886e+02
-3.209619627223784022e+01,-1.004075349687331027e+02,2.745000004489713596e+00,-1.019971280003244090e+02,-9.765134789797389203e+01,-1.638039296222560210e+02,-1.988462299129678854e+02,-3.010693359154051052e+01,-1.168006725584825887e+02,0.000000000000000000e+00,-1.207192578061049915e+02,-1.860754812572711216e+02,-3.085657067147262111e+01,-6.376220486262996445e+01,-9.371879979864927179e+01,-3.791491631022400099e+01,3.687489158043302950e+01,3.353951870073171904e+02,-5.478180358418133977e+01,-1.047103965156846499e+02,-1.906688555555356857e+02,-2.059176775267765720e+02,-6.949596925279726634e+01,-1.887812516864220242e+02
-2.884647392445693015e+01,-1.038571142196774986e+02,1.046500000445883138e+01,-2.478235240735935179e+02,-1.143463460456825800e+02,-1.204755631390169412e+02,-1.710725712533609624e+02,3.614306324329646003e+01,-1.649811458279973522e+02,0.000000000000000000e+00,-1.590600958870889485e+02,-2.630893845558493354e+02,1.257553422258829912e+01,-2.543795911802476439e+01,-7.448592461551673694e+01,-1.816008688833302998e+01,3.125010157650730136e+01,-1.958659941520509733e+02,-4.781882441859197996e+01,-2.958927719053037322e+02,-1.440990413611425538e+02,-1.662040060195099045e+02,-8.683853621800324163e+00,-6.435993308457827311e+01
-2.945693045345394623e+01,-9.142466712680197816e+01,1.581000000442587172e+01,-1.532905417298915722e+02,-1.208363308409799259e+02,-8.778832840928434678e+01,-1.271195229817632395e+02,1.157130774879031776e+02,-2.257863915598508129e+02,0.000000000000000000e+00,-1.795297094836010103e+02,-2.922509141012047849e+02,-1.432377834542511152e+02,-4.669200263275256191e+01,-7.137474637629235019e+01,-3.803303003934026538e-01,4.328973369406396188e+01,-5.206829692347356513e+02,9.116763282063115525e+01,-2.760049715183477588e+02,-1.227005145007913285e+02,-1.371238609064484990e+02,6.244705739066416328e+01,2.550392971035287459e+01
-1.105739456884219862e+01,-6.580581916187740887e+01,4.385000004390182227e+00,5.234078369234664052e+01,-8.094633530120388798e+01,-2.628007808976063231e+01,8.815787314839216293e+00,4.603809173250572684e+01,-7.379275952223781587e+01,0.000000000000000000e+00,-1.280997732556359097e+02,-2.306359122675509923e+02,-9.430764118153135200e+01,-3.263170661856366195e+01,-3.087268535629875288e+01,3.099940937830437804e+01,6.869039204330175608e+01,-2.935691466741176896e+02,2.402523877051933709e+02,-3.051693249461075084e+02,-4.933736505058815425e+01,7.731084782583782555e+01,-9.702279402674824382e+01,3.104566381435793776e-01
2.321224706409532601e+01,-8.381147101384193832e+00,-1.358999999564383643e+01,8.782053322556559749e+01,-4.926326103630139563e+00,4.620564931949053289e+01,-1.326561474631244231e+01,-1.840190299130289375e+01,5.345813034635960292e+01,0.000000000000000000e+00,-1.414344592649499930e+02,-4.805353834274227864e+01,-2.662253240789290132e+01,2.223958225657385412e+01,3.306615667247311308e+01,7.433428371686888170e+01,1.035793376777977954e+02,-1.400311639387161904e+02,7.005576678964344239e+01,-3.715061053969747604e+02,-1.823344130473887788e+02,7.038175027383404370e+01,-7.788642103619088708e+00,4.890853633425009406e+01
3.590196252662734366e+01,3.269888016939614772e+01,-2.059499999567391981e+01,1.707097358688404043e+01,8.688665600753049389e+00,7.709404017925417918e+01,7.865931758111065619e+01,7.482811389143749636e+01,4.653930173438241269e+01,0.000000000000000000e+00,-1.790318240375684127e+02,3.405299910695836729e+01,1.829305757485293071e+01,8.031958049300047975e+00,6.903088779538443909e+00,8.790451006766377873e+01,1.452072613496597171e+02,-5.364524097669653884e+02,-2.050177449478416918e+02,-4.350998646955862341e+02,-1.700011952684662617e+02,-1.228694722633479302e+02,1.528355571450883588e+02,1.594959207431366899e+01
5.730169423009844820e+01,-3.198609247246720955e+01,-2.636499999576813380e+01,2.062477971960896639e+02,1.466367035198289059e+01,1.426916215529190346e-01,2.126089837603821024e+02,-8.916688030539479826e+01,1.829343335945028457e+02,0.000000000000000000e+00,-1.578298724802587003e+02,-5.531805976320868723e+01,3.435609448654107467e+01,5.485854451538178012e+01,1.130095489513532137e+01,9.288453624419099697e+01,1.570177638944087732e+02,-5.403306461379219172e+02,9.750577599399333550e+00,-1.645496155712270365e+02,-1.692624743721493417e+02,-1.175298233507157022e+02,4.516992683914928080e+02,-8.257592436518059742e+01
8.362649873678651602e+01,-1.105064056263648098e+01,-5.014499999580021239e+01,2.724431441132460350e+02,5.546367510348471797e+01,2.795316001267936485e+02,2.327903201596398048e+02,-1.809187186405555536e+01,-2.544596313951068822e+01,0.000000000000000000e+00,-1.117774144895032435e+02,-6.223804822207549137e+01,9.296902892729782764e+00,1.937059416295263077e+02,1.503926233338231668e+02,1.123597519866627437e+02,1.794508591849472054e+02,-4.153256174365387210e+01,-1.888781924234444034e+02,-1.063672100769468187e+02,-1.454201380050639614e+02,-3.184403483355416142e+02,2.154184618252609766e+02,-1.886703391847315174e+02
8.437621363004740260e+01,3.662401650266422592e+01,-2.815499999583457580e+01,2.719036997643601694e+02,7.404867890477451908e+01,1.340248715764285237e+02,1.205732898952948773e+02,7.105314501861698773e+01,-4.447916460397374863e+02,0.000000000000000000e+00,-7.692422887431685297e+01,-6.702804402890637903e+01,1.524826231218751786e+02,2.129780083804151332e+02,-1.616246789504632773e+02,1.150499510549834525e+02,1.984243003908837579e+02,1.495407528130510570e+02,-6.633025704750635896e+02,1.121690578032335424e+02,-1.568074047055543474e+02,-4.681483128594177288e+02,1.324058359082725929e+02,-6.984976322497425372e+01
1.579611642055793652e+02,5.436375037302972402e+01,4.807000000424083197e+01,2.509184380623853485e+02,8.982389683508058909e+01,-1.193091607815380684e+02,1.918927046577813940e+02,-1.057189930183506021e+01,1.348645625226473044e+02,0.000000000000000000e+00,-7.493121152774665461e+01,1.086117917496824674e+02,1.480202441223420351e+02,2.722773035648434075e+02,2.314829115886648765e+02,6.266731591760787978e+01,-2.958728651136235754e+01,4.734169067607893453e+02,4.393580531117194710e+02,2.223978095987990855e+02,4.465572176358311935e+02,-1.621064320761505257e+02,7.172857755897013021e+01,2.476052968694689014e+02
1.165719872766963192e+02,1.810244077470122193e+01,3.760000000433113598e+01,1.972758407451346727e+02,6.584888504371267004e+01,3.142548634421841669e+01,1.020405178252373446e+02,-1.005191090834544454e+01,1.525453849484071043e+02,0.000000000000000000e+00,2.028017972791685253e+01,4.599982668484615544e+01,1.733351291408831401e+02,2.358161418589151594e+02,1.896971571802652079e+02,2.433064304642423537e+01,1.039221303312505427e+02,1.500115799317759695e+02,3.611238371053023570e+02,2.148871914328961452e+02,1.552539250299371645e+02,1.565986501325975553e+02,1.356208654843981378e+02,2.742784112890134338e+02
4.794881098680804143e+01,6.584119027035654881e+01,3.484000000442190981e+01,2.044031260814447251e+02,9.440887674814928232e+01,8.953994061474351440e+01,1.248442756882420070e+02,-2.656192251485724398e+01,1.335172052056469454e+02,0.000000000000000000e+00,2.509386185127780777e+01,4.754548899436912279e+01,2.577977658606451428e+02,3.306993118693088718e+02,1.204136047869207999e+02,4.800859607447638666e+01,1.187613831251832011e+02,3.623746891959463028e+02,2.862973107558576089e+02,1.861417462439772237e+02,2.928059723339151788e+02,1.769146263653900917e+02,1.981190089696611096e+02,2.071384654285271552e+02
1.668103822681143100e+00,6.561956694284479852e+01,3.769000000448417609e+01,3.029777932028723626e+02,1.264888254954190074e+02,9.278316710429379555e+01,1.325201545661051910e+02,2.283069043791497776e+00,1.828861766112361806e+02,0.000000000000000000e+00,5.349066997516779276e-01,6.715937233574290133e+01,2.489433517122800765e+02,2.583876309218616143e+02,8.537574028053190034e+01,9.165270166923802719e+01,9.439526754545939013e+01,1.156957386254321705e+02,3.053888422969690168e+02,1.824917217010182924e+02,1.725900732546186589e+01,2.031699346464126847e+02,1.667877466007872727e+02,1.687648107591306541e+02
-2.225446207428590029e+01,1.585297943762015471e+01,3.766500000454402652e+01,2.507947210231247652e+02,1.104688005938580488e+02,1.684503468365600725e+02,8.214949648050607323e+01,-3.946934121352194680e+00,6.177129602405821629e+01,0.000000000000000000e+00,-1.874579465706396064e+01,3.453530937224955011e+01,2.041529663809846227e+02,1.466971791654576407e+02,1.790301254305720491e+01,1.095261852285142368e+02,-2.140011960988465844e+01,2.332168081290648729e+02,1.412700929351543948e+02,1.234736758053389138e+02,-1.213108116729342179e+01,1.091254808832911749e+02,1.242053883938618668e+02,-3.971978814462351437e+01
-5.982931177789320820e+00,4.738256146041470629e+01,2.999000000457321491e+01,2.860108536873448770e+02,5.827378975278177364e+01,1.420536470557262305e+02,7.227574848167128607e+01,5.983054799184679418e+00,1.121617898719079136e+02,0.000000000000000000e+00,2.761211719708302326e+01,1.115759594102277497e+01,2.162008888059680771e+02,1.600732176363707993e+02,4.091094389683703980e+01,7.570350939136413615e+01,-1.625343483782458165e+01,2.181982377780487354e+02,9.833293812620185292e+01,-1.866349705288766092e+00,-3.425273935498858435e+01,1.818911912369319737e+02,1.016245819739932870e+02,-1.960152269917219598e+02
-4.288025947639830804e+00,8.415667350167105099e+01,2.307500000463673828e+01,2.518379050022226124e+02,5.591377575545343603e+01,1.445413877056942624e+02,9.922622822197139669e+01,2.443304319267257441e+01,2.205865758951948976e+02,0.000000000000000000e+00,-4.161900167588364496e+01,1.013825054632165745e+02,1.454111446612735392e+02,1.481206862527406543e+02,5.598978271107409910e+01,4.564105557516653278e+01,1.191596700659975561e+01,2.636065118696036507e+02,-1.125352068577273990e+01,-1.347839509876688453e+02,1.065104215563631413e+02,2.878210656113516279e+02,1.829185042308001812e+02,-1.608382045609286024e+02
-1.424969075158158915e+01,8.447044771403929531e+01,1.505000000466213983e+01,1.921491212752371496e+02,1.658377225963857882e+01,1.491862878860860633e+02,3.216194510420888975e+01,-4.336965775745802887e+00,2.826317847888738015e+02,0.000000000000000000e+00,-7.845174443987949076e+01,8.523657274254601646e+01,1.161459284057280570e+02,8.762011705705872089e+01,1.100635661044057656e+01,3.093367266066864119e+01,-3.926468050465417026e+00,1.562517555597674743e+02,4.199939532289346289e+01,-8.996072884849735374e+01,1.344675236841879382e+02,3.364552585226867905e+02,6.442470490158949303e+01,-1.247533882243247234e+02
-2.947280330721352470e+01,5.532466320792214987e+01,1.620000000466111345e+01,1.417149566997233592e+02,1.793689147931424976e+00,-3.532378308917164134e+01,1.266419330874241211e+02,-1.048695997248044520e+01,1.257867508227663507e+02,0.000000000000000000e+00,-1.040802783773729914e+02,1.541613496195999211e+01,1.503274270341119632e+02,4.212412620275477337e+01,-2.728651738509588398e+01,1.696179500880511171e+01,-9.216998050448067303e+00,3.695988195289761507e+02,8.567078135198065070e+01,1.536398980637934812e+02,1.749378417477084326e+02,1.997305816656769650e+02,3.114366836541124783e+01,4.039448559436453934e+01
1.388835528846957956e+01,3.830083496370635032e+01,4.310000004663471884e+00,-3.210991762767574187e+01,-1.665125447930462599e+01,2.644703908479456800e+02,3.942017593496657923e+01,-1.055196313767568306e+01,-3.002174906253381437e+02,0.000000000000000000e+00,-1.394013939050089164e+02,4.306046210582000811e+01,7.252809361523738119e+01,5.858925781551099732e+01,-5.692602391031014974e+01,2.543115553193864997e+01,-6.269030636490980157e+01,-1.643289741134149722e+02,-5.074410287054006830e+01,4.145300067915479758e+01,3.797105086152996734e+01,-5.856712641398588630e+02,-2.699094795948476744e+01,2.124748796359461878e+01
1.543624479655707482e+00,5.354587149485203312e+00,4.245000004663916471e+00,-1.567362576167677446e+02,-3.975124689111538601e+01,-2.041981521106744708e+02,-2.880029626103463158e+01,6.580284209342839308e-01,-9.513048369751264488e+01,0.000000000000000000e+00,-3.648297075679300860e+01,4.697106866378081236e+01,-2.037873716248038036e+01,1.934257631153829848e+01,-1.242987871948596705e+02,-3.917421212175189282e+01,-3.073031429059741271e+01,1.824487790669530440e+01,-1.297813307416399766e+02,7.470996924643337422e+01,1.039325334242692236e+02,-9.810809324581411417e+00,1.442501773576098572e+02,3.046505777839975693e+01
-8.586554125062203724e+00,1.316698476203043455e+01,7.450000004628715367e+00,-2.555843621032186661e+02,-1.616132330252763438e+01,-2.281444517200132793e+02,-3.200781853957514045e+01,-2.675696313764477452e+01,1.348654878855612083e+02,0.000000000000000000e+00,-7.456439134352702069e+01,6.802273808508725494e+01,4.082866374304337143e+01,-3.688859581405303345e+01,-2.005478152410098147e+01,-8.493497834988296802e+01,4.855196596014947374e+01,-9.342517309220407640e+01,-9.134835756863020606e+01,2.709252978065359230e+02,1.719703895838117376e+02,-8.187937887105080108e+02,-2.288483527082214550e+02,9.143814658355387337e+01
1.745825827368901528e+01,4.196693945055989161e+01,-1.940999999537577025e+01,-2.212663008560217008e+02,1.429865654738039460e+01,-1.401788012419382596e+02,1.621976231895073228e+00,-3.041696894090884484e+01,2.121850314190371023e+01,0.000000000000000000e+00,-1.566447559749880440e+02,2.628943184788347764e+01,1.722399655456906657e+02,-1.026442424642349494e+02,1.303770085878155669e+02,-1.104612250326533456e+02,-1.160482480366038160e+01,-9.465546880048296430e+01,2.022211677252040474e+01,1.606532070263641288e+02,-1.375245515949659136e+01,-1.475381009292087811e+02,-3.260153783667574316e+02,1.547782434345667468e+02
-2.411692124524434533e+01,-4.787480566430394902e+01,-8.439999995314449777e+00,-9.986548623603859198e+01,-4.456362055781220022e+00,-9.979944345474086731e+01,-6.037100973291673611e+00,-1.273196630281069375e+01,1.212566210318451851e+02,0.000000000000000000e+00,-8.367795803341000749e+01,9.226530940184789475e-01,5.782555413372282516e+01,-1.462384982643699232e+02,7.664631012478078276e+01,-1.509822325216720174e+02,-7.019034846403937422e+01,6.970637709445810515e+01,-1.597933646835030004e+02,-1.015183142447626494e+02,2.983152673763422413e+01,-2.384727638381873192e+02,-3.655789724654057409e+02,1.251616164299944529e+02
-4.944718995945702034e+01,-3.655653314175469859e+01,2.049500000462310112e+01,-3.024366771182744742e+02,-2.795635210180339314e+01,6.452511457977327325e+01,-4.647138820700241268e+01,-5.322196366469301410e+01,1.031859522298909440e+02,0.000000000000000000e+00,-7.459758753668941722e+01,-2.247912477315369983e+01,3.189816379831558635e+00,-5.937437443396471792e+01,-1.094695080659030992e+02,-1.312879414871906931e+02,-5.997586694264506946e+01,5.816157564879493691e+01,-1.207003419718096495e+02,-2.578283855778828411e+02,-5.706810636252680524e+02,-2.254303267351780278e+02,-8.693541644036780269e+01,1.692047834950448646e+02
-4.096818331492001164e+01,1.252956555669507566e+01,-1.904999995375773025e+00,-5.897781750457749013e+02,-2.697135115155625229e+01,2.322266528723892520e+02,-1.142198805768924217e+02,-7.127695786146809098e+01,-2.138930505318181119e+01,0.000000000000000000e+00,-1.211175018393986846e+02,-4.663827818030726746e+01,-1.166865082868659087e+01,1.242243531398259933e+02,-6.514394778808282638e+01,-9.902835614301284295e+01,-3.408535550855062013e+01,-3.545840496874935184e+02,-1.271453912701613547e+02,-1.543975140835339062e+02,-1.002485336480714182e+03,1.007588308700657720e+01,2.281887399333283213e+02,2.440958009240281683e+02
-4.836918556911579259e+01,-3.858384641260926173e+01,-1.722999999540800076e+01,-2.532465242011855082e+02,-4.708136310275768466e+01,-2.419403972851399942e+02,-7.913020706819331451e+01,-4.291696102662971413e+01,-8.760384708845997181e+01,0.000000000000000000e+00,-1.232638340556529215e+02,-1.231687065874383080e+02,3.020668876459497199e+01,-1.296882174565149626e+02,6.523579122238298567e+01,-8.752379635329999985e+01,-8.792794325413746037e+01,-5.767788984145252016e+02,-6.146155655605006274e+01,-1.505188969159453052e+02,-1.869961677331602345e+02,-2.032941513799503355e+02,-1.579578321929962215e+02,5.400497787024976759e+01
-4.205017934241446653e+01,4.100776176374422732e+01,-2.168499999541220191e+01,-6.438483123153316683e+02,-8.396636933794822255e+01,4.264089145619072951e+01,-1.537688859921833568e+02,-7.106195575044196744e+01,-1.626429491416321014e+02,0.000000000000000000e+00,-1.881068177113134254e+02,-1.150378608022343201e+02,-4.141833339693206995e+01,-1.543464665073692288e+02,4.507864481034063431e+01,-7.992928224157130046e+01,-1.022834617350562496e+02,-5.108407313624178414e+02,1.146883575945745264e+02,-1.571138145262588921e+02,5.037203499123290271e+02,-4.776834301077607137e+01,-6.075524565310689695e+02,-5.043294646533617964e+01
-2.206590410956756898e+01,-3.316652536535872997e+01,-2.210999999541536809e+01,-3.451922748172369779e+02,-1.412213666467486348e+02,-4.021288226341698646e+02,-1.310915889886166212e+02,-9.326694730907513531e+01,-2.074640256211437190e+02,0.000000000000000000e+00,-2.364631315354815229e+02,-1.282920147112998848e+02,-7.706181936216341910e+01,-3.059978182195393401e+02,7.360980065210129908e+01,-6.197477851629576406e+01,-4.520179456410787111e+01,-6.835067908495449274e+02,6.216496132977540867e+01,-6.959191307352875810e+01,6.733524034174284623e+01,-9.333394324308684986e+01,-1.644025065785055517e+02,-2.306914601601315695e+01
-3.246626945463361835e+01,-3.546488978903452249e+01,-1.454999999544741840e+01,-1.394412301916912611e+02,-1.200013631851329023e+02,-1.467613946361618389e+02,-1.444152245878058523e+02,-3.967694730909357759e+01,-1.433281806147273016e+02,0.000000000000000000e+00,-1.275343521785765404e+02,-1.415435418371620528e+02,-3.850960521872293896e+01,-2.896529097304971287e+02,-7.286559830148895855e+01,-5.069545481356319527e+01,-5.519164677146765285e+01,-6.499222639956233252e+02,-3.469069630850068364e+01,-1.778342890017817695e+02,-1.325990414518160492e+02,-7.489372722260358728e+01,-2.629081158859536345e+02,-5.263862227571736696e+01
-2.108163617607353757e+01,-9.164882839977073559e+01,-2.629999995507449562e+00,-4.698883925849318643e+02,-1.485313411344690451e+02,-1.424537946634069669e+02,-1.454269137568799408e+02,-1.351695047424335883e+01,-1.952680853238536542e+02,0.000000000000000000e+00,-1.056987669965937613e+02,-2.495374442197446854e+02,1.795739658790527926e+02,8.637547966615615280e+01,-8.274771268199394569e+01,-2.562061413748783778e+01,-3.811644379424317464e+01,-3.617757131898095508e+02,-2.254016577669075332e+02,-3.212436420562222565e+02,-1.618149360587784713e+02,8.150073124672002223e+01,-3.813686439311526328e+02,-5.139809195582110135e+01
-3.039209236011874893e+01,-1.535933702678515829e+02,2.935000004460295742e+00,-1.570592226918788299e+02,-1.114213314859006800e+02,-2.311059460948485764e+02,-8.013149587102435589e+01,-3.184194203289337821e+01,-2.425235694314577586e+02,0.000000000000000000e+00,-8.466872226162625736e+01,-2.361150705166664068e+02,-8.043386005186344789e+01,1.424075393278018282e+02,2.556468099044650888e+00,8.564059873263595080e+00,-3.007850520434737618e+01,-3.794871665659667883e+02,2.897215769649943695e+01,-1.477958432346875668e+02,2.809042145616106723e+01,-1.755485685113482077e+02,-1.824716999495157532e+00,1.204442026523951057e+02
-4.171754852445195638e+01,-8.233172083204264879e+01,3.235000004394168904e+00,2.702436323865322620e+01,-7.050133659104193384e+01,-2.753559125504097693e+01,3.383416159604718132e+01,-1.234193359156065739e+01,-1.087446174145606790e+02,0.000000000000000000e+00,-1.688431771802272010e+02,-2.605700693758086004e+02,-1.373239219004057645e+02,8.403463414257521080e+00,-3.817892681138330602e+01,1.229354842475947152e+01,-1.449234151725216968e+01,-5.397239022772512271e+02,2.156541508635872049e+02,-7.898019666136970329e+01,7.591158708781485132e+01,-1.383132539123396576e+01,8.448197813541511891e+00,-9.751152354092022634e+00
-1.160801318954767680e+01,-9.070771624198750160e-01,-7.319999995605600773e+00,1.183864260864447360e+01,-3.711132963360397952e+01,-5.782695013141031382e+01,-1.198995713242811547e+02,9.096307748790884773e+01,-3.143612810534559188e+01,0.000000000000000000e+00,-1.294196415923679808e+02,-6.040769716255037736e+01,-6.175944818696684280e+01,-4.155090858326753533e+01,-1.277015083767433268e+01,5.834893415124128779e+01,3.058073275988671824e+01,-8.293184927221095393e+01,-5.724211457060834363e+01,-3.216737139100784049e+01,-1.232099207626620512e+02,2.050581475234707511e+02,-1.433015791666973655e+02,5.383517608742200977e+00
4.081180005069329297e+01,2.326837259644551281e+01,-1.164999999560808419e+01,9.394344009867445777e+01,-1.588133728431409963e+01,-9.362988400034852532e+01,-4.372428132712150983e+01,8.396808592921151160e+01,4.267098777810520716e+01,0.000000000000000000e+00,-1.437644040274153951e+02,2.134385573211356046e+01,-5.121247607923675815e+01,1.948670390250451590e+01,-8.684133815057702321e+00,6.189898910444330227e+01,1.128535137603643932e+02,-5.570889680055446433e+02,-1.744092566746569162e+02,5.487084874395507939e+01,-1.124461107359785075e+02,4.324092445661768380e+01,1.578080904199865984e+02,1.598802841408737230e+01
6.557152284137669085e+01,-2.540074470815517316e+01,-2.522999999570239993e+01,1.517774627095352855e+02,-3.866337138903364945e+00,-1.597921369464390864e+02,1.993503903350529640e+02,-5.928689982621634158e+01,1.647224586567426456e+02,0.000000000000000000e+00,-1.737358761875832442e+02,-9.324611372964902500e+01,-2.743920103993403004e+01,7.024827676320238368e+01,2.464111019057096996e+01,9.682376415288739224e+01,1.289691678312357794e+02,-4.999916231851756834e+02,2.231189689481276162e+01,8.730869789979377060e+01,-2.065266903418894628e+02,-6.086016420742210187e+01,9.852385821058315685e+01,-7.156827786966837834e+01
5.120123801197699009e+01,-2.342571734780574744e+01,-5.545499999561200610e+01,1.043492527725326795e+02,2.651867286336052842e+01,3.939110519023098078e+01,1.999069090575626433e+02,1.442811125323658672e+01,1.382193588120165906e+00,0.000000000000000000e+00,-5.913582584734128744e+01,-7.886611286047194369e+01,-4.689774285325319880e+01,1.673328850091354525e+02,7.339733863265699654e+01,9.813371989970323739e+01,1.443898883545149090e+02,-3.057290512094883184e+02,-1.100350217736798086e+01,-8.585456449467187667e+00,-1.453926757663124647e+02,-1.596513215461893651e+02,1.135085908221938240e+02,-9.804068168975744868e+01
5.854113163616620596e+01,2.773393546483686123e+01,-1.814999999674698472e+01,3.855749385971971321e+01,3.845867761491020786e+01,1.527337158449005585e+02,5.446419728229514590e+01,9.602812813591636143e+01,-3.788821155327921133e+02,0.000000000000000000e+00,-3.706112956868946640e+01,-8.853110461277307763e+01,1.031170914547728046e+02,1.729599188911384431e+02,-1.390897765505857535e+02,1.048789918046190763e+02,1.840155457934139065e+02,1.721110528735802632e+02,-4.261162505384182850e+02,4.500081231347536459e+01,-1.369989943336715044e+02,-2.618758063060275845e+02,1.225641776520002679e+02,1.272677450521995723e+01
1.501358137407479205e+02,5.177283704987643631e+01,4.312000000433626923e+01,1.949958534071543568e+02,6.524888314312195803e+01,-1.239853291667142798e+02,1.661453851585749817e+02,-1.070691038127962180e+01,1.102856363838338893e+02,0.000000000000000000e+00,-5.591011949565022832e+01,7.249288634541152021e+01,9.879364712772897406e+01,2.183888825605732791e+02,2.079220079127124734e+02,6.769718625860352290e+01,-7.958051565813157424e+01,3.475952572360180852e+02,3.924389563342501788e+02,1.628215427222064307e+02,2.577347925227426799e+02,-1.483961569554861626e+02,1.099950477811501628e+02,2.171164763416845176e+02
1.018519054337851912e+02,6.336539225452702873e+00,3.559000000442571121e+01,1.182410598855078661e+02,4.986386420039792711e+01,-1.689042271730945544e+01,8.337106801755314223e+01,-2.130192515293393640e+01,1.376616314163721597e+02,0.000000000000000000e+00,1.570024409815224153e+01,-2.436703804469696699e+00,1.064284865905278963e+02,1.964709484789635781e+02,1.261996824276649818e+02,4.395509039213945357e+01,6.114889234459820244e+01,2.525157129571883274e+01,2.699959135374216999e+02,1.665334729243137986e+02,1.820695328423686590e+02,1.334885401448848086e+02,1.764873432558831325e+02,2.162684705610556932e+02
3.121345304789819863e+01,7.202948974658245618e+01,3.336500000448658199e+01,1.364533013591446036e+02,7.040386481114656192e+01,4.097613611667683386e+01,1.125168532162445558e+02,-3.165193359430291054e+01,-2.531768836340307516e+01,0.000000000000000000e+00,3.962351040035637340e+01,1.818005574048896023e+01,2.152217699104461701e+02,2.866023289738939184e+02,7.838351716278444314e+01,8.737807574209061556e+01,7.964763560889342386e+01,3.561304605326079127e+02,2.123136773327761375e+02,1.603154267706784992e+02,2.376923410510627548e+02,1.249736748392250405e+02,2.000831203577946553e+02,1.619297960061188348e+02
-2.186233585714442995e+01,4.160829588490992137e+01,3.870500000455026424e+01,2.089888224679627342e+02,1.074338126081277380e+02,5.994385467003898782e+01,1.024196508310641889e+02,-6.096933594302117676e+00,-6.146367086113727396e+00,0.000000000000000000e+00,-1.537924348912883055e+01,2.133784152200131956e+01,1.865776841658274634e+02,2.206110793883420911e+02,4.300908031949623478e+01,9.458765610189540496e+01,5.711651287066813865e+01,1.177347818352190103e+02,2.167677522845610554e+02,1.467084245650428045e+02,5.544532613049506864e+01,1.430572161158351605e+02,1.027374357065282311e+02,9.592351557788691707e+01
-4.649382678914789579e+01,1.253205499432027459e+01,3.209000000460850544e+01,1.662622228943924654e+02,8.385879530891658362e+01,2.522898238334206269e+02,6.186605743590169482e+01,-1.592695364216384135e+01,1.174351054093066171e+00,0.000000000000000000e+00,-2.367416609186415855e+01,1.290725124766269438e+01,1.966275949432767334e+02,1.030999055949174021e+02,3.907433450299618194e+00,6.814086364251446071e+01,-4.971437865820281132e+01,2.176569114748317304e+02,6.414842468587636404e+01,6.433280384890397841e+01,4.874924115422762583e+01,1.398601804002098277e+02,1.712741899398990029e+02,2.412952091782314312e+01
-2.604898927401988118e+01,4.610163503375298433e+01,2.734000000463641911e+01,1.752187542315944029e+02,4.527377860632847018e+01,1.437821052854490347e+02,4.070227678779794900e+01,-1.919196261058049302e+01,-2.949637597569788028e+01,0.000000000000000000e+00,2.373864867331803019e-01,-4.095546317851950135e+01,1.541387302380815072e+02,9.774865292486768453e+01,3.686456127850746611e+01,4.241288072524808683e+01,-2.444276907320204373e+01,2.139809060317121236e+02,3.191754958758211203e+01,-1.093252433761242770e+02,5.543185356381362539e+01,1.510555112037049525e+02,1.086186682591026482e+02,-6.278002420617617929e+01
-2.673009667582606497e+00,6.636616894172514947e+01,2.191500000470146858e+01,1.304232347380134911e+02,3.683877271064104519e+01,-1.166446125550414763e+02,7.071646922406110036e+01,3.805303738941956482e+01,-1.379442978744764616e+02,0.000000000000000000e+00,-5.728091433513105812e+01,6.276835024505222549e+01,1.215286005638422893e+02,1.168544947853583409e+02,4.158387552467863202e+01,2.048025403841048941e+01,1.558391118594799707e+01,1.929629219855711995e+02,-4.535928863799065880e+01,-1.976722209946138662e+02,1.804663648425779456e+02,2.496363468444802436e+02,2.690817254295004091e+02,-4.587675631234418461e+00
-3.408868884310668790e+01,7.951455083238992927e+01,1.151500000472781693e+01,3.664630543840897303e+01,-6.412520452831458329e-01,1.468201369291743390e+02,-1.663391908427840349e+01,7.918028948068535300e+00,1.779944336191155685e+02,0.000000000000000000e+00,-1.169892328943679445e+02,9.757415743478400572e+00,7.310818508938163518e+01,4.113396749286206244e+00,-7.065981269873155668e+01,3.258836622905728575e+01,1.620596550951873382e+01,9.363197065562376054e+01,2.713095495605259089e+01,-1.877925135245946819e+02,-1.335259935353145266e+01,3.035599201998312537e+02,-9.993455347702346891e-01,-5.289863732760692727e+01
-4.255868964486496964e+01,4.596033027142752303e+01,1.434000000472621039e+01,1.759953687159038438e+01,-8.101318648256153665e+00,-2.984382050532145172e+02,3.046338550310861848e+01,-9.169742170889052524e-01,2.037051181410489846e+02,0.000000000000000000e+00,-6.556920251269947642e+01,-2.241922827308162613e+00,1.871541136948772817e+02,-1.900463047037677322e+00,-6.769831618010920238e+01,2.301737320427835520e+00,1.723146358332752115e+01,2.507277838064958075e+02,1.711632383994638076e+02,1.432516352726879916e+02,2.478813997020741766e+01,2.188312705962829341e+02,3.058085128276703557e+01,1.165779404646679041e+01
5.598327490948530283e+01,3.230470563714469279e+01,1.700500000472803563e+01,-8.406485383358666752e+01,-5.717127057114878141e+01,3.729185497274696104e+02,5.562560779801366095e+01,8.143019979627204918e+00,-5.662752682340513957e+02,0.000000000000000000e+00,-1.131610931496608998e+02,-6.426759341000503412e+01,4.227327104139168057e+01,8.669522535906746441e+01,-3.980138705471674143e+01,2.040086902000665958e+01,-2.193669410166335254e+01,-3.023578776454561634e+01,-3.185979165667701452e+01,1.607229410137093168e+02,1.562597362357377904e+02,-7.430358312920312756e+02,-2.126492955261152531e+02,9.887985737695009902e+01
-6.206359035682678993e+00,-1.954452953439835383e+01,-9.249999953045933143e-01,-2.618637350282473335e+02,-5.802625692753305486e+01,-2.450804708859654681e+02,-1.505974868225375118e+01,2.422301153816488295e+01,-2.250680487054281400e+02,0.000000000000000000e+00,-1.141279302917697613e+01,-6.295959477025329676e+01,-7.780478628866968904e+01,2.111613890851112885e+01,-1.654188150945716416e+02,-5.208469522237952987e+01,-1.312736741066304802e+01,1.217965239681872731e+02,-1.867034600472892407e+02,1.965066178541465192e+01,2.451264961553626520e+01,-3.040920936901392224e+02,1.177930731359902268e+02,4.040555843171679129e+01
-2.320162820746952548e+01,2.199465068520103728e+01,-3.919999995153795602e+00,-2.289861558460706306e+02,4.765365814256833232e+01,-1.735425205614394883e+02,1.442910927424583356e+01,4.814301417633956248e+01,3.502689365163809754e+01,0.000000000000000000e+00,-9.723109488836321646e+01,-4.458030330712615097e+01,-9.628520816346919275e+01,7.402324200440449431e+01,-6.079548421536071601e+01,-8.270027136472178597e+01,-4.698942880751146589e+01,-1.311361781583420907e+02,6.429907977534551833e+01,1.896119387398487390e+02,5.511983921558516641e+01,-9.528407375159606545e+02,2.679565535327653265e+02,7.448540388108942523e+01
4.660809571608992741e+01,1.144470235500440651e+02,5.025000004351639404e+00,-3.298628390038883254e+02,2.818864414523992679e+01,-2.099311375793193690e+02,2.706357513413716731e+01,2.848302261777113387e+01,3.251484610047026536e+01,0.000000000000000000e+00,-1.520067870659573543e+02,-6.143472726669980233e+01,4.019032262103613817e+01,-4.578571853218886645e+01,5.831863295125813096e+01,-8.388685896868190639e+01,-1.132357325669537218e+01,-4.164413768952792338e+02,2.500998122963163723e+02,1.493370631042169805e+02,2.240276292978066124e+02,-7.759662432696140968e+02,-2.393294180672656069e+02,1.644131755084120812e+02
-1.137083477148052246e+00,-8.046774125722201632e+01,-9.369999995894726652e+00,-1.010149653973037260e+02,-1.170137144732375134e+01,-1.001226305886301162e+02,9.181122015425916061e+01,2.134302261773246201e+01,1.391989908118454480e+02,0.000000000000000000e+00,4.246814021456057020e+01,-5.513912672129372083e+01,7.028735238834889287e+01,-2.646131983543620549e+02,-1.705701736697853299e+00,-1.044731679114553060e+02,-6.153189044042517253e+01,2.577731321111195939e+02,3.142353799368140130e+02,5.146311847600853895e+01,-2.318119458572870428e+02,-5.903516271349587896e+02,-3.120193559344980727e+01,6.568737218031361635e+01
-1.708226263141889945e+01,-2.323892901380384615e+02,3.063500000475445617e+01,-1.917276340724491774e+02,1.151363915158004758e+01,1.937588529328357936e+02,4.984394620454732205e+01,-1.269805473809659802e-01,6.737299302947418767e+01,0.000000000000000000e+00,-1.112844651379792937e+00,-3.330675128217618663e+01,1.147762814334892738e+02,-3.757492830110170416e+02,-3.907658400930813514e+01,-5.684326068922214148e+01,-7.257395155742366910e+01,2.479434748222947178e+02,1.562896575805112889e+02,-8.928623797110776650e+01,-4.782669462429174132e+02,-4.260648514301757928e+02,-1.032312277202788096e+02,1.361470160926615414e+01
-2.015825613249979043e+01,-1.674703460532469990e+01,6.490000004626313768e+00,-3.485320211656564311e+02,1.383086324312166653e+02,-1.240714480211843949e+02,4.587655951688807932e+01,-1.277698054741225775e+01,9.784582992853671612e+01,0.000000000000000000e+00,5.765479693040663989e+00,7.077817672056667675e+01,-1.241200737342593499e+02,-2.402254513580048823e-02,-8.892681532389252652e+01,-3.629912650590515000e+01,1.062715003790122381e+01,-3.593169003587951238e+02,-6.566007293413302648e+01,7.447567078658578055e+01,-1.239390397095230583e+03,4.653511951606128605e+02,3.364658258449585304e+01,-1.528480610359106429e+00
1.074065220417918454e+01,-1.361810942824807569e+02,-4.067499999534349087e+01,-2.530746717092168296e+01,6.363364132332496581e+01,-2.301149074490181761e+02,-1.154848031707313361e+01,-2.613697210607421795e+01,1.483888449609026239e+01,0.000000000000000000e+00,3.080974829068884802e+01,-2.275215819385116447e+02,-2.776573806073092214e+02,3.169131973609594297e+02,3.793251823366204434e+01,-5.924483969973206854e+01,-9.688887005039148459e-01,-3.474204447576330494e+02,-5.808964411567383479e+01,1.360714413919892962e+01,-5.254316762054340870e+02,-1.266921460606792351e+02,2.939275427311848716e+02,1.475106954833412090e+02
-2.418543029323479132e+01,-8.727361725204004017e+01,-2.809499999536827275e+01,-7.122550191635127703e+02,-1.918634800955985753e+01,5.181497049992446335e+01,-7.400944526571879578e+01,-2.313697579828210849e+01,2.700168041691031462e+01,0.000000000000000000e+00,-2.939557324341687661e+01,-9.795854164234954453e+01,3.013019720338986644e+02,9.177207985161777515e+01,4.674467734293697418e+01,-5.652507273808059551e+01,2.833652294613918343e+01,1.418107156304404270e+02,2.741855411110434488e+02,-1.910085368606635257e+02,8.085407927767942482e+00,4.341250062486240040e+02,3.810563300201815764e+02,2.517097779735221863e+01
-4.127616351248495619e+01,-4.673640548928756999e+01,-6.627499999540133047e+01,-5.369020856072518200e+02,-5.744137017690814417e+01,-4.311913581868552683e+02,-3.597410584078534868e+01,-7.837196999504654116e+01,-1.535959813380712724e+01,0.000000000000000000e+00,-2.538087850907313339e+02,-3.477854921397354815e+01,1.479315365755190328e+02,-1.250375891664371153e+02,1.776717901040644847e+02,-4.736555537729777399e+01,-5.939105970842820170e+01,-5.088599718702540144e+02,2.282904081371241034e+02,7.555267348004685246e+00,1.949735380502494877e+02,-2.625194725994402489e+01,3.353725979295969069e+02,7.322762271172997828e+01
2.436855759399458776e+01,-4.679320278713812797e+01,-6.741999999543162403e+01,-6.112122934949761088e+01,7.908622352326854177e+00,9.628296642588685472e+01,-1.051640226335348132e+02,-4.320696155367748048e+01,-2.264447730331446085e+00,0.000000000000000000e+00,-2.555826713611684511e+02,6.594927651938786717e+00,7.133033183108781827e+01,-5.609339768847730738e+02,1.351642865513268248e+02,-2.122604450364507045e+01,-7.601378322677697952e+01,-7.048244659896462281e+02,-4.872167354123880045e+02,-9.802015952513671948e+01,-8.411229534179560119e+01,5.025432852984122434e+01,-5.139219622715241940e+02,7.648921016242847770e+01
9.023255653445021451e+00,5.723361265479982762e+01,-2.996499999544186110e+01,-4.674955627045789583e+02,-9.118134607984397633e+01,-9.943142241809420057e+01,-3.528947647238563690e+01,-8.248696471883802417e+01,-8.457624070598440369e+01,0.000000000000000000e+00,-1.721010752620847128e+01,-1.426094752395019896e+02,1.156810540705684645e+02,-7.864563028383687993e+01,-9.470139216668590620e+01,7.898722468103521521e+00,-8.287261956195806079e+01,-7.127225827458114509e+02,-1.690370396341171499e+02,-1.010771129139204589e+02,3.246490506955706223e+02,5.568387827458354877e+02,-6.594074450580633311e+02,1.032362408151029314e+02
-3.577230548052904169e+01,-1.640138939645320875e+02,-2.836499999544607675e+01,-2.759581371509935934e+02,-8.645635392443001876e+01,-3.128108082807519281e+02,-8.085992445747528734e+01,-2.601696471884827844e+01,-1.140790644057140923e+02,0.000000000000000000e+00,-1.190910918848596083e+02,-1.396081311356782919e+02,5.234647133342556913e+01,2.181803550328783388e+02,-1.185612107218885880e+00,4.846329664953317717e+01,-8.464519232957238160e+01,-2.357804621282117523e+02,9.630009386024094908e+01,5.865568480290374964e+01,4.887607336385391932e+01,1.074996570065036252e+02,-1.287786320037239705e+02,-7.253569344441104239e-01
-2.599781707395075614e+01,-1.245674215998793386e+02,-7.754999995507814603e+00,6.842077505173445218e+01,-4.291635218359785853e+01,1.073669157025273506e+02,2.639782284598498663e+01,-5.398195047424224668e+01,-2.229558919599362810e+02,0.000000000000000000e+00,-2.128133061219386093e+02,-1.964781295778320782e+02,-1.221846760831609373e+02,1.274392247227787607e+02,3.663729210800483571e+01,2.738335575477733386e+01,-6.309160754982180919e+01,-3.816116791600275064e+02,2.846723111115967413e+02,-1.296646306960546369e+01,6.270510803274532208e+01,-8.842187412380692990e+01,1.060509735138666230e+02,4.767962150062036386e+01
2.721832714032396350e+00,-1.892578255860581482e+00,3.000000004458645897e+00,-9.150833316975041498e+01,-5.596134268064488282e+01,-1.367424517904615016e+02,7.774173376614152531e+00,4.678306060521160958e+01,-9.319878940860775174e+00,0.000000000000000000e+00,7.893284503830533261e-02,-8.824075691284656386e+01,-5.813927497780021270e+01,4.234054057196227916e+01,-6.228981930937241884e+01,2.966309241951183751e+01,-1.082868296078097359e+01,-4.980656801036425207e+01,5.205676643077519827e+01,9.318175689261353511e+01,1.358648352693255674e+02,2.668975297626528800e+02,-1.852513261996917890e+02,7.466426618097585788e+01
5.468663585366732605e+01,1.610204765358630397e+01,-6.324999995603565850e+00,5.140664063940661066e+01,-3.484633857414653590e+01,-1.511520970895800815e+02,9.197553323205478648e+01,4.126307168457544350e+01,6.077870228703709188e+01,0.000000000000000000e+00,-4.939771504127730850e+01,-2.593919996845998810e+01,5.181508183543513724e+01,7.799791862184967783e+01,-1.926797912889348652e+01,4.897337621830373422e+01,1.566461647856654515e+01,-2.717218124615254169e+02,-1.127569568637358373e+02,-8.189457523291873997e+01,1.254118240485195344e+02,2.649397012201981738e+02,2.518409912423022661e+02,5.209373292332936245e+01
5.956347848612848495e+00,-1.980665269551982277e+01,-3.295499999554354531e+01,1.054064447114849088e+02,-6.506345580125998396e+00,-1.025697518344206571e+02,1.830573676486725958e+02,2.235308329106996084e+01,1.660600171014442878e+02,0.000000000000000000e+00,-1.000847945967973658e+02,-1.014341702997926689e+02,-2.288482640894794429e+01,1.072509019434389614e+02,3.076349514835482424e+01,9.029841606206993276e+01,1.038202687283791192e+02,-2.775095116415682810e+02,8.750445837974046981e+01,2.538628291556712497e+02,-1.227019168295191349e+02,6.083990790368783763e+01,-9.190155192876535750e+01,3.570858664339347399e+00
1.409116289164319191e+01,-2.935200199303249491e+01,-5.383999999600602848e+01,7.002045893677988886e+01,-5.561341778918295731e+00,-1.158420304656561086e+02,2.606592240842205115e+02,-2.274690562948255135e+01,-6.825445861522135615e+00,0.000000000000000000e+00,1.747310806478710177e+01,-8.443416816907773637e+01,-1.453310415482482654e+01,1.467253721860244582e+02,4.026892000681078088e+01,8.353344551497463044e+01,1.124633499907045007e+02,-3.712156688953493813e+02,2.198643159460775109e+02,2.197080529575697199e+02,1.009341970463438187e+01,1.897597997348147487e+02,-5.730690474949772124e+02,1.601858122224692238e+02
5.333088785328385484e+01,-1.094274687242106836e+01,-1.473999999808931527e+01,5.545370384345886805e+01,2.102866202229905568e+01,2.236933270555388731e+02,7.035989898270801746e+01,-3.900688610868133566e+01,-4.919672342176032203e+02,0.000000000000000000e+00,-4.629566041249571384e+00,-1.670741655210296983e+02,7.429030812005625251e+01,1.616226369600427972e+02,-7.678500666244916317e+01,9.230347322801031851e+01,1.541217911883542513e+02,1.543157038521214588e+02,-1.893819688694162551e+02,1.678395199325289866e+02,-7.813424265810637870e+00,1.516084556541076189e+01,1.966059172039213081e+02,2.365311189961280434e+02
1.457105531224396486e+02,4.382192211812688498e+01,3.908500000440058386e+01,8.479167602910719381e+01,5.105387629713851538e+01,-1.482482288504907046e+02,1.346882302730189735e+02,-1.644691882262847926e+01,5.476492701452251310e+01,0.000000000000000000e+00,-3.928987111340906324e+01,5.245135587696874069e+01,3.268549459172229632e+01,1.685693718403171601e+02,1.511465017757661542e+02,6.992210433080174425e+01,-1.173599313876149353e+02,1.992561887935711127e+02,2.978604932754901142e+02,1.024828768015951965e+02,1.190821698478509063e+02,-7.318495619825486642e+01,9.387424810975598177e+01,1.892768177937483074e+02
8.223209194997339466e+01,-2.099764103988690067e+00,3.125500000446114868e+01,3.923119409002622149e+01,4.254885735441383332e+01,5.656179669385948294e+00,6.456661462398523099e+01,-3.805693042914025170e+01,7.384064103914148802e+01,0.000000000000000000e+00,4.241428432055381670e+00,-4.669323286911077275e+01,1.420309940151869732e+01,1.464812849314387506e+02,7.975657243115759343e+01,3.973984998689597603e+01,4.018999601117109677e+01,1.386892742043967353e+01,1.701917096007154271e+02,8.977782657537429145e+01,2.251355084676170009e+02,9.971071477081450496e+01,1.431170143458646749e+02,1.555444623495849044e+02
1.551828198999665887e+01,7.184358270429018489e+01,2.950000000455095162e+01,6.125810456518036773e+01,6.800884921859123722e+01,3.804995506128072691e+01,1.035680270305267641e+02,-2.882694203565210600e+01,1.585646729935162469e+01,0.000000000000000000e+00,4.802987016746205029e+01,-2.050409937316128861e+01,1.994522374139618819e+02,2.455021538340262737e+02,3.643425360842343252e+01,1.114583009574048447e+02,-2.040610491814593175e+01,3.425277847276939838e+02,1.411207194006690031e+02,9.806478119150200712e+01,1.212728233560431619e+02,3.541679684832212160e+01,1.545002919872408995e+02,1.194784458456663003e+02
-2.387267808480134335e+01,2.484819554314221790e+01,3.411500000461411020e+01,1.204921623795039949e+02,1.028938010106724192e+02,-8.232166593197888460e+01,7.167665476533706226e+01,-1.155695364216137655e+01,-1.635243071151295453e+02,0.000000000000000000e+00,-1.020207730809112512e+01,-2.219631436669216384e+01,1.471464174047142137e+02,1.782256005912144872e+02,1.107939301868730375e+01,1.145873869135802181e+02,-1.645687484872366113e+01,1.036584000759931286e+02,1.729275511069596121e+02,9.264215659979711859e+01,-5.605268983542366357e+00,6.179257881610460856e+01,-2.048173873949671986e+01,6.078759343043208929e+01
-4.301836271334196482e+01,4.646975232074898265e+00,2.811000000470289706e+01,8.244066232229745594e+01,7.066878751264108871e+01,2.699597040957969512e+02,3.776991926643680841e+01,-3.144196208351251087e+01,1.476684119983668495e+02,0.000000000000000000e+00,-2.022336237155541028e+01,-2.750190464572792237e+01,1.537019799913496456e+02,7.958919694397555133e+01,-2.423469589026394644e+00,4.714520029847216875e+01,-2.919297748887832711e+01,1.085642919069577061e+02,2.003476746532396291e+01,-8.135349112353509327e+01,5.493084064301336777e-01,8.336267627338907005e+01,1.917736090624636347e+02,5.143961512110973189e+01
-3.580004645587956702e+01,3.745034506001445607e+01,2.175500000473075701e+01,4.418382034786224821e+00,3.660876856990751094e+01,8.237460690625546533e+01,1.475985139951817970e+01,-1.470197949328009379e+01,1.343009908966147350e+02,0.000000000000000000e+00,-1.021009343021833082e+01,-5.256961950633272096e+01,1.300972535548016822e+02,4.672079034124303831e+01,-1.446349949516210209e-01,1.122227483444908636e+01,5.233627010852709205e+00,8.698719707592371719e+01,9.651378070680565191e-01,-9.000851294367228661e+01,1.077850049800954082e+02,9.230027456294907040e+01,2.832446579309799972e+02,9.478603815650444631e+01
-1.382746485706671891e+01,5.608028875809013414e+01,1.730500000476207845e+01,9.397955267560254811e+01,2.508375851939149115e+01,-2.835130004446262433e+02,4.438347312057987182e+01,2.177302314481663359e+01,-4.208589636625239336e+02,0.000000000000000000e+00,-3.969156690086445849e+01,4.674181895358968575e+01,5.869286354964767582e+01,9.611182042073764364e+01,-3.076751816659483296e+01,-8.045296569174571033e+00,4.789369329748739545e+01,1.251287509716439246e+02,-7.372764330678815270e+01,1.406211022134340638e+01,2.068969625821476939e+02,2.478147995558914261e+02,4.395829995430229360e+02,3.358094648847975350e+01
-4.882778632693474918e+01,6.742944912685462100e+01,1.743000000479106504e+01,-7.738350684466594132e+00,-1.580128683755565433e+01,3.164397822654306651e+02,-4.343192423562385329e+01,1.210801153830462873e+01,-6.111869414445223470e+01,0.000000000000000000e+00,-1.046882846383070245e+02,-5.688674060601431393e+01,-3.284704384934815380e+01,-4.171061093721652213e+01,-9.093282916858915144e+01,-5.917117840247893668e+00,4.670421687212322581e+01,5.483068073026845468e+01,-2.364180203741979724e+01,-3.014647048967875609e+00,-5.937962637544087841e+01,1.652815391103421803e+02,-9.734235027523286021e+01,-2.638964229115389060e+01
-4.157447911917459749e+01,2.412645250323528856e+01,2.788500000479044871e+01,-1.855733885441846809e+01,-4.461631884217618449e+01,-2.927979862427569628e+02,-3.582968625710419985e+01,1.791800890020718029e+01,4.074777338775800217e+01,0.000000000000000000e+00,-3.918576362770319577e+01,-6.121607820732689476e+01,1.616052680407305502e+02,-4.341023175907660203e+01,-2.985566034298840421e+01,-2.954375129846785697e+01,4.844768662580506913e+01,9.964386288314436513e+01,2.439687432407850736e+02,-1.150124824899681073e+02,8.523090203061052250e+01,3.305153756745283431e+02,-3.533204198079728826e+02,1.181441401273964829e+02
6.776820223737374249e+01,2.874341889677657846e+01,2.594500000479128232e+01,5.182687864077029616e+01,-1.775412674149731345e+02,1.587866780227623167e+02,1.628827085247575113e+01,1.513300890016168232e+01,-5.774510519856904693e+02,0.000000000000000000e+00,-6.257561611252312872e+01,-4.051784480030708835e+01,1.418189924409149398e+02,2.436037451010123256e+00,-1.922713795847147367e+01,-1.068940472679283182e+01,3.552996621593272408e+01,2.391451394150286092e+01,8.137019762060832306e+01,-9.944673159965407194e+01,2.809248724338323200e+02,-2.392543415554904129e+02,-4.309889668225993660e+02,2.232239855791955563e+02
-3.091350496723987540e+00,-9.753324035557228910e+01,-1.714499999530675467e+01,-8.391575563674793159e+01,-2.212412747262038977e+02,-9.966918851770203958e+01,2.975890176727655501e+01,3.872300309683583208e+01,-5.504762730014333556e+02,0.000000000000000000e+00,-1.840494948732691327e+01,-6.631875774478720587e+01,-1.067644839788498246e+02,6.902608373178188117e+01,-1.298355469723003353e+01,-3.122986666797853417e+01,3.938895574335037253e+01,6.769737271669058920e+00,-1.716102973333305783e+02,-1.071393553467850666e+02,2.197825047324265668e+01,-2.292997145121293840e+02,-1.840807290692026470e+02,1.158236099803485217e+02
-4.386653007433866236e+01,-6.962948163136306334e+01,-7.129999994921258022e+00,-4.035028292474761002e+01,-7.200135922506913744e+01,-1.411574314890416701e+02,-1.895447224362309058e+01,9.017299729355436000e+01,-2.129854843620159670e+02,0.000000000000000000e+00,-1.111817251839962779e+02,-1.088594333512655652e+02,-1.104383504686253730e+02,2.742129034799612555e+02,6.063307121775334707e+01,-7.692081339746198410e+01,-1.431682919647405754e+02,2.789320101088908821e+00,-1.271794974992501182e+02,4.328517591862959257e+00,-1.927358703961732900e+01,-2.940072001551296239e+02,2.785564337911913526e+02,1.841405475524313573e+01
6.654820123116071784e+01,1.834927005265788580e+02,2.055000000472929855e+01,-1.858923897270039305e+01,2.314862500268099765e+01,-3.461480591092746977e+02,1.145246318712656546e+02,5.850299993178550295e+01,-3.869377534408512815e+02,0.000000000000000000e+00,-7.802409120235820694e+01,-8.678878562367865257e+00,-1.510474550193121956e+02,2.590332689222883573e+02,6.568210441297414093e+01,-3.509228400298949424e+01,-8.852903425273173355e+01,-1.542026246254574460e+02,2.478280628269336603e+02,-5.908986002198107101e+00,2.719147632004502952e+02,-1.030387714645145252e+03,-4.836415646092954148e+02,-3.868553045487657016e+01
4.981319259913655628e+01,-3.183364312508270899e+01,4.259000000303726807e+01,-1.927891237791603984e+01,9.680363014776170871e+01,2.500810822836941938e+01,6.314495496068932567e+01,-1.072003233375713460e+00,-1.019059981454039487e+01,0.000000000000000000e+00,2.441192173778253149e+01,1.566714987010910054e+00,-1.307081079791947502e+02,-1.776776361073137593e+02,-5.211131754047711695e+01,-1.545353958996065380e+01,-1.796040708563939958e+01,-6.896265819461332569e+01,2.782088499324390227e+02,7.749251227851760859e+01,-2.251454431147195123e+02,-4.349480782742948008e+02,-1.301387245025941013e+02,-3.549936831155305299e+02
4.492765453718345725e+01,-4.557681985730604879e+02,4.504000000483899413e+01,-2.327917224953080222e+02,-4.917636658440287789e+01,3.939078309399398563e+02,-2.563989038370508400e+00,7.485299940478853387e+01,3.331471390158462782e+02,0.000000000000000000e+00,1.140447466866657180e+02,-1.458955454802500924e+02,-2.689456255538036089e+02,-2.055703440858893885e+02,-2.268299097814256271e+01,1.327567209787777891e+01,-3.817266050108111841e+01,-3.328633093903796407e+02,4.867117747172122790e+02,2.486026966587657512e+02,-1.340607880392632580e+02,-5.566442369291825898e+00,-2.147362507434245629e+02,-4.431217128519542712e+02
5.963146414004380347e+01,-1.980521726211433418e+02,-1.104499999530249710e+01,-3.478953377314453377e+01,6.733859733656461799e+01,-1.950490704497571528e+02,9.240078316582609830e+01,6.566799623958473830e+01,-1.426385561227440490e+01,0.000000000000000000e+00,1.059271646828239426e+02,6.861226956931361087e+01,-5.536073676716412137e+02,-4.001807020864620767e+02,1.225354090785719592e+02,3.772062215031101573e+01,1.044264859116726711e+02,-6.291048898277704211e+02,3.215083336684879214e+02,-1.192448653213327532e+02,-1.803083000790990980e+02,4.182210281684473330e+02,-7.758453747527767064e+01,-1.154363345580469797e+02
9.615035188159279755e+01,-1.778870081274076824e+02,-6.171999999531742986e+01,-9.797008623926033977e+01,1.823886123241144332e+02,-1.511727468708761819e+02,9.145777263104074351e+00,5.658800204281146762e+01,-1.695729871436046494e+02,0.000000000000000000e+00,1.620004638662896355e+02,-1.213189015864036833e+02,-8.227988601286019730e+02,-4.538899487954959113e+02,1.884966905053953212e+02,1.161494596721075645e+01,-1.611423971617234585e+01,-3.157245991614268519e+02,6.628712301078688824e+02,4.727073885222153393e+01,-4.943021790543645011e+02,-9.880849537037984476e+01,-3.376105188161714921e+01,7.951963418539718020e+01
7.602419502691591902e+01,-1.598333648437164527e+02,-5.861499999535123351e+01,-1.359448310193591851e+02,2.554867326777599601e+01,-1.669519398936604659e+02,2.857006581228953479e+01,3.536801048416756288e+01,2.201347820695764597e+02,0.000000000000000000e+00,1.303807550182212935e+02,-2.361426969251309913e+02,2.889392060159270272e+02,-1.832551996167309127e+01,-8.497317683527155907e+01,-2.803056986386808092e+01,1.163281444665488920e+02,1.740071749455228201e+01,1.383754521242247222e+02,-9.323373252587843751e+01,-5.885898101450486593e+02,5.064145326609967697e+02,3.541717985452786479e+02,-1.320338273655308647e+01
5.862855189614227669e+01,-2.615432752093190061e+02,-9.260499999536897064e+01,-1.029542467237205869e+02,4.065368612066027509e+01,-2.658616886994197444e+02,7.199712864308160931e+01,-2.391989515820069023e+00,1.506535700951147305e+02,0.000000000000000000e+00,-1.723216795231703813e+01,-1.164159109889635779e+01,4.099393688123163884e+02,1.811009052410018967e+02,-5.970223036805200678e+01,-5.159108824849624142e+01,1.585812125059041762e+02,-3.626128927477231514e+02,-4.324156124846315663e+01,8.924034874710571330e+01,-3.516909423030529069e+02,4.461098747918088634e+02,5.166305547384683905e+02,-6.023374415137195115e+01
2.267325390102230287e+01,-1.715636519820035915e+02,-1.119699999954228105e+02,1.288889387130364810e+02,7.873860575505381121e+01,2.054231093347690944e+02,-1.174637203963123966e+02,1.749300468092125271e+01,8.852037215560233818e+00,0.000000000000000000e+00,-2.219778403892101153e+02,4.945661619601306569e+01,3.056192201964221908e+02,-2.873236138041711456e+02,9.390660573426737301e+01,-1.921572128866337437e+00,6.170019016024258462e+01,-2.645786271316860621e+02,-5.048091210478847302e+01,5.866992979430035149e+01,-3.269254895287702425e+02,4.078317603155120992e+02,4.901975311175550587e+01,-1.016810225420997966e+02
5.190783531129057593e+01,1.041111006018776841e+01,-6.521999999535933057e+01,-2.171810615109178002e+02,3.178614293703247995e+00,-6.963641678176172434e+01,-1.119412397506314818e+02,-4.459199215389734405e+01,-1.893712131348784169e+02,0.000000000000000000e+00,8.946565985115256581e+00,-1.890213067294552118e+01,-1.319103919889805354e+02,-2.329335695778400748e+02,1.363146307531506807e+02,3.334823773843328354e+01,5.553811323811824963e+01,3.366663427059074820e+02,-5.236434333482341685e+01,8.800484264304317605e+01,-2.892084986419202437e+02,1.642337329502239527e+02,-4.604086996456574639e+02,1.414010042318108162e+02
-7.824781360981916123e+01,-6.714522873398531999e+01,-6.021999999539776383e+01,-1.865191863536137475e+02,-5.964633573215199647e+01,-6.853063421204387851e+01,-8.554555943033319920e+01,7.445801312225202651e+01,-6.613305243393820199e+00,0.000000000000000000e+00,-2.481266899403720174e+02,-1.276572875814256633e+02,-1.103676298226236128e+02,-2.411217706926391600e+02,7.176204457532918468e+01,3.852278284126079200e+01,-2.206674994963918834e+01,5.838234703439527351e+01,3.517129703710633066e+02,9.583182155214248610e+01,-4.264109483053815097e+02,-4.878078444715997719e+00,-1.483418510539003137e+02,4.807505713812265924e+01
-4.738332271156085795e+00,-1.907687257543142323e+02,-2.499999999543337381e+01,2.736690747042035241e+02,-2.067135442371986187e+01,1.108569627672013809e+02,-1.781523974899945983e+01,6.284303791923115767e+01,-2.494366470428406899e+02,0.000000000000000000e+00,-1.309983204500335319e+02,-1.052672865365786237e+02,1.382731864010323477e+02,-1.742606473368322497e+02,6.523846687401015743e+01,5.623815572552558706e+01,-3.673330166818271181e+01,-4.280262974072211364e+02,4.558504745872147623e+01,-1.490999340300523386e+02,-1.134488184102030459e+02,1.307054180934297563e+02,8.475484588653490903e+01,-4.103363564330121704e+01
6.475657060278150823e+01,-7.845768693546932582e+01,-2.839999995503701413e+00,1.851981103158446729e+01,-5.064635667798236085e+01,-2.071309702339927128e+01,6.565503536831040776e+01,-4.924695047422982697e+01,-4.764091465425482141e+01,0.000000000000000000e+00,1.107647440905704741e+02,-3.845728721006543083e+01,-8.442635795971332868e+01,-4.194693010213515549e+01,-1.558005045806662991e+01,6.212787959211417643e+01,3.159777774437773967e+00,-3.247236805806908677e+01,-3.411497202027341302e+01,1.993980909033219859e+02,3.789062974340314440e+02,3.586031073869075385e+02,-4.433691019469083585e+02,7.378220112545693610e+01
3.283639219723087166e+01,-1.283433308776613879e+00,-6.004999995601531637e+00,-7.660412605578771661e+01,-4.657135447203440037e+01,-2.863448469250354833e+02,-3.979238709594206824e+01,5.378805796699869290e+01,8.404937078382982918e+01,0.000000000000000000e+00,-3.695830617795071049e+01,1.627774825773735756e+01,5.853393253649493921e+00,-1.105392657814306290e+02,-6.622194563697908620e+01,6.695792422144261025e+01,-2.826743147553601432e+01,2.406069195028881893e+02,-2.896453990047039611e+02,-8.707126276394963327e+01,9.100320019252704640e+01,1.051679162751380971e+02,3.938486480260049234e+02,1.083666629969589223e+02
-6.556389814222455925e+01,5.156645375796339970e+00,-3.254499999535583754e+01,6.160318038517660000e+01,1.188364597883158247e+01,-7.234498389772957694e+01,9.976933000607317581e+01,-2.945693095356653757e+01,1.509597645530648720e+02,0.000000000000000000e+00,-4.792856925264787904e+00,-5.113460267055807407e+01,1.579523866923269679e+02,8.874685873362879818e+01,2.293771064105091639e+01,5.750770558138236055e+01,3.246321985193928583e+01,1.573678826846805521e+02,1.902383931539661788e+01,3.978743838095126648e+02,-7.897187281221125943e+01,4.757974557487572156e+02,-1.319523348309936637e+02,6.484976911045858117e+01
-2.015909949391654266e+01,-4.203329673409673717e+01,-5.195499999728934171e+01,-8.993667150034471547e+01,-5.311350219835587971e+00,-1.426026541461047543e+02,1.354638432404449873e+02,-1.190119283154490262e+02,-2.710210767193426129e-01,0.000000000000000000e+00,4.771479721567726706e+00,-4.018222336413848694e+01,-3.940793458221082091e+01,8.910334893052278460e+01,1.018875314890834858e+02,6.445798872021137527e+01,9.111217247401768304e+01,5.878504409367949535e+01,1.784151425332825909e+02,2.305648084100504889e+02,2.281149903658707387e+02,1.702724455595429447e+02,-7.531547660518585872e+02,1.950823713518935278e+02
1.436071632406378384e+01,-4.417904714547573519e+01,-1.788499999848699318e+01,-2.012021348560184890e+02,7.653655176540206995e+00,2.018751830220526244e+02,1.304062271642605140e+02,-2.060319114327272985e+02,-3.499468397599440550e+02,0.000000000000000000e+00,-2.028289282583758890e+01,-1.353872237575998554e+02,2.456065664753220901e+01,1.120478227765904222e+02,-2.653063694236187686e+01,8.273794836899415372e+01,1.141029018470285621e+02,-2.017563356961199261e+01,-9.461500869768850919e+01,-1.922154889909779030e+01,8.856266272306636722e+01,-1.974860323825087960e+02,1.165057271155365299e+02,2.635824414321519171e+01
1.339103821763896747e+02,3.790142893297772275e+01,3.404500000449378661e+01,2.284743991913888905e+01,3.846387660251149754e+01,-1.545492469859096047e+02,9.249301921612220667e+01,-3.168193042913637569e+01,1.906807251007311876e+01,0.000000000000000000e+00,-3.986738098373911754e+01,1.247372875402334458e+01,-3.257329493181315172e+01,1.144825620223332550e+02,1.027431312756861104e+02,4.528199057622413193e+01,-1.089486780669775641e+02,1.334061519074616911e+02,1.990111587420870478e+02,6.594200551106685282e+01,7.600417861251642648e+00,-6.982944330560430046e+01,5.845665387607088803e+01,1.361569053839477306e+02
6.273719788272864406e+01,-7.235294571830861443e+00,2.494000000455529786e+01,-4.870011203842916814e+01,3.902385606457196587e+01,-5.532972220215106063e+01,3.272259507673557266e+01,-5.071194150858282512e+01,7.124473767971873883e+01,0.000000000000000000e+00,-1.490583053665237934e+01,-8.417823615832730866e+01,-4.467190299263560860e+01,9.223116192273586478e+01,3.590279143363139269e+01,3.568965289245802808e+01,1.426294902876611914e+01,-6.063176521885075232e+01,1.033590298854323350e+02,4.987195492756840309e+01,2.236605529720316383e+02,8.453817789780441672e+01,6.671920247405702753e+01,1.061907114893204351e+02
4.458208384414067638e+00,7.001267421796987378e+01,2.444000000461604571e+01,-9.368408603755733921e+00,5.662383142008812342e+01,9.546470923211171566e+01,9.146632891235176999e+01,-3.489195628025336759e+01,9.995328079939730515e+01,0.000000000000000000e+00,4.348437018369713769e+01,-5.483538108084653828e+01,1.556322306087090226e+02,1.984352923492761533e+02,1.677636816898771599e+01,1.075131288141774775e+02,-1.059059426975125291e+02,1.843215677653016655e+02,8.683122944195648074e+01,7.795312640287477279e-01,5.739810595228116341e+01,-2.322532658678095174e+01,9.411462266404600996e+01,7.906792376608346729e+01
-3.922766203753388936e+01,7.526875431649573400e+00,2.979500000467731624e+01,1.964447382725278501e+01,5.813379922153816182e+01,-1.365046717351066548e+02,3.499358010783908668e+01,-3.096197052486184376e+01,-4.144315248490295858e+02,0.000000000000000000e+00,-1.766587245419673025e+01,-5.737784447978182101e+01,9.613503500575984617e+01,1.307581306617613848e+02,-2.950307732049856568e+01,1.075071563545635627e+02,-6.822391586631549387e+01,-1.200133092928106322e+02,8.223884003107602325e+01,-1.585139990099717622e-01,-1.898290187817880792e+01,-3.332491380883615051e+01,-1.208029743787539303e+02,1.287543127596832271e+01
-3.111271942443612915e+01,2.420677479075833194e+00,2.047500000476698290e+01,5.541546204013495469e+01,4.816877952243287098e+01,2.530840251673494663e+02,1.428886458122594405e+01,-3.586698213137126601e+01,1.325868859200129179e+02,0.000000000000000000e+00,3.676018813581487876e+01,-5.868843591555684469e+01,8.236365003303885146e+01,2.722525978674216418e+01,-4.348054879793657790e+01,5.407497884216110862e+01,-7.513422350574485620e+01,8.377164998914815897e+01,-7.343903547011477428e+01,-1.093815574810484321e+02,-3.468932163358968523e+01,3.574507792862367239e+01,9.868917247157044415e+01,2.207669076365933236e+01
-4.087129211423488329e+01,3.711944161080268856e+01,1.964000000479540020e+01,-5.514966237872637578e+01,1.813374982109939637e+01,1.425726061717652726e+01,5.398249404052848632e+01,3.128012065371325701e+00,3.484805107941130586e+02,0.000000000000000000e+00,5.022693644389158152e+01,-9.994724759324147101e+01,5.816173248034276355e+01,3.999972398379100014e+01,-8.822320641341872260e+01,4.178223990460013226e+01,-5.876867628847243452e+01,1.547747426884074606e+01,-6.655408048128762744e+01,-1.260980691373715423e+01,1.146815069400492382e+00,1.213178275568667885e+02,4.175328196548885558e+02,5.255155285411055388e+01
-4.097682169972548394e+01,5.264558771951558214e+01,1.896000000479546088e+01,7.454944625653604362e+01,4.899374817768860879e+01,-1.740276034905089375e+02,2.430414962786906941e+01,-7.426999541138508576e+00,-1.855897502242173687e+02,0.000000000000000000e+00,-4.929039736298749830e+01,9.245656661470931681e+01,1.709323351646949618e+01,1.090140237811230719e+02,-1.045194487061134510e+02,1.579667848945948361e+00,-9.288521874749129381e+00,1.477938529459845824e+02,5.083828152240064213e+01,2.466842563519570888e+02,2.323815215166205235e+02,2.699271969395442738e+02,4.455117609156031904e+02,-1.794114821798811121e+01
-1.039119724370832643e+02,4.464275120593779178e+01,3.284000000482322434e+01,-2.676918938561730599e+01,-5.031130492730606107e+01,3.503195151186804424e+02,-4.846484932170434945e+01,2.837994655604550331e+00,-1.285830727927907162e+02,0.000000000000000000e+00,-9.981784390436139631e+01,-7.691064569131310691e+01,-4.080417699622809380e+01,-1.169088430577832582e+01,-1.255749040395544824e+02,-2.660751810146904361e+01,2.671447076699810808e+01,6.914670212574391428e+01,3.601843702598196018e+01,1.799234130011165860e+02,4.851216281430556165e+00,9.316701523590542422e+01,-1.900251707932385159e+02,-7.929835156510777949e+01
-5.152009790009404355e+01,-2.751324915959721196e+01,5.421500000485148973e+01,9.676287253776500563e+01,-2.352631538066685479e+01,-1.590320153523301201e+02,-2.685870654083877440e+01,4.053799201751419901e+01,-1.705978066671430611e+02,0.000000000000000000e+00,-6.311227075110269880e+01,-1.176737075812543196e+02,2.395504610025774639e+02,-1.006098628851495249e+02,2.980699878050918983e+01,-7.677451026944906687e+01,6.064607626578249011e+01,6.646889822841367845e+01,5.204337064108165123e+01,-1.213021119952795601e+02,2.298380509159695961e+01,3.704378232888604430e+02,-5.214383795504403452e+02,7.660651829102478416e+01
8.297320176039538353e+01,5.485584938011546541e+01,1.810000000485165117e+01,2.859176142666051987e+02,-8.184627282565769235e+01,1.119848798197194384e+02,7.313991524025784940e+01,6.043798041095697471e+01,-4.356400920409490709e+02,0.000000000000000000e+00,-1.425259586320392735e+00,3.013561775541839793e+01,3.878507284748173589e+01,-2.245731740456199077e+02,1.619572241151412868e+02,-5.113516131997649694e+01,9.758787049208183362e+01,5.007856036468420484e+02,7.876114715474861327e+01,-2.586990441039719713e+02,3.701788966857284322e+02,1.553535254033847579e+01,-4.466162641550795911e+02,1.004557862133887447e+01
2.207847673802744737e+01,-5.871718710699405364e+01,-3.021999999525443314e+01,5.644587075153049227e+01,-9.238629798966344708e+01,2.278744752285062702e+01,1.121407393301557249e+02,6.877798621416498293e+01,-4.580338552250277644e+02,0.000000000000000000e+00,-4.313443042175399977e-01,-9.411029635205922261e+01,-1.372296846861910069e+02,-8.432963823154558725e+01,1.095324360990830286e+02,-2.071493020648159344e+01,9.072689563765150922e+01,6.678158733269405900e+01,-1.095168970592690982e+02,-4.980155758215412476e+01,2.160001152823521693e+02,-3.275526671595443418e+02,-2.682330605492833229e+02,2.262445775352792907e+02
2.701811739279127522e+01,-5.153794799834291496e+01,1.940500000518737522e+01,1.259411217357805128e+02,-7.434644323226844165e+01,-2.216171773156805358e+01,1.341969953014985037e+02,1.249479804108180758e+02,-1.107400881639992747e+02,0.000000000000000000e+00,-2.169214054579548190e+01,3.675769622764994438e+01,-2.107717711565485672e+02,2.576629852966348722e+02,-1.102285174180329790e+02,-7.698149512584767251e+01,-3.010365464335834673e+01,5.215761531838604697e+02,-1.738722841473812650e+02,1.158007640960317808e+01,9.773193671604410326e+01,2.080809260297609740e+02,-1.248300346410171358e+02,-1.129780839821785747e+02
5.088267862237390204e+01,1.169770181455637328e+02,6.561000000499501539e+01,3.707298451370700718e+02,3.582357112486324269e+01,-3.979241589774567842e+02,1.964573192837500244e+02,8.346797988386656186e+01,-4.229556075515453131e+02,0.000000000000000000e+00,1.187650414673702386e+02,6.942198243846466710e+01,-6.152716715965461844e+02,4.884380404522970593e+02,1.418453584043869000e+02,-2.435791832120070666e+01,-2.218280934381970724e+02,2.604043203841781065e+02,5.734785934388289661e+02,-8.104553697476580965e+01,1.978913438764691648e+02,-2.834383173533304330e+02,-5.406187822839195860e+02,-1.365313489433526328e+01
-2.260277782869424712e+01,-4.788696871532453514e+01,6.487500000278302537e+01,2.066783001677854656e+02,2.307986514961608862e+02,1.333116098193125367e+02,1.061189440599207359e+02,4.518298252202962573e+01,-2.007059341245868325e+02,0.000000000000000000e+00,5.126472181867897149e+01,3.589474829440762704e+01,5.726363265314447659e+01,1.801480426342627084e+02,2.238776825740722245e+02,2.930880011395029072e+00,-1.903556717540085401e+02,3.372720827776245187e+02,9.210755254733908259e+01,-7.377130197293357128e+01,1.641063687305356495e+02,-1.431284360750171345e+02,-3.871328439449057441e+02,-1.623298066763021552e+02
9.779749009474502941e+01,-3.689474283238032513e+02,3.040500000475183029e+01,-3.082859205365591038e+02,7.105866212934159876e+01,3.384693479309908639e+02,-9.957204083349898838e+01,1.003279883253300255e+02,4.956117416543459626e+02,0.000000000000000000e+00,5.861564466997407408e+01,-4.915488270553869654e+01,-1.494975424256754764e+02,1.558222231096639518e+02,-2.300918794304056547e+00,3.509447872855326267e+01,-2.184456890369004967e+01,-2.653809111522218700e+02,6.866063457314227492e+01,3.220346589538688704e+02,9.398725638889806078e+01,-3.868095867534732406e+02,-1.033789906149910394e+02,1.317624766439587525e+01
1.710263028044909674e+02,-2.303127795539556359e+02,-2.449999952118508961e-01,-1.621178595850330169e+02,4.903565791883616853e+00,-1.570144716236740692e+02,5.190889826383581607e+01,1.163029856872159939e+02,7.917744847964300448e+01,0.000000000000000000e+00,1.214872647326065760e+02,8.809429073186758785e+01,-4.282823440506900283e+02,1.442502648241039935e+02,1.772607149684836259e+02,7.323449182461874329e+01,1.366017429816937749e+02,-5.451655437014096606e+02,1.833552133791187089e+02,-1.206533075674977624e+02,6.289035040689793910e+00,-9.069613529865556245e+01,1.385144095309496208e+02,8.931271805003937914e+01
1.064098141959704122e+02,-1.995001708612336699e+02,-2.064499999525066087e+01,-1.177188966236186758e+02,-6.706419040818992983e+00,-2.787118304772670854e+02,-6.298896682297822736e+01,1.926679830490758718e+02,3.326863873667237925e+01,0.000000000000000000e+00,2.338030557539548226e+02,-2.576341501795390698e+01,-3.706474729222696851e+02,-2.330324452803683073e+02,2.394657386857496704e+02,7.452903486599926453e+01,-6.798910522702108494e+01,2.648993698039213314e+02,4.161425375571564018e+02,-1.515322212640336090e+02,-9.052083689178956547e+02,-7.315466507357436399e+01,-2.627600281525132573e+02,-8.659562486881111454e+01
-4.354130435140110933e+01,-8.861757164434382616e+01,-1.307149999952610244e+02,2.470690645688400764e+02,-2.294131744633485681e+01,-2.937710411698088819e+02,-2.752878468261713252e+01,1.169629909633720928e+02,2.467623608468601901e+02,0.000000000000000000e+00,1.899747452236479717e+02,-1.210877077718973425e+02,-2.557654801896130721e+02,1.917712171987889747e+02,1.258367742688262894e+02,4.448388855420074606e+01,9.139110277412068939e+00,-3.579657355803542487e+02,2.751604943455697594e+02,2.953440274733347248e+00,-1.601245067933697044e+02,-1.885741615958593229e+02,-5.646792643659476596e+01,-7.988624301867179156e+01
2.227379298639980334e+02,-2.128511685707445906e+02,-1.807149999952968074e+02,1.104178559172237755e+02,-1.797212287934456469e+02,9.052352051179821046e+01,4.775039376050163042e+01,7.056800415384694247e+01,3.426322345847951283e+02,0.000000000000000000e+00,1.905192389655182978e+02,-3.245596219367976687e+01,2.699143594671380697e+02,2.147738678872291729e+01,3.988134154840831798e+02,3.188345626825430656e+01,8.975948721153106646e+01,6.267771620845253722e+01,5.869621438325667739e+00,2.969589498106296332e+02,-2.558318964802340361e+02,5.224640623599090077e+02,1.178914093171372173e+02,6.419359323533680595e+01
3.000727832748714832e+02,-1.455659443501048145e+02,-1.370699999954223927e+02,2.549091214293912344e+02,-2.000713905692790036e+02,1.435186648276740584e+02,-2.977060600176094596e+01,2.604802262053114958e+01,1.757418822104737615e+02,0.000000000000000000e+00,4.016737471408640658e+01,1.054428360914803733e+02,-5.190397779657256905e+01,-6.417127883350795514e+01,-9.420444300608905053e+01,3.398300319754135757e+01,9.953142020774484422e+01,-9.664871857656220300e+02,1.958151582116383622e+02,2.558896799005511014e+02,-2.686709566445168775e+02,6.125386407331562850e+02,2.824868780919985625e+02,2.356945092053941835e+02
1.145475029225095511e+02,-1.467287276984202151e+02,-9.827999999545174603e+01,-2.327464009906020337e+01,-9.221139592264673013e+01,1.184496943445251986e+02,-2.687109732549184571e+01,8.658051639649391618e+00,-5.950516268951739818e+01,0.000000000000000000e+00,-5.784710415681392703e+01,6.468143644128210212e+01,6.994377193118403113e+01,-3.220692518901841481e+02,-9.936185794208697075e+01,7.275789710092796270e+01,2.074770903076783384e+02,-8.100229252522874503e+02,-2.441744907650569303e+02,1.121135506864967084e+02,1.860416757874866533e+01,-1.613432278904736705e+01,-1.084261555468878697e+02,-7.390897062691382757e+01
-1.010821407692834839e+01,-5.664708313786087501e+01,-1.242749999954039595e+02,-2.369312587227535403e+02,-5.060128036494209880e+01,3.298791111871772319e+00,-1.443914262775726911e+02,1.425306535712061518e+01,2.029607400337451679e+02,0.000000000000000000e+00,-1.638855824672165511e+02,-8.367418973655107095e+01,-4.292509431179081503e+02,1.134002759764984347e+02,1.391225134840162525e+02,3.893743419950668283e+01,1.165617045419970879e+02,-3.577010507268958008e+02,-4.596589513320685683e+01,4.914854996975531520e+01,-6.270429524413456193e+02,-4.161930585452545870e+02,-5.832656415119281945e+01,2.757252406691099509e+02
-7.542882031017248323e+01,-8.347178692289801916e+01,-7.982999999538191105e+01,2.439410207338851251e+02,1.024037041340577048e+02,8.433593211798327616e+01,-1.633879345285843385e+02,8.577305585885189032e+01,-4.553102078801774155e+01,0.000000000000000000e+00,-3.733373271889329459e+01,2.167043186867658733e+01,2.122311870939912524e+02,-9.557415640559536030e+01,3.571094448273630917e+01,6.299258213625832070e+01,5.730161823539936528e+00,-5.872680437361606209e+02,1.330086864939755742e+02,-7.637320300388596195e+01,5.171895188143669486e+01,-4.625479579286508738e+02,2.922459288272176181e+01,-5.432795299182120630e+01
-3.324019393237831466e+00,-7.659317201323689517e+01,1.105000004538960745e+00,-3.844940347171104378e+01,-4.942637214494152431e+01,6.366928520872406239e+01,4.212840160146367197e+01,-4.548691459501893775e+01,-1.398593624590981221e+02,0.000000000000000000e+00,1.827014495051600136e+02,9.581227771122259185e+01,5.415983711789585442e+01,-1.704471126254401554e+02,-4.205847965423394186e+01,8.194744015342092780e+01,1.144758106027314781e+01,-3.621423353743626876e+02,-4.241265980765535915e+01,1.517496219093872014e+02,2.425871066739149455e+02,9.310608236564681306e+01,-4.267405516371252929e+02,-3.020818156808888943e+02
-4.756910388162911119e+01,-1.840431720296479767e+01,5.380000004647987666e+00,-4.501758074238478002e+01,-3.662135717745827890e+01,-1.690579626700050540e+02,-1.571069992497245664e+02,8.895804319528627957e+01,4.940254813688108015e+01,0.000000000000000000e+00,-2.861211936562050084e+01,1.838597572576783890e+01,-1.760871160021738149e+02,-1.942146987826247653e+02,-2.856221373502404504e+01,7.549714717599186997e+01,4.426324215107634075e+01,3.273702389685028606e+02,-3.314180039825918698e+02,-5.245153188064933580e+00,1.402595354964675778e+02,-3.939714415846893303e+02,1.945181898526231805e+02,9.574211310086366211e+01
-1.134742012668614137e+02,1.405034274504173553e+01,-3.500999999590388256e+01,4.255443382931559881e+01,3.161863133666386716e+01,-2.301981440172123712e+02,-1.028239200947028706e+02,7.548046360440790359e+00,1.640124943182264587e+02,0.000000000000000000e+00,2.867354059296465252e+01,-5.096900522200493810e+01,2.612017553545651936e+02,-4.613116264880787742e-01,1.996086007082711333e+01,4.958717920084017550e+01,-8.293315748195134063e+00,6.021464052191263363e+02,-2.496828984409185637e+02,4.177980922006115065e+02,-2.685155352891301206e+01,4.241591710465085043e+02,-2.712682547357943577e+02,7.218556173167820589e+01
-2.414350525249061796e+00,-3.511500167692722130e+01,-5.779999999814204870e+01,-6.896091451252698334e+01,-3.636357065754653117e+00,-5.211804305579720875e+01,1.120088809421925191e+02,-2.201919425600509328e+02,8.853460804459784583e+01,0.000000000000000000e+00,-2.117014736837543509e+01,-1.031229039572784956e+02,-7.622551631290031082e+01,4.499143723971341657e-01,1.122135346207523554e+02,7.202222053175584904e+01,8.782791621707013974e+01,4.037085971372412700e+02,1.055916241148959500e+02,5.558955843121291451e+01,9.872195626159083304e+01,-1.016494983970109161e+02,-3.839585127258297916e+02,-1.154022713389484665e+02
-2.269963321218828511e+01,-3.918494869653418533e+01,-4.164499999838966460e+01,-3.281040881139040835e+02,3.768645785156666150e+00,1.332099508021562713e+02,8.290972768948007854e+01,-3.140619341186912266e+02,-8.596262185820043555e+01,0.000000000000000000e+00,-1.777165276058134680e+01,-1.582563737333849474e+02,-3.006185242112580625e+01,5.670787824395546295e+01,2.959639671835284602e+01,8.179715874550407761e+01,1.206763433740222382e+02,1.350731599687771904e+02,-8.012860104774282011e-01,-9.586739422245415199e+01,-8.498884940362236406e+00,-3.883687327714913522e+02,-1.966425310694428674e+02,-2.175442485879121648e+02
1.202703085902140003e+02,2.751510809243194089e+01,2.803000000455793383e+01,-6.925223760397382478e+01,1.304885511427565881e+01,-2.256396198121594523e+02,4.373379694124629680e+01,-4.064194150858114796e+01,3.056622852179359739e+01,0.000000000000000000e+00,-4.391815221968490590e+01,-4.405017697540107235e+01,-3.200825300231474557e+01,7.812851089169626562e+01,8.014148967832653625e+01,4.192158868371818414e+01,-1.146131550708336277e+02,4.660994520936424834e+01,1.404524293624206734e+02,1.430133365100105891e+01,-1.487022285946603972e+01,-1.289552009786688416e+02,-1.131626854704324003e+00,7.563057087674519607e+01
4.067229555875177738e+01,-1.161177395284938241e+00,2.047000000461820335e+01,-1.290199113944053977e+02,1.756383871706023569e+01,-1.116031350776835609e+02,1.238985875882140419e+01,-6.360696472160299919e+01,4.884921577409797067e+01,0.000000000000000000e+00,5.756846800367818595e-01,-1.132560451921088003e+02,-5.729725702994326753e+01,5.525011793602187282e+01,2.449424706473742219e+00,1.845415933772749284e+01,3.802640461536108063e+01,-5.755486091982248809e+01,-1.708989833411957093e+01,2.219308844497863831e+01,1.786503618053341711e+02,3.349532335604624933e+01,3.190206291114964188e+01,8.074860622248699826e+01
-4.177858080557395049e+00,6.278679432496198132e+01,2.282000000470884871e+01,1.323472714709686038e+01,4.308383667085107049e+01,7.116498729353206443e+01,6.372063412794556569e+01,-3.353197896621111340e+01,9.547945317660281717e+01,0.000000000000000000e+00,5.279969644733252210e+01,-6.459191129288447542e+01,1.052933380121353650e+02,1.446550687240697641e+02,2.118128090069943781e+01,6.731773820607897107e+01,-7.516441195629535343e+01,1.304072120502226255e+02,6.934261135335461290e+01,-4.190193417865629044e+01,-2.134103952643597424e+00,6.728502260642102328e+01,2.307472022771499454e+01,2.594991479266561285e+01
-4.713219839927483434e+01,-2.319774593125065731e+00,1.897500000476897952e+01,1.029621582046340222e+01,2.688882107830686152e+01,-2.092442951420241926e+01,-8.208978310164280146e+00,-6.208199057272231158e+01,-4.473342729048016508e+02,0.000000000000000000e+00,-4.380988013139729276e+01,-9.101937529352404965e+01,4.255069818134973048e+01,5.970757702652423404e+01,-3.821185833979833291e+01,6.242738332264851664e+01,-5.441546645344607924e+01,-1.720062375928364702e+02,1.284442204295624279e+01,-1.530019862581352470e+02,-6.814852202394128255e+01,-3.532723077207047169e+01,-9.886202880429965489e+01,-5.439606717937039093e+01
-2.669441267412820906e+01,-2.205595891088135474e+00,1.383500000483068249e+01,5.859424990833016267e+01,7.078797883396509505e+00,1.106304862155088813e+02,-2.042034400169771047e+01,-4.172199637597809385e+01,-4.677311548446019707e+00,0.000000000000000000e+00,5.388804329501461154e+01,-8.577868866725174257e+01,-1.073765271389066243e+02,-3.904090343926219475e+01,-8.571180430309165388e+01,5.375579497660993411e+01,-5.171744471915058483e+01,3.389932083745638636e+01,-9.598919309021759716e+01,-1.351940174690659546e+01,-1.009535012031868746e+02,2.923697532461294557e+01,4.222872804425896476e+01,-4.339905350324471556e+01
-3.985584521327061935e+01,3.917973226835056266e+01,8.255000004860834295e+00,-4.334767871001510287e+01,3.162876974318066914e+01,7.325781801499508106e+01,5.644688861892397114e+01,-1.026700481732967063e+01,4.709261367625618391e+02,0.000000000000000000e+00,6.963110265992673931e+01,-9.732640311033520675e+01,-1.402407483233834853e+02,4.346674586205398327e+01,-1.668572395454964976e+02,4.233164703253890337e+01,6.731881875008429006e+01,8.192215359956381349e+01,8.039284146219063132e+01,1.634675838488391264e+02,-1.466382738830881749e+01,6.543684798822357607e+01,3.911561841495013141e+02,1.096755406266232846e+01
-6.433547109585111912e+01,4.581808825931193496e+01,1.601500000485784270e+01,3.916254091825076245e+01,4.388373783596308897e+01,7.265903070768753480e+01,2.903921007775478458e+01,-6.550201062058474122e+01,-1.417349600314491624e+02,0.000000000000000000e+00,-3.386607655158549335e+01,1.029858830860862184e+02,-4.021504371233337594e-01,9.442461949105489794e+01,-1.291255772329210174e+02,2.924432047194517992e+01,3.839028552962506780e+00,1.713643021419034369e+02,1.404572491763825681e+01,1.985103591452012211e+02,1.556511558697151543e+02,8.425272089229341077e+01,4.276843100380476130e+02,2.407616822903051457e+01
-1.435132231248079222e+02,-4.318331803733168783e+01,3.999500000491956087e+01,-2.589616611189605777e+01,-7.614628832138784276e+01,2.685289938797131981e+02,-5.088532635606556198e+01,-7.655201378574375326e+01,-1.633500501617768634e+02,0.000000000000000000e+00,-1.514616641215841923e+02,-6.514870449100909866e+01,7.792509160839797389e+00,-6.972154286144524349e+01,-1.116150133287821689e+02,6.607109913652568167e+00,5.663413541611920721e+01,-1.521370022000830602e+02,-1.500385558649528548e+02,1.878049675118381003e+02,2.855221173193583084e+01,-4.135136251833039012e+01,-2.273092213615643402e+02,6.226715582188244724e-01
-9.807875055080126003e+01,-7.123840124484533476e+01,2.838500000488570407e+01,7.496234398199329974e+01,2.549369038409490784e+01,-1.433373572677502921e+02,-2.395402152641924243e+00,-4.392019588996017632e+00,-3.253748102452203170e+02,0.000000000000000000e+00,-7.809759556460802798e+01,-1.093467656120162559e+02,1.581610347830879562e+02,-2.975860054934387335e+02,-7.387100494946139406e+01,-4.740884348366037671e+01,5.645504122731416885e+01,-2.153674121618850563e+02,1.702933661833949941e+01,1.227557272479831951e+01,-4.798164740799332861e+01,2.634212840827469790e+02,-3.785702411255428501e+02,-1.176190591012114197e+02
-2.857338411710007264e+01,1.157623939547849972e+02,-1.564999999512077977e+01,2.051077974647071471e+02,-1.842128153814613967e+01,2.122983784521771611e+01,8.871201304475924587e+01,6.397980410993918454e+00,-1.708972115452131675e+02,0.000000000000000000e+00,1.428123751647589756e+01,9.148831942260043704e+00,8.339075064685711425e+01,-2.681292678617477918e+02,9.576160333852574524e+01,-5.314957194068850299e+01,1.129756100127474809e+02,6.701364964677190983e+02,2.335355654786810220e+01,-2.959564439267836633e-02,2.762268390077420008e+02,2.582284016994590843e+02,-1.731780673508585551e+02,-1.880102840338483645e+02
-1.535839126773984447e+02,1.217057445152506467e+01,2.400000004680534538e+00,8.392111235851844597e-01,1.996866639322276527e+01,2.916311128838818263e+02,1.467952777039329249e+02,3.551297196956983271e+01,-1.413648727620270620e+02,0.000000000000000000e+00,-9.356976787491183245e+01,-1.394707940015446646e+01,2.104818721966795749e+02,-1.181480134975647047e+02,4.373479853197238043e+01,-1.907069263048919794e+01,7.102230070354347902e+01,1.474744438557929413e+02,9.231838887003617344e+01,-3.816451904462903855e+01,1.227535347348199366e+02,-2.738674466304756265e+02,-1.993473462370016307e+02,-1.644710109883078815e+02
8.111046419968877785e+01,-1.103869483905516375e+02,1.113450000055235307e+02,-2.797037161842808217e+01,2.286835346143823244e+02,1.340700997764512294e+02,1.154175643992533793e+02,9.377296352815123726e+01,-2.539310658849510958e+02,0.000000000000000000e+00,5.527421579369894289e+01,2.516885354421501404e+02,1.721295057029523434e+02,8.282502544301794956e+01,-4.663784228824131617e+01,-1.114569650540748853e+02,7.756539374798452968e+01,6.754080114586681702e+02,-4.376299431103919346e+02,-1.109609074537518048e+01,9.383001927416489707e+01,9.193581481078048512e+01,-1.472564218404771736e+02,-4.857916077960369421e+02
7.774044348368606450e+01,1.257512034868444744e+02,1.426300000048945549e+02,2.810893892574989650e+02,-7.120644624283774249e+01,7.354438656082099612e+01,2.310950760529932211e+02,1.169979666933269442e+02,-8.594584963113995002e+01,0.000000000000000000e+00,2.000147312220063611e+02,8.598394487971498279e+01,-2.243200805567401801e+02,3.550147021419236353e+02,2.038341866189174709e+02,-1.106281541241100115e+02,-1.027249186689451363e+02,4.413910653837387486e+02,-2.093302708813633330e+02,-4.325551748699372752e+02,3.415994036146739177e+02,1.690136489401213282e+01,-8.388903966131969980e+01,1.639566979556254296e+02
-2.463429058642172365e+01,-1.078315361756988722e+02,1.083700000026241668e+02,3.308425105853140735e+02,4.987863749887974762e+01,7.321048099436565337e+01,6.996695822819096122e+01,1.299729693315435668e+02,-2.533393370943694833e+02,0.000000000000000000e+00,1.465388341163401549e+02,1.583226070125714386e+02,1.225796238396499120e+02,3.353634773346314546e+02,2.451498136007625988e+02,-5.637936380910932144e+01,-1.962863500024135419e+02,1.412871349448057003e+02,-1.590148052416331268e+02,-3.790818905718768974e+02,4.252237560697494132e+02,5.373238278185116457e+01,-6.810809616307949454e+01,-1.382920098079756599e+02
8.103205138085337467e+01,-2.792085676886611623e+02,3.628500000485398402e+01,1.873857641282961310e+02,-4.509133840736098620e+01,-1.485383187472562554e+02,-1.584247978532840762e+02,1.734529988777094047e+02,1.666088249769986760e+02,0.000000000000000000e+00,4.746156092098353696e+01,3.055248927606259812e+01,5.388336576991799376e+01,2.202694553641670723e+02,-6.867014544993008229e+00,-2.698545655545802546e+01,6.309579538082515704e+00,-1.987952060730525972e+01,-1.013408576785314722e+03,8.984742502823050359e+01,1.453640937262589432e+02,-2.951682055350764813e+02,-1.002931399877413980e+02,3.776562192369834747e+01
9.654212431196758359e+01,-7.271861402022099696e+01,-2.424499999520177340e+01,-5.382948607422881082e+01,8.560855019925206477e+01,-2.261666152085834653e+02,9.112101893332042124e+00,1.153880194554141383e+02,3.483490917108064764e+02,0.000000000000000000e+00,8.296633978480596738e+01,1.494074594479013456e+02,-5.484904604969270849e+02,2.682908047550506012e+02,-3.035443636250575494e+01,4.749887655065398917e+01,-2.374883748231068381e+01,-1.575053982048485182e+02,1.024503689376224713e+02,-6.863892631924704801e+01,2.876028710093490872e+02,-1.034940651797758022e+02,-1.527955808751875111e+02,-1.196267601498603028e+02
1.459060111828918025e+02,-1.260036521073581639e+02,-3.342499999529633214e+01,-2.046058753831877652e+01,-8.153642778744116981e+01,-4.376899679424101741e+00,-7.552248345612503577e+00,8.461804847441608501e+01,2.222217373085869383e+02,0.000000000000000000e+00,2.626359115230018801e+02,-5.354765041114189827e+00,2.802293344062830016e+01,1.669052823064603075e+01,-6.915874953493995747e+01,3.418926834141606719e+01,-2.782003198949206890e+00,1.259784900132409433e+02,2.993242893673310618e+02,-1.150370017848602089e+02,-1.386340096297980153e+02,2.123705086953920897e+02,-4.413626626960478205e+01,-5.546483439338670678e+02
-1.950217240644453565e+00,-1.138300031530873611e+02,-1.444249999952513122e+02,-8.770324592941390662e+00,-1.066713442053985830e+02,2.228281093362432159e+02,-1.243231453052096214e+02,5.949806905214244779e+01,1.757220423256279318e+01,0.000000000000000000e+00,1.700364295520182054e+02,-2.572186568741652124e+01,-3.413735171016524532e+02,5.508987461693967589e+02,-6.270007206224583030e+01,4.905860313647984583e+01,-3.171505698980772792e+01,-2.124288715891308357e+02,4.696842039958159631e+01,-2.476245766809822868e+01,-3.650007850176045849e+02,-1.509256047230907143e+02,1.673761086664856350e+02,-4.055205060477513257e+01
5.264829239241048242e+01,-1.280569445136454831e+01,-2.026049999952658709e+02,2.862070017195802620e+02,-2.050012333250840300e+02,5.991091666610520861e+02,-1.154153342543430938e+02,3.790806113785093601e+01,7.274093799181388249e+02,0.000000000000000000e+00,2.334650358835908150e+02,2.026228507072726757e+02,-1.140986841920038586e+02,1.635798526598779006e+02,8.412439576474690739e+01,9.429267616241595817e+01,-4.235998579900688554e+01,-1.599937355693154188e+02,2.999033432061492022e+02,6.331919495891063434e+02,-4.723229965734943789e+02,2.235764139521337199e+02,1.508252419839125764e+02,-1.786820038402109390e+02
3.285925199918353314e+02,1.124676339987763107e+01,-1.974899999953298675e+02,5.718425310130521666e+02,-1.307263871991669930e+02,2.338895957577551883e+02,-2.537356861674123820e+02,-3.528689084934206477e+01,5.545469351667647970e+02,0.000000000000000000e+00,1.585880444812397059e+02,2.038340315408637764e+02,-5.730111193463022090e+01,-4.913655267638973356e+01,2.671459078432066008e+02,1.253822353991069321e+02,-2.248675365401568271e+01,2.603615375612741900e+02,-2.918615754692518180e+02,5.312816321730808795e+02,-3.200270393204746711e+02,-4.610692154619890459e+01,2.505237117744108843e+02,-8.486119875940977408e+01
2.520771125546547751e+02,-1.089598223380740620e+02,-1.497899999954164798e+02,2.013426232890743393e+02,-1.693913787148441088e+02,3.452712052929600759e+02,-1.148576238595519783e+02,-5.952685444300768580e+01,2.348774181542636939e+02,0.000000000000000000e+00,-7.646797455270507271e+01,6.702029324300976754e+00,2.905261038884298728e+02,-2.148657085454987623e+02,3.598803419452057994e+01,1.421568254445755315e+02,1.877294717706865583e+02,-3.409094027333334793e+02,-1.365495516926319510e+02,3.589066565405210554e+02,3.896601788911969777e+01,7.493630387847213115e+01,2.106185486410934686e+02,-3.517579287239035466e+02
-2.465341755863293116e+01,-1.382198300365257637e+01,-1.513849999955033354e+02,-2.695158373301168808e+02,-1.986712888062493221e+02,-1.308064229613132454e+02,-3.413094654602509763e+02,4.360806166491872915e+01,3.809089119794732028e+02,0.000000000000000000e+00,-1.262596534636415413e+02,4.725475400387125546e+01,3.724665565646731835e+01,-3.908060305059043316e+01,3.544055511824647198e+01,7.083176572312297026e+01,1.512645003662742909e+02,-2.093028465473025506e+02,2.645928305090469621e+02,1.194846770432120877e+02,-3.883870946122430610e+02,7.566634455359124445e+01,-1.379873324428266415e+02,-5.036988575261491405e+02
