-1.649032776195940997e+01,-1.684392403379705883e+01,-8.454238242063773612e+00,-4.230636876137873514e+01,-2.745962101766070518e+01,-2.749452207671049564e+01,-2.292727515611276345e+01,-1.232102080680942180e+01,-2.832387559171552383e+01,0.000000000000000000e+00,-2.154159105392057327e+01,-2.270593972095487345e+01,-2.904295599327142696e+01,-3.287680691022000445e+01,-2.936915030896900802e+01,-5.771260823926744443e+00,-2.228314594586887765e+01,-3.373922873806147038e+01,-2.812183177153983493e+01,-2.956435938448895584e+01,-2.683307989671490290e+01,-3.063315714478175167e+01,-2.367787565904926694e+01,-2.572099896847884182e+01,-2.123345541305682360e+01
4.916834821336597550e+00,1.345815071619684167e+00,1.846148871665866942e+00,6.896881733803663650e+00,3.649783770226497470e+00,-3.720787217932856272e+00,6.883775634235574259e+00,1.695465241972117232e-01,3.265912821690613033e+00,0.000000000000000000e+00,-4.102956715459107784e+00,4.399359178312267638e+00,2.632260812055081001e+00,6.654362311405903618e+00,6.714918791595000158e+00,2.520665945389765294e+00,-2.485306673688533197e-01,1.432237247093032906e+01,1.436102506509831933e+01,7.987143319018584542e+00,1.939243420521933814e+01,-6.012476563222515225e+00,-4.634810003754494256e-01,5.937172406037928063e+00,4.059990614248708773e+00
4.229315056330436029e+00,5.950589038574035650e-01,1.370142503764998576e+00,5.488875954930539258e+00,2.986344555537366219e+00,9.952238142678143662e-01,4.089654868161452406e+00,3.149812362057390763e-02,3.909350253000640762e+00,0.000000000000000000e+00,4.318600643398151084e-01,2.383989558717756196e+00,4.472644485536378944e+00,6.293018889380780578e+00,5.717084346767276060e+00,7.758292230812153800e-01,3.204526470813309658e+00,8.838750383167027991e+00,1.146028631996255243e+01,6.810500261505122666e+00,5.317807494349341191e+00,4.779669884870227037e+00,1.637577949501404229e+00,7.917605835909880874e+00,3.988516958551327818e+00
1.724969300461981270e+00,1.994823261109712975e+00,1.300097711113846755e+00,5.037020851063191529e+00,3.066338769020784838e+00,2.677599414433939007e+00,3.647180070097438609e+00,-3.156734645536440342e-01,3.623201887615655536e+00,0.000000000000000000e+00,3.906929915462322156e-01,1.931159678571677807e+00,6.876611273511208822e+00,7.542079012812716421e+00,3.797018146505579672e+00,1.389818997732998218e+00,3.917461393771481948e+00,1.217513970737506845e+01,7.769090554521334013e+00,5.867789549413763517e+00,9.166388108848583016e+00,3.970471366164626037e+00,3.286476023324002682e+00,5.866335086925004383e+00,4.899200103174646159e+00
-9.203187517847283283e-02,2.483544354977854418e+00,1.368946704583034357e+00,9.087603555844601999e+00,4.053885071674173446e+00,2.761689795652996438e+00,4.700840096613741359e+00,9.605689441611552359e-01,8.636495001665913662e+00,0.000000000000000000e+00,1.617767003187968178e-01,3.570544198246556444e+00,7.516908465176598497e+00,7.604075973316480663e+00,3.170685403626471111e+00,2.085578429544858725e+00,3.095690860380812648e+00,7.145762690459613431e+00,9.124070051484215682e+00,5.700223776291029054e+00,5.159673077988058409e-01,5.081495915999314938e+00,4.100201580339876806e+00,4.478242435176639447e+00,5.371041252705538227e+00
-1.745465888962719758e-01,5.205597938189719942e-01,1.377640753867752865e+00,8.888161999884543363e+00,3.396867773007404168e+00,4.117623252461608097e+00,3.176568549759844817e+00,4.092951207136237279e-01,6.193585735407927118e+00,0.000000000000000000e+00,-9.860912077194536884e-01,2.288342726568218133e+00,6.364069458385535505e+00,5.990757940369345391e+00,1.753927035479668550e+00,3.067057058091885668e+00,2.336791208558532063e+00,5.385080729889114792e+00,6.366286865717502685e+00,3.746273288200173912e+00,-5.979218043164291618e-01,3.990420356755419729e+00,3.343181636765468756e+00,-3.256631347887785632e-01,1.835153877617872853e+00
1.308383836316932558e-01,1.272052603136758497e+00,9.915494147131012070e-01,1.024088504357019325e+01,2.141553190791419592e+00,4.396518691287937486e+00,2.257866555649777673e+00,5.422895031571161040e-01,6.194384779928213014e+00,0.000000000000000000e+00,7.657350709657309018e-01,2.138277503363118281e+00,7.102098514706218779e+00,4.687114418197196208e+00,1.432884365817324923e+00,2.448639115882939254e+00,1.624656486187532334e+00,4.379583620194583027e+00,4.386749382172929757e+00,2.138552265103508265e+00,-1.068610782878529619e+00,5.997412619367434417e+00,2.771730261271071694e+00,-3.214703529056768705e+00,2.567948745265675292e+00
-3.044612977264954945e-01,2.579414746941485426e+00,8.399332381677373505e-01,9.335299954324488780e+00,1.740906961583526869e+00,5.866610152267027090e+00,3.451360649410096570e+00,5.159050251623198413e-01,6.496478168477746173e+00,0.000000000000000000e+00,-6.169192239655074683e-01,4.727559523335152392e+00,6.271665758326748552e+00,3.236970659867086653e+00,1.686857541748412403e+00,1.978792419027839866e+00,1.263186627531297734e+00,8.601173789419489069e+00,2.629993921580752403e+00,1.961843756902917679e+00,4.053128749515957807e+00,1.057500013659450566e+01,4.356437671383221577e+00,-2.412908927162463524e+00,2.708806780212967169e+00
-1.569539445530056532e-01,2.386018050886026032e+00,6.054163142359116900e-01,8.092155738970244983e+00,1.043617907734230910e+00,5.593018833100913412e+00,2.199424339030600084e+00,1.923673759181996901e-01,8.562497316628775224e+00,0.000000000000000000e+00,-2.521191219404503858e+00,5.221499473272401382e+00,4.902585411821502426e+00,3.153332501329585202e+00,1.095708088841957473e+00,1.385919393167748925e+00,7.546122066550484675e-01,1.240037485096940673e+00,2.320507763339222151e+00,1.088576240428917596e-01,5.756643845088252220e+00,8.004920309286930546e+00,4.543411775662256957e+00,-1.029220381873932499e+00,1.891677880708572346e+00
-2.424881211589843821e-01,1.454859519867832462e+00,6.017135995229155876e-01,6.334677497009366220e+00,4.526542807781214900e-02,3.215165406273758908e+00,2.792342330813438522e+00,2.422462798685187102e-01,4.218058358375938788e+00,0.000000000000000000e+00,-3.848987705612227916e+00,2.622206692453058707e+00,3.911434344181060396e+00,2.621191003691992982e+00,3.452159118082224198e-01,3.139312222448431000e-01,9.225654518612323995e-01,3.715762790814234773e+00,2.179999455744941361e+00,1.003094134131808257e+00,8.936293881779905135e+00,5.187318964381439024e+00,-1.604799751923869033e+00,1.069142872554052826e+00,1.315714817458048191e+00
-5.486383239574144088e-01,9.906929542308374748e-01,-2.711118978976930285e-02,2.602130365326924988e+00,-3.717683729369964940e-01,4.129273809081835722e+00,-4.155449941621103815e-01,-3.711344269253042949e-01,-7.810780799623775472e+00,0.000000000000000000e+00,-4.667430773658841403e+00,1.434083332607362093e+00,2.663736941527679036e+00,1.441811510355077042e+00,-2.854741740051535692e-01,1.701208620117775627e-01,2.276747279355756381e-01,-3.795855659654769010e+00,-5.288799535630486770e-02,-1.435219893625557352e+00,1.759270822254753286e+00,1.136217441411463636e+00,-5.248002901250808927e-01,-9.749360900657026985e-01,-3.553463232719438203e-01
-2.038011694594538681e-01,5.879254243379036238e-01,1.190286987029056665e-01,1.644545381352719549e+00,-1.152189266164585391e+00,-1.353081227863251357e+00,-6.211037842068242720e-02,1.649470018107871416e-01,-2.028623331621417059e+00,0.000000000000000000e+00,-3.118826284680831673e+00,4.345957671158209301e+00,2.318083731157622118e+00,-1.559959452548326797e-01,-1.229947635095596015e+00,-1.091936873625686921e+00,1.248321195200304545e-01,-2.485352633325575322e+00,-1.700303966993086169e+00,2.058901881296421266e+00,4.451482467086078643e+00,4.975695044252749888e+00,3.071120808111167388e+00,3.333979968935283367e-01,-8.089617118921026417e-01
-2.031630523586093473e-02,5.850949144610067404e-02,3.204053162176214581e-02,-3.163744648238362434e+00,-1.381078741237196317e+00,-3.255822908807709748e+00,-9.118700834925973497e-01,-1.386713314062341107e+00,4.229790019660965017e-01,0.000000000000000000e+00,-2.422022019536492543e+00,3.478190133331280798e+00,1.628059457462928572e+00,-6.641209755933504821e-01,-7.210811684230750140e-01,-2.138934394166217334e+00,6.136486584848339643e-01,-4.791416690171383053e+00,-3.901583426003894850e+00,5.063787628078702419e+00,5.127374713649802906e+00,-5.165926586987744429e+00,-3.656721269194756818e+00,8.087811776791572482e-01,-1.358773350860839724e+00
5.510740058992357610e-02,6.794974014090076064e-01,-6.621535136890387141e-02,-2.743809801729486519e+00,-8.966271716492714150e-01,-4.551741706011702138e-01,9.852970368527871337e-01,-2.395941612784752817e+00,-8.797428838135358253e-01,0.000000000000000000e+00,-3.939293212640648356e+00,2.023633262720277770e+00,1.678327039247732966e+00,-1.963497423415862420e+00,1.068231861547556782e+00,-4.195144064526403760e+00,2.993442658088465436e-01,-2.307339797163592277e+00,-2.824472868682315507e+00,2.024299274049769615e+00,2.702561932614743867e+00,-1.149231047380492532e+00,-3.422408190198862887e-01,5.072995543335044877e-01,-1.423854628248085286e+00
-3.492965205188367506e-01,7.181080577405447585e-01,3.080579352131290749e-01,-4.235039814548638759e+00,-1.472206475702346751e+00,1.488650217603557424e+00,-2.528130608814792291e-02,-7.520343248247834955e-01,3.312023709679459138e+00,0.000000000000000000e+00,-3.581682588491048591e+00,2.024060923733448814e+00,1.633866658128086957e+00,-3.644151074245413735e+00,-2.523866132280592756e-01,-4.983884299824702602e+00,-5.308766884398963271e-01,3.318883845632693674e+00,-2.648997683099173717e+00,-3.479561532489722886e+00,-4.088351893168812978e+00,4.226488902935106928e+00,-6.959139457651442484e+00,2.063589846751332779e-01,-3.541222240302445812e+00
-8.836728485327596250e-01,-6.695760933085538325e-01,3.702461315055575741e-01,-1.215038223236056592e+00,-2.201974963527823625e+00,2.315793192264649747e+00,-1.284457313045730853e+00,-1.451680405224406556e+00,1.763369203409080654e+00,0.000000000000000000e+00,-3.639987333158160698e+00,7.081079152198457294e-01,3.110422862330695093e-01,-3.241697490204809462e+00,-1.897974833083235113e+00,-4.535780402347991291e+00,-5.835749523536065686e-01,8.290920972469532302e+00,-2.007694992131664691e+00,-5.945840439296332214e+00,-1.134629547172066744e+01,1.551342399028103614e-01,-1.184706560463535618e+00,9.186007992194294980e-01,-3.640741785198399416e+00
-1.124053389852629037e+00,-3.164868424775493794e-01,-2.250266956890853709e-01,-8.814633703750134330e+00,-2.161562230072582746e+00,4.530961029099277226e+00,-4.863536211531833686e+00,-2.663567821677534031e+00,-2.816121754172995484e+00,0.000000000000000000e+00,-4.634898846360384184e+00,-1.337393608720072402e+00,-5.315416642753472143e-01,-4.583682989551809861e+00,-1.981079422744948415e+00,-3.482009219020429924e+00,-3.355774031249530442e-01,-9.501788980764388270e+00,-1.530869767784440061e+00,-5.869058107094637933e+00,-4.877628280516813852e+00,-7.254144171698291288e+00,-1.354694542859892437e+00,1.753517356732119392e+00,-4.463232839640395078e+00
-1.240100893859749531e+00,6.369012710640199471e-01,-2.762000302993444789e-01,-8.176237318412310273e+00,-2.036359370818475512e+00,-6.509847666934454047e+00,-4.981541232568905464e+00,-2.002699965200069876e+00,-3.995976083634101172e+00,0.000000000000000000e+00,-4.947699531180010268e+00,-2.363779429465428628e+00,-9.248737415215597668e-01,-7.343988684756284968e+00,-1.087987952332092334e+00,-2.861666246317311479e+00,-2.265069074723554676e-01,-1.009208905733285455e+01,1.593222806494028365e+00,-3.738254648539962144e+00,-4.667363424622775980e+00,-8.794033290784856405e+00,-6.580739475316869758e+00,6.315579329964643440e-01,-4.476063966277253670e+00
-1.126654733339889303e+00,-1.846244642693891380e-01,-3.087938345202210222e-01,-6.587526321387080053e+00,-1.985546172035514090e+00,-1.865916701065573502e+00,-6.551115951870068344e+00,-3.928167735385081460e+00,-5.619533933882484789e+00,0.000000000000000000e+00,-5.128098531052224907e+00,-2.498084457252282231e+00,-2.752465011795297567e+00,-5.890511439081461020e+00,5.193604581312101509e-02,-2.301980293408765643e+00,2.277831056936016063e-01,-1.497819857568640955e+01,4.888563618447152592e-01,-2.395643469592466879e+00,-3.714369763508951205e+00,-7.597245751649311707e+00,-3.885218227864541074e+00,-6.914980797171279558e-01,-5.181480044704930954e+00
-8.274054863044497665e-01,-2.000573588955538273e+00,-2.148123056894842287e-01,-3.239322358730825524e+00,-3.245894642774762584e+00,-5.782449100546939391e+00,-6.698119762971185942e+00,-3.184235777167984338e+00,-6.195343101890053994e+00,0.000000000000000000e+00,-5.903990184687202714e+00,-2.722683439117749238e+00,-2.523894210545081229e+00,-2.703023566238496933e+00,-1.776079762280442731e+00,-1.902213505803471483e+00,8.076732448906915884e-01,-4.831371034643260343e-01,-8.044207616685346007e-01,-3.139049475003782952e+00,-1.177347621000016531e+01,-7.115361289661346511e+00,-3.904346483404074419e+00,-3.263095257201288568e+00,-6.012582696680323302e+00
-7.057074539093635135e-01,-2.614771594560262091e+00,-1.301793867293594142e-01,-2.975341052391676566e+00,-2.456480685468414915e+00,-3.967323263061752314e+00,-5.830268890275785765e+00,-9.088287488832927918e-01,-3.635731810698171973e+00,0.000000000000000000e+00,-2.900313239633891094e+00,-5.797700139902911332e+00,-7.028102382654495550e-02,-1.265343837021100315e+00,-1.700824056727377132e+00,-1.120623676111899503e+00,1.012702950590985029e+00,1.283516691261490905e+01,-3.830081826992405292e-01,-3.377591331916289352e+00,-4.982705217927932750e+00,-5.762600516318637567e+00,-1.015245773562845288e+00,-3.540761159490590781e+00,-5.513541164012942808e+00
-5.034509739530746986e-01,-2.750524622119473239e+00,-5.568147198007882687e-02,-6.471025070984119942e+00,-2.674949610482680651e+00,-3.075006592922006288e+00,-4.435552526743665069e+00,1.150538348540863787e+00,-4.276271285440111036e+00,0.000000000000000000e+00,-3.887776037812409768e+00,-8.033082956986291379e+00,1.108992154866007107e+00,-3.191486587865098312e-01,-1.498584801827169688e+00,-5.219182983352015359e-01,9.783960765940135085e-01,-6.064883458192340093e+00,-5.415383092389160907e-02,-9.459595730159453097e+00,-3.528173625758447507e+00,-4.419897370791399105e+00,1.219563228545636147e+00,5.048407957484226001e-03,-5.305628050298035525e+00
-5.093463103917363899e-01,-2.330670446967269438e+00,5.945334596136583188e-02,-3.404676785367981129e+00,-2.743468249611171306e+00,-2.127174839780089588e+00,-3.383819728173019570e+00,3.659308952835532924e+00,-5.826837373048276980e+00,0.000000000000000000e+00,-4.406151409303760147e+00,-8.532426528701041235e+00,-2.605204258976111298e+00,-1.267912004306853246e+00,-1.551467060166276779e+00,-8.907361388975647276e-02,1.390956547210166150e+00,-1.589261112620025962e+01,3.116158641426616249e+00,-8.700635111384608322e+00,-2.764891661942902701e+00,-2.857647512383910016e+00,2.958431326523295990e+00,2.289596515772141405e+00,-5.489847333347432468e+00
2.569559938784122047e-02,-1.562821794195513148e+00,-1.201006149682530277e-01,1.932912447210967999e+00,-1.531277548623187545e+00,-5.720614784468767144e-01,7.468404104067298821e-01,1.427620318083096640e+00,-1.879358972602890088e+00,0.000000000000000000e+00,-3.544115856585436930e+00,-6.427251125109475716e+00,-1.655802574001382199e+00,-1.075001760501369530e+00,-5.856916322671665842e-01,8.622996425942591747e-01,2.154262439237093929e+00,-9.301422246276498385e+00,7.263329797132209720e+00,-9.510159687353711533e+00,-4.750644934787736640e-01,4.327024634983276385e+00,-2.296528654004177383e+00,1.483967787620214640e+00,-6.521284791117547996e+00
8.818031177417905431e-01,-1.527087791598540079e-01,-3.910626893833157314e-01,3.215892217857956314e+00,1.633011810557381815e-01,1.257109354253591826e+00,1.295964691229144206e-01,-9.026627939732510819e-02,2.024980260888797901e+00,0.000000000000000000e+00,-3.828990013338957610e+00,-4.653335289213190173e-01,-9.307996065698034283e-01,4.839937556300437094e-01,1.183705402935103068e+00,2.231189682816337339e+00,3.135529022879997907e+00,-6.516068484790948467e+00,1.569363126399711650e+00,-1.145037425718374990e+01,-4.774521306760913575e+00,3.566805127157864685e+00,8.844590179417918252e-01,2.061928841152195879e+00,-4.250854398953817892e+00
1.175979832519246093e+00,7.970796238953501422e-01,-6.054344717848584301e-01,1.570859755952652259e+00,4.418025281361874224e-01,1.569255844174445746e+00,2.903286898855468756e+00,3.259898079833303264e+00,2.066146975835115640e+00,0.000000000000000000e+00,-4.789233410012053938e+00,1.314213121509413051e+00,4.094381194032617466e-02,3.610322647230217452e-01,3.838362945268255499e-01,2.663000121502955064e+00,4.162615501197286072e+00,-1.928841217330983326e+01,-6.629435362648668395e+00,-1.384693486655253025e+01,-4.826532434150140993e+00,-3.683968218752457613e+00,5.741882010884272525e+00,8.207347772099877758e-01,-1.906264404197204776e+00
1.772152005861929780e+00,-1.155334659202817527e+00,-8.680570516943719728e-01,6.794279537679664749e+00,6.687113397854654862e-01,-5.079286953706979579e-01,7.131981636276224279e+00,-2.750426769808863803e+00,5.329681948215795551e+00,0.000000000000000000e+00,-4.046858525704776000e+00,-1.528850426330958800e+00,9.301219647245297928e-01,1.809542082030849652e+00,4.786025408444214424e-01,2.773096701144289522e+00,4.466264472650157913e+00,-1.774846583053388471e+01,-7.911710771510132023e-01,-5.042731167981354012e+00,-5.470064779276290423e+00,-4.795894646713783516e+00,1.340059146482989227e+01,-1.738996478634734055e+00,3.363451278156693869e-01
2.442397309326675980e+00,-4.388171000473891081e-01,-1.771814381505990355e+00,8.270020111638610061e+00,1.629529200544208356e+00,7.619900290520632780e+00,7.905938410013903628e+00,-3.643609517388705088e-01,-8.088946150079987518e-01,0.000000000000000000e+00,-2.749125690960212864e+00,-1.420217821002644598e+00,7.832006686117845007e-01,4.695854442678282226e+00,4.890486924986019446e+00,3.455747775087616880e+00,5.026660317405815981e+00,-1.031811779313120958e+00,-7.047562436501678462e+00,-3.632369123681890688e+00,-5.556159459436715409e+00,-1.064277554057683339e+01,8.228577583586330846e+00,-5.181456074886304997e+00,1.851722112813321885e+00
2.291376562377506865e+00,9.788571804122601083e-01,-1.217704807535410660e+00,7.720885523243251392e+00,2.209798768181238771e+00,4.373373339679976546e+00,4.368797880734907046e+00,2.580465033780973361e+00,-1.361381199089055904e+01,0.000000000000000000e+00,-1.914928118522364775e+00,-1.536405596748088520e+00,3.956052899548190727e+00,5.490226804336971966e+00,-4.091176530254115207e+00,3.563926700351947030e+00,5.665459671480295611e+00,3.768071422475674837e+00,-2.074659155656670606e+01,4.191319141244120416e+00,-4.779378267739652131e+00,-1.345209481589007972e+01,5.663816087075279171e+00,-1.328892853721603595e+00,2.152888442379021772e+00
4.602054467354903977e+00,1.371737552862788867e+00,1.783498755086875276e+00,5.499512370134380213e+00,2.845743387998013851e+00,-4.554739339715466961e+00,5.702705509181383192e+00,-2.039290691730004934e-01,3.083101559839387384e+00,0.000000000000000000e+00,-2.922632242260993163e+00,2.924125771368478510e+00,2.154934074437309999e+00,5.830232817540324852e+00,5.920531184769651567e+00,2.122550808912439635e+00,-9.048484852296057035e-01,1.216090025940573227e+01,1.284142770956676216e+01,6.430216252581473668e+00,1.344819918056891339e+01,-5.323632631175239993e+00,2.904244398745566696e-02,5.282975757187912791e+00,3.375133055025109297e+00
3.546482894026875776e+00,3.822486074867456618e-01,1.302309190157218577e+00,4.167096134486538261e+00,2.213267947226940979e+00,-1.587296721926024223e-01,3.255106338598575899e+00,-4.591482354439033742e-01,3.134581748017878589e+00,0.000000000000000000e+00,1.185223689269427755e-01,9.413128785229274431e-01,3.543400014840181633e+00,5.815490021676054333e+00,4.776884037243394943e+00,7.517611236711182476e-01,2.566231532869682308e+00,3.807167154272206755e+00,9.166962531121836122e+00,5.648160424080834296e+00,4.716076688279740026e+00,3.441998738773276667e+00,2.022983383732203322e+00,7.035681635843074488e+00,3.516144927912985274e+00
1.232722427223637673e+00,2.142410139378315925e+00,1.268484055981429437e+00,3.813945175114088926e+00,2.744938460529268820e+00,1.517370754792456644e+00,3.686101708003716393e+00,-6.991694722856314215e-01,3.167833726004603445e+00,0.000000000000000000e+00,2.367853344193568965e-01,1.102971012820944230e+00,6.274418688789508813e+00,7.889169998093274572e+00,2.625603342772234949e+00,1.475651148912988431e+00,2.947983981645112550e+00,9.040599456751422736e+00,6.786769176979191798e+00,4.989134205317198756e+00,8.215134697612406001e+00,3.474321650381994253e+00,3.721395325955457967e+00,4.778526481623693201e+00,4.842988042487254674e+00
-4.539877431632265425e-01,2.128438521868621258e+00,1.310613464496840130e+00,7.639686793398197118e+00,3.532186284968096501e+00,1.705667828266682617e+00,4.194959377953939139e+00,1.560519907920333849e-01,4.452507958624136286e+00,0.000000000000000000e+00,-4.159745569043730995e-02,2.037915072786023796e+00,5.697944495370643736e+00,5.933250571525525707e+00,1.879836365817641131e+00,3.002139390426044940e+00,2.068419790952146453e+00,1.886429419382024131e+00,7.444457465455323941e+00,4.718827767668189566e+00,-1.808253892560432174e-01,4.638335011462281443e+00,3.656049386004911916e+00,3.336438257163963694e+00,4.630731681381490716e+00
-8.909681077731071985e-01,3.404220632586945072e-01,1.218412967841646211e+00,6.586755846122446911e+00,2.864923164758299112e+00,3.632243114966552167e+00,2.255989723335782848e+00,-3.972633845432104183e-01,1.839847373665717045e+00,0.000000000000000000e+00,-7.947379120714581635e-01,9.913414873759374135e-01,5.411953906040194440e+00,3.346538249603407955e+00,1.747244273833738482e-01,3.571201020379766167e+00,-3.269035058806606941e-01,4.983044195837828205e+00,3.585170842576230310e+00,3.487019314721433005e+00,-1.056029827184782194e-01,3.086817239784081401e+00,3.720821428749129911e+00,-7.819964854732557313e-01,1.460838870073531748e+00
-3.162012981629112596e-01,1.205610629698152803e+00,9.156023492916768314e-01,8.474735900515804943e+00,1.519454324806055023e+00,3.578488539898622811e+00,1.607307234015536768e+00,-1.021454439225747135e-01,3.733667752222018077e+00,0.000000000000000000e+00,5.423889893765373449e-01,2.340495986072616552e-01,5.453800973470485758e+00,3.937238167583931858e+00,5.165221308506342535e-01,2.465092879260958991e+00,-3.260262371121630531e-02,4.602733968482278115e+00,2.553455071208893035e+00,-1.448276319528856992e-01,-8.667400791833109741e-01,6.067599651442080244e+00,2.365933461809285987e+00,-4.815719419251638378e+00,1.802737539879585071e+00
-5.645656793253922556e-01,2.178102718121744719e+00,7.438584771737946078e-01,7.317831747603773529e+00,1.378076830178734280e+00,3.766741356255753459e+00,2.491824413099009927e+00,5.791414825546354894e-01,5.643726574378530536e+00,0.000000000000000000e+00,-1.398103496270547863e+00,2.709741871850894768e+00,4.093515322891593478e+00,3.101183763402920679e+00,1.087709698593278596e+00,1.449831040580526809e+00,4.026309626500475525e-01,6.282983295869498441e+00,-1.313884634082356451e+00,-4.796125858106379702e+00,3.256086960102481331e+00,8.853947649895159699e+00,4.764954827622761790e+00,-4.209474322988925543e+00,9.340038247306196029e-01
-6.314548630395646622e-01,2.184217734460002891e+00,4.764224728400216491e-01,5.355082957500461482e+00,4.546634474780354429e-01,3.579063753188389985e+00,5.267925940139063234e-01,-3.021624593174533357e-01,7.464121786697612393e+00,0.000000000000000000e+00,-2.852160476507909159e+00,2.309211349219819187e+00,3.747980918406237372e+00,1.835620266882729723e+00,7.928452996090870272e-03,9.787931971617565008e-01,-9.375365066778178214e-02,3.304268003426062972e+00,7.657190573137840905e-01,-3.201626013427965489e+00,4.212934160198370748e+00,9.735645328520451613e+00,2.105472892523935435e+00,-3.460907177900580667e+00,4.552318653202746396e-02
-8.330570553143877843e-01,1.292076499222598152e+00,4.390423060960343404e-01,3.512776583567544630e+00,-3.090898124029838323e-01,-1.939438063487554986e+00,3.294449711936433545e+00,-4.036168284035072662e-01,4.076525074221267531e+00,0.000000000000000000e+00,-3.753726616741495103e+00,4.103371673867524105e-01,3.493832830136979872e+00,1.242561730315293156e+00,-9.497298973774070951e-01,6.229735610629780762e-01,-3.737447580464871577e-01,8.468571600811698019e+00,2.023372062766335411e+00,3.750181426106182325e+00,4.835545724441471016e+00,4.993497453446556378e+00,-8.809429641181478754e-01,1.099420570532783969e+00,1.085530053022104591e+00
3.739987959486695823e-02,1.037620763599053753e+00,-9.178853593965241586e-02,-7.374190729706535663e-01,-5.357591647361553688e-01,7.174036386876790239e+00,1.488498550307609136e+00,-2.747699230977883045e-01,-9.113977424950631345e+00,0.000000000000000000e+00,-4.064858855793388237e+00,1.818349901867015728e+00,2.290484668647888356e+00,1.852472003044403293e+00,-1.503827048339486661e+00,7.276628802795899187e-01,-1.495775998951795360e+00,-3.745298128682783556e+00,-1.725000217347211651e+00,1.438391844514598006e+00,2.157401900262041483e+00,-1.862181774792180633e+01,-1.568243899531212460e+00,1.336894447776942441e+00,9.443009535908192253e-01
-4.222110563280004336e-01,3.089203280415694919e-01,2.529711508876216763e-01,-5.536624930831337998e+00,-8.672227631048107233e-01,-4.776638381667816624e+00,-7.426829345332632837e-01,-4.692383708127029207e-02,-4.112116858030928412e+00,0.000000000000000000e+00,-1.067508015050198100e+00,1.138966153070146481e+00,-1.297754404181655219e-01,9.372218266989832403e-01,-3.413594303988226386e+00,-1.456380296325063384e+00,-9.845268415200296719e-01,7.832356136914218059e-01,-3.051358253267697496e+00,2.949129348870417555e+00,3.878693238679570054e+00,-1.304484439503975635e+00,4.563415145049318333e+00,8.558583755297546336e-01,-1.517951593279752265e+00
-3.781645488084685036e-01,3.066551880051615608e-01,1.996027179373234539e-01,-7.429219388505387656e+00,-4.636092439996565839e-01,-5.808230314748447753e+00,-1.377246768901216445e+00,-7.469414194426295950e-01,3.582973142436542524e+00,0.000000000000000000e+00,-2.285850896087865625e+00,1.744680272412639788e+00,7.302797206742247527e-01,-9.314081364358132165e-01,-6.976166934545667830e-01,-2.448715436618268182e+00,6.365299294013285758e-01,-3.218520877781950951e+00,-2.310601417993246365e+00,7.757598015698914828e+00,5.770468564490687235e+00,-2.502090880688814778e+01,-4.018777732387109225e+00,1.513071917971994029e+00,1.765170334340016856e-01
2.478941078740190262e-01,6.620028300695524059e-01,-8.647543235004699902e-01,-5.926571776531467606e+00,1.788535151681784063e-01,-4.314802408688977131e+00,-8.499336811243737300e-01,-9.152830658536514896e-01,6.165592839161830874e-01,0.000000000000000000e+00,-4.448011253579826629e+00,3.462033384774743650e-01,3.431348824257909769e+00,-2.824138477501814570e+00,4.183754629265348690e+00,-3.192654699422950326e+00,-6.431451003608459338e-01,-5.567333123264074146e+00,4.999805885467602518e-01,3.837700054457416243e+00,-5.319766072637595045e-01,-6.111653317891769355e+00,-7.016765729587893574e+00,3.474413178338062291e+00,1.040045052596258790e+00
-7.913750622204325236e-01,-1.549062534690414550e+00,-2.936630511903574603e-01,-2.034629836200781305e+00,-6.071203523779096223e-01,-2.921204038876235920e+00,-5.530073701250450835e-01,-3.239421030046940042e-01,1.915844850219661888e+00,0.000000000000000000e+00,-2.492163045242666630e+00,-2.242776738977420581e-01,1.738702848750945495e+00,-3.010378009004765598e+00,3.275206070177249185e+00,-4.931355897447825321e+00,-1.853094124843299717e+00,7.892319827989678904e-01,-3.780461339886537431e+00,-4.038842597472465101e+00,1.037996461900216660e+00,-7.723798879394103700e+00,-1.005481357687498445e+01,2.733362333573637226e+00,-2.887944058806792391e+00
-1.404836677739564887e+00,-6.060178042554120736e-01,8.289243304755549158e-01,-8.231465241065411220e+00,-8.049169118938795942e-01,2.173041745035573236e+00,-1.556925246483612302e+00,-1.262140658077349986e+00,1.944583487986828008e+00,0.000000000000000000e+00,-2.138918898585115524e+00,-6.871581277904873497e-01,1.076257356818938415e+00,-8.356361581497017132e-01,-2.111955582589099212e+00,-4.236811773813838222e+00,-1.371568638635134452e+00,4.266108803226896562e+00,-2.563806768122534940e+00,-8.140156587655633658e+00,-1.866311908540698994e+01,-6.154851339404166843e+00,-3.111322130505186578e+00,4.161017536063347677e+00,-3.877923992824860111e+00
-1.160746643262744904e+00,3.935804300080976703e-01,-1.747719313957187548e-01,-1.929837563903862474e+01,-5.320373678443484078e-01,6.745012706359420740e+00,-3.443871858611579295e+00,-2.170584488314458493e+00,-2.967416795402131324e-01,0.000000000000000000e+00,-2.521821280611283189e+00,-1.597282324624098582e+00,6.641633415481394964e-01,3.133958513698541726e+00,-1.126365885223160168e+00,-3.113759819537482265e+00,-1.256630448734803007e+00,-5.948190213645755620e+00,-2.381764279067399848e+00,-4.232084580974651011e+00,-3.155536609804142856e+01,1.334339821778220525e+00,6.862495601035218051e+00,6.446316468867565597e+00,-4.110278497067017867e+00
-1.278636674572072085e+00,-1.366948693067335130e+00,-7.218140027787206536e-01,-6.401277335157557147e+00,-9.242257247198069070e-01,-6.836834675300785591e+00,-1.943013974804395305e+00,-1.525906323087601546e+00,-2.505725805184863653e+00,0.000000000000000000e+00,-3.199943636597414098e+00,-3.907190098862328931e+00,8.833022768102199995e-01,-2.867429934767444344e+00,2.183456444633766758e+00,-2.801823249537044980e+00,-2.271487141859170222e+00,-1.431173720961026063e+01,-8.057321113534202661e-01,-4.224763141099294295e+00,-4.460847164040250945e+00,-4.781690894497946154e+00,-2.588408809306853797e+00,2.230875395842691233e+00,-4.548302129131840843e+00
-1.075429892690954015e+00,1.077694846694125852e+00,-8.311829417923926044e-01,-1.805772094813298168e+01,-1.725231581205711739e+00,4.848114561979066095e-01,-4.283094751060708916e+00,-2.114092960946863275e+00,-4.201616659729041636e+00,0.000000000000000000e+00,-4.608511390344736114e+00,-3.672899998896451024e+00,-1.151053280151826064e+00,-4.045734969378999679e+00,1.739563048696282088e+00,-2.566100706426308609e+00,-2.416862096352739631e+00,-1.638587901974960914e+01,3.796403993668538757e+00,-4.695126186921599221e+00,1.677629312634537229e+01,-5.648991930710661746e-01,-1.561396492356075072e+01,-5.071260138389218630e-01,-3.882397784871780999e+00
-5.698107927755433622e-01,-9.094403704632489926e-01,-8.283805672583344215e-01,-1.088017888203541439e+01,-3.638719046667830082e+00,-1.005446624750314655e+01,-3.656205263090078983e+00,-2.715961501643735065e+00,-5.014199529876973926e+00,0.000000000000000000e+00,-5.941410814967069243e+00,-4.023241812583081334e+00,-1.196612521587175459e+00,-7.584024858285353332e+00,3.295882343117650937e+00,-2.059545403980436618e+00,-1.011329077900796403e+00,-2.165460368545230452e+01,2.782411558229049842e+00,-1.702683912377721098e+00,2.999399652707740227e+00,-1.552340971988630525e+00,-2.926403409738089767e+00,4.414335618672900474e-01,-6.501526619311999156e+00
-7.672815212449007882e-01,-6.496571322279000027e-01,-9.436821859108108779e-01,-3.997751801127939597e+00,-2.952009684368278375e+00,-3.615427505031759470e+00,-4.186107746703122245e+00,-1.178160425988120430e+00,-4.351679610616094429e+00,0.000000000000000000e+00,-3.181571513487507552e+00,-4.272800867841116457e+00,3.116793067400869255e-01,-6.993274186958488237e+00,-7.244504320322537883e-01,-1.564008305535951937e+00,-1.195251768847299889e+00,-1.595641671856456156e+01,6.646802174236475791e-01,-5.109338888833175218e+00,-2.506136053973077260e+00,-7.267501608363607923e-01,-7.806414064182057189e+00,-1.224102049813632215e-01,-6.512513417101135182e+00
-3.922041165884893599e-01,-2.326124383509689864e+00,-6.820448872152435893e-01,-1.269890945897955348e+01,-3.434493634557849617e+00,-4.119801024393787259e+00,-3.687657051346220793e+00,-4.987250117592670340e-01,-5.198591428707612039e+00,0.000000000000000000e+00,-2.649111258603070507e+00,-7.509904043015769304e+00,5.504458615457189730e+00,2.087475187546119049e+00,-1.740520307726703297e+00,-7.502288535821922677e-01,-8.360748272894896749e-01,-8.617420168751388942e+00,-4.525715836215353782e+00,-9.873877649910038912e+00,-4.658794317334352897e+00,3.421007986618459285e+00,-8.136416006950405233e+00,-3.204170189571968752e-01,-3.621482172106707864e+00
-6.039570004528037606e-01,-4.393318495774162002e+00,-4.249108966259845244e-01,-3.353940281460515038e+00,-2.715352742496419225e+00,-6.310708567881680331e+00,-1.925597660969550429e+00,-9.742484179121314591e-01,-6.190455221217034065e+00,0.000000000000000000e+00,-1.917858555231563011e+00,-6.660870646813147111e+00,-1.398414502995982245e+00,4.165577234181188082e+00,7.780603110898420827e-02,1.969543582105203749e-01,-3.587861937864944561e-01,-1.276794731833081187e+01,1.544513131078717016e+00,-4.317442991879836711e+00,2.555057873869383656e+00,-4.145239937226914861e+00,2.886890960640842163e+00,4.692526230515915664e+00,-2.281910510080883192e+00
-9.882415820956851338e-01,-2.217051429547673536e+00,-1.548261272705281633e-01,6.404924336737471968e-01,-1.550383531501707823e+00,-5.070724006524477412e-01,1.620182567386777128e+00,-1.145169486688936700e-01,-2.726226294034999498e+00,0.000000000000000000e+00,-4.504156759981391644e+00,-7.108803640508168264e+00,-2.817142697602295076e+00,6.031057669493050666e-01,-7.628609236281568284e-01,2.787086324250573899e-01,2.275462055832678798e-01,-1.735997545213468740e+01,6.894882277449369212e+00,-1.711263448132916976e+00,3.859003963566174367e+00,9.483268000470892467e-01,1.224336368322662683e+00,1.165723396016405955e+00,-5.232655904670115099e+00
-2.284876262430161620e-01,9.035033091899145885e-02,-2.448255576001113765e-01,7.589238064588196275e-01,-7.030205310140106301e-01,-1.242789477879510107e+00,-3.555085063561671088e+00,3.491280096295915403e+00,-3.985779131985549006e-01,0.000000000000000000e+00,-3.768736416039338177e+00,-1.076150214592557663e+00,-1.597581322557183103e+00,-1.166726151358894681e+00,2.288906616611056932e-02,1.848658182404050443e+00,1.277166101006871113e+00,-3.401655548253121442e+00,-8.836680995013104223e-01,-5.899607029430076199e-01,-3.537269363588242399e+00,7.712156052006688078e+00,-2.974937935686615909e+00,9.146952222414413969e-01,-4.707705607712425078e+00
1.220705765300157619e+00,5.969288704577602189e-01,-2.127595084727736952e-01,3.036114530011687407e+00,-2.576380521633751530e-01,-2.363430720396976437e+00,-1.017334745864428402e+00,2.951104687257209314e+00,1.820068222458418150e+00,0.000000000000000000e+00,-4.027068978697372792e+00,7.127623660619301083e-01,-1.377671928123947565e+00,5.896023697416922227e-01,4.592038035541420177e-02,1.892159663418006676e+00,3.319373997236299445e+00,-1.951856542287501384e+01,-5.847145414096114102e+00,1.528546221336761990e+00,-3.880628898060585641e+00,2.074897005817421203e+00,5.438261992778874010e+00,1.233080269646305682e+00,-1.415751135482475220e+00
1.942720292559131812e+00,-9.107657591714083400e-01,-7.628751908139401738e-01,4.844234456742001704e+00,1.567782983387498719e-01,-4.729176842302467598e+00,6.670969803702228695e+00,-2.000251172207307970e+00,4.864298802601988214e+00,0.000000000000000000e+00,-4.917295760392015325e+00,-2.796376895278665842e+00,-3.898811182691293009e-01,2.242848778606139959e+00,7.759665511261499837e-01,3.042175193996134119e+00,3.794847008162750335e+00,-1.565978675103424145e+01,1.180107120217843836e-01,3.010205680774951098e+00,-7.051622740892756980e+00,-2.528353244388073406e+00,3.496112396432010438e+00,-1.777976844537041634e+00,2.723638717609347948e-01
1.708126243715415438e+00,-6.397377169763571736e-01,-2.028834426460632834e+00,3.504447268939831162e+00,8.056511222004680839e-01,1.536696217554289756e+00,6.650844261440599148e+00,6.893066051048262199e-01,4.109782853073672831e-02,0.000000000000000000e+00,-1.738678064279398416e+00,-2.082710473879968660e+00,-6.468857348900214355e-01,4.217830246004032446e+00,2.591639649802122580e+00,3.023723268165653177e+00,4.333655422312155281e+00,-8.567121399797779091e+00,-1.172178341665097046e+00,9.178211438615320461e-02,-5.674149257739650842e+00,-4.890203220012439900e+00,3.264724105455761638e+00,-2.618765723065157758e+00,1.205540930342316130e+00
1.740760279472407523e+00,7.911673827522053282e-01,-8.667982480726573735e-01,8.805325208997630826e-01,1.357127706679140955e+00,4.195922731330584909e+00,1.998522029023656277e+00,3.302771623391920652e+00,-1.112983554297201394e+01,0.000000000000000000e+00,-1.068662414984161479e+00,-2.508013947236877428e+00,2.674409909698913346e+00,4.491256579444032226e+00,-3.849232247669780893e+00,3.283506617569649233e+00,5.222308597556804877e+00,3.271709241803760992e+00,-1.386448520987383404e+01,1.950952934756416068e+00,-4.495451880279108359e+00,-7.802979454227402023e+00,3.796426980234156812e+00,7.500928049474007986e-02,1.635070946229527644e+00
4.429622228131955275e+00,1.228558531204426929e+00,1.574044028908911041e+00,4.089967362399101525e+00,2.128659787884899846e+00,-4.499631817772747233e+00,4.994309975146358660e+00,-2.729481109903105773e-01,2.480707638806950666e+00,0.000000000000000000e+00,-2.218557751292122404e+00,1.836961685685098100e+00,1.273290206520037326e+00,5.015195110606878615e+00,5.368398955919918336e+00,2.241388437246478738e+00,-2.280320585932584798e+00,9.900856214784640841e+00,1.186867945120039991e+01,4.762000689904058781e+00,7.312913935380160879e+00,-4.894172387485382636e+00,1.456875527527735192e+00,4.691235817054691282e+00,2.834945761980337764e+00
3.138159490070727919e+00,6.360102304921941285e-02,1.216641900361044915e+00,2.012173513145376180e+00,1.650628284147226399e+00,-1.047147451616036395e+00,2.748260202640229632e+00,-8.004476011004255653e-01,3.233193731952012762e+00,0.000000000000000000e+00,1.912339721162151229e-02,-5.195158792319931607e-01,2.223282152587751526e+00,5.082039113983850775e+00,3.170206026325573134e+00,1.259134798958464252e+00,1.479225084892514142e+00,-6.544424298085015079e-02,6.909336564756030086e+00,4.436605103787662152e+00,6.001871256555178391e+00,2.912686055419086983e+00,3.347575076266759098e+00,5.617070158051972406e+00,2.722827452237097212e+00
7.565500149688886289e-01,2.335901638703775429e+00,1.167238110863890732e+00,2.252960601965132259e+00,2.093861894091183284e+00,3.377220457974026147e-01,3.356156250433289134e+00,-8.688270166305037678e-01,-1.359424381609875443e+00,0.000000000000000000e+00,7.189538623764940573e-01,2.773091600604517537e-01,5.311987048335857331e+00,6.733333431251517176e+00,1.556160740368844886e+00,2.677518159635738026e+00,1.854340623293571744e+00,9.168455016939457636e+00,4.843774630879503995e+00,4.594737764696931848e+00,6.555993529754088556e+00,2.356912184516050335e+00,4.273917904149447722e+00,3.572192030315567646e+00,4.765653520859395975e+00
-1.126524439627095475e+00,1.444486613588624291e+00,1.290922415906444742e+00,5.432233256345511130e+00,2.999436811129570835e+00,8.085006392848321788e-01,3.321452018978872989e+00,-1.581490389124673712e-01,-1.082653923005529872e+00,0.000000000000000000e+00,-3.729413069865986641e-01,6.588197633843784207e-01,4.501843330063185711e+00,5.191277154498224355e+00,7.626807756977282970e-01,3.050370107293808974e+00,1.197323840409866280e+00,1.961301443620337537e+00,5.149045030511349097e+00,4.314585380540127524e+00,1.564016148733551548e+00,3.496085940546824755e+00,2.224577349895891398e+00,1.792152170456065452e+00,4.641133765062112282e+00
-1.488021411385710202e+00,1.956465024817546638e-01,9.874542054499075849e-01,4.680494895509132114e+00,2.190215701237601120e+00,6.047036777944359009e+00,1.748935108332575483e+00,-7.802709139697748819e-01,5.103085627682137915e-01,0.000000000000000000e+00,-9.092998142443984300e-01,1.950800473191987294e-01,4.917778639985208144e+00,2.292979383731846177e+00,-1.258525224641513229e-01,2.347822644999105979e+00,-1.391729793250695346e+00,4.404058245552055162e+00,1.608791429707252973e+00,1.598279642211724916e+00,1.323059533495904772e+00,2.803538487250001321e+00,4.325947521522745198e+00,7.635502212215370399e-01,1.658795239767980378e+00
-8.533045264344645275e-01,1.174382145395974852e+00,8.135049026111510484e-01,4.976268920429370191e+00,1.138902385553370200e+00,4.475060113376634341e+00,7.993839216892466570e-01,-8.628799752832513326e-01,1.532197852149810580e-01,0.000000000000000000e+00,-2.985572549422244037e-01,-1.519847307581396301e+00,3.782432691156009330e+00,2.521915170968835440e+00,7.352913015541635566e-01,1.485797934370103546e+00,-4.047425239554532927e-01,4.914383036096801050e+00,7.021827536034049855e-01,-3.813452753256464600e+00,1.693734533426165312e+00,4.419645020799180202e+00,2.651210383970434847e+00,-1.490061676012192304e+00,1.448033506402560011e+00
-4.665143803306072146e-01,1.625542784341509783e+00,7.287990983442618198e-01,3.060282450909193042e+00,9.331328969652596950e-01,-2.866881030070676406e+00,1.808213070753848184e+00,9.469114704109656833e-01,-4.165592317242515996e+00,0.000000000000000000e+00,-1.688205102160064364e+00,1.334368572571855927e+00,3.390221188025022592e+00,2.623541036272609261e+00,4.703616451812838717e-01,6.984306575807278650e-01,3.626393131583513507e-01,5.154347672581893747e+00,-2.449864562795346146e+00,-6.958024718841659073e+00,5.512669765464069727e+00,7.112204926686874984e+00,6.765824621146901308e+00,5.982290618083569052e-03,2.306212179313696264e+00
-1.111242947670242120e+00,1.995138524655008849e+00,3.790015169911199466e-01,6.405584377129587559e-02,-1.313483585089568126e-02,4.085198055748294088e+00,-9.558955197136965731e-01,1.613174772886815933e-01,5.340339496385401397e+00,0.000000000000000000e+00,-3.916870959449521905e+00,1.454961032988238145e-01,2.611715307357490357e+00,2.416743264386718090e-02,-2.521105476199976270e+00,8.993026547441814733e-01,4.734790761189400232e-01,1.495710864991240507e+00,4.045821147306085108e-01,-6.946000779838536587e+00,-1.962863150461230666e-01,8.966132155024412853e+00,2.515408267115909480e-01,-9.997934588493426755e-01,1.007232988500790682e+00
-1.062738717131169075e+00,1.002646858665287244e+00,3.991500917757908606e-01,-2.582676302322053918e-01,-5.462053548198754216e-01,-9.236133439536867940e+00,6.436091209731776841e-01,-1.412161510413386875e-02,5.797935450393245205e+00,0.000000000000000000e+00,-2.790777317692070714e+00,8.816134104977932373e-02,4.793690154428907668e+00,3.985390454665338478e-01,-2.228768908750777378e+00,1.073168663695790170e-01,4.428904942725288563e-01,5.868359563172537818e+00,4.511115617122537280e+00,3.954323744691422782e+00,3.902487026352595145e-01,6.014916106966616383e+00,-9.292910295692852207e-01,7.851944086659029542e-01,9.363603819674485296e-01
1.323794629923401800e+00,8.808568399962575235e-01,2.410024856783757885e-01,-2.502787228946532050e+00,-1.681555528777364694e+00,1.012600414002069904e+01,2.057785919704767874e+00,1.517108013014035472e-01,-1.824816255498127404e+01,0.000000000000000000e+00,-3.054988111362526126e+00,-1.071514256839814827e+00,1.840950989015968764e+00,3.143059909256802786e+00,-8.419951013178182953e-01,6.290505686733507407e-01,-4.083279361481207403e-01,1.027468293463549065e+00,-9.705214558065664576e-01,5.882791317783921059e+00,6.514040172702390663e+00,-2.172280668406877169e+01,-6.366229043858563585e+00,2.908071848986484742e+00,4.275821671146923464e+00
-4.242765654967189937e-01,-3.046112134166427121e-01,1.398621347131618065e-01,-7.816428033586539037e+00,-1.394634695011508940e+00,-6.466042076796667537e+00,-2.279545229053125122e-01,5.711584616521839797e-01,-8.448851519379553920e+00,0.000000000000000000e+00,-5.552258577356287139e-01,-1.740666238503663976e+00,-1.314972630336503245e+00,1.369544627418651572e+00,-4.655176888232658072e+00,-1.757737563349227150e+00,-5.953109565445907636e-01,4.308303864972842234e+00,-4.467562242955017027e+00,1.952057662921498293e+00,2.140284961215579429e+00,-8.461184591328878568e+00,4.401864958417301743e+00,1.038682327087234292e+00,-6.796465849790065406e-01
-6.127226431085445180e-01,7.511415209489168410e-01,1.246181779658035726e-01,-6.642631259921457421e+00,1.232706854135235508e+00,-5.183345632123703695e+00,-3.969951891137879496e-02,1.596720706731261208e+00,1.089740795891876557e+00,0.000000000000000000e+00,-3.361142451392429731e+00,-1.382677624061777522e+00,-3.045746964614792329e+00,2.433107733722724486e+00,-2.433026103427633480e+00,-2.461185705609385099e+00,-2.003176714104861755e+00,-5.267981185364987162e+00,1.370154316700487485e+00,6.106574231289013888e+00,2.020206639648208125e+00,-2.834581072288179016e+01,9.962803985330577206e+00,1.202217301095477531e+00,-1.344409792912245383e+00
1.219039099323848019e+00,2.929915018661020554e+00,2.058437923229225475e-01,-8.746737999422919074e+00,6.768633836479117649e-01,-5.823610285007217335e+00,5.766577668967231007e-01,1.079726449207962569e+00,2.087999242136543643e+00,0.000000000000000000e+00,-3.973813266668431599e+00,-2.351526338445073971e+00,2.431154920393763519e-01,-5.252600329275708413e-01,1.729051807444888178e+00,-2.141240347566546021e+00,-7.228285593662998609e-01,-1.424506024258362835e+01,8.592620444607330654e+00,4.609490331262597884e+00,6.672851504802330247e+00,-2.326791289843273702e+01,-5.134660450644271457e+00,3.423428985221925291e+00,2.875629426723762538e+00
-7.549947301004730771e-02,-2.909911517196902331e+00,-6.369772075353144491e-02,-1.562519465635049176e+00,-9.914317626295046093e-01,-2.769826828051804579e+00,2.463605795628589945e+00,5.188889485506098520e-01,3.091556448275158075e+00,0.000000000000000000e+00,9.705703981529153479e-01,-2.510232870306563058e+00,2.394457758328305541e+00,-7.216801356040124737e+00,-3.204319745024024613e-01,-3.330179327513373977e+00,-1.683272963899713259e+00,5.823545001306160707e+00,1.036191559336731594e+01,1.610290999463632300e+00,-7.649323975670393239e+00,-2.070905708968964376e+01,2.635348924419750327e-01,9.276326431643645565e-01,7.142718183377352870e-02
-4.292474700794517983e-01,-6.431606369211401386e+00,1.533344151741201422e+00,-5.733562642033289691e+00,-3.820180918800207270e-01,5.750441035111408361e+00,1.471547783357460615e+00,3.317711017842338017e-01,1.399072795401955727e+00,0.000000000000000000e+00,-1.557879300160882885e-01,-7.065967005926451217e-01,4.513926018825436870e+00,-9.961471946852167747e+00,-1.202664327528308208e+00,-2.170315509142426880e+00,-1.590778818701541697e+00,1.039785843971151102e+01,5.379295292546910190e+00,-2.090676202368183301e+00,-1.765789949761020594e+01,-1.497611517872096876e+01,-2.884965663697317328e+00,8.340175759846237824e-01,-1.761736089323002297e+00
-5.326592557646092629e-01,-2.878421911779978082e-01,4.719745316065018792e-01,-1.180256923733483987e+01,4.332335759004918962e+00,-2.504804351729382983e+00,1.489353711651915768e+00,-2.753332270537054982e-01,3.086049132779488335e+00,0.000000000000000000e+00,1.066792246067923777e+00,2.729880499781454972e+00,-2.816212087056209956e+00,9.447582156559257427e-02,-1.577789247430819275e+00,-1.476032933690461846e+00,5.018946288821730245e-02,-7.142826091247319376e+00,-7.596693468494561952e-01,3.331362064907719578e+00,-4.031711088186138880e+01,1.461797393197937289e+01,1.157209499623461202e+00,6.345230288564498444e-01,-1.224871949636432644e+00
8.834840265833796558e-01,-3.796716659385945825e+00,-1.072274055583642749e+00,-1.001923139815857455e+00,2.118127483498765784e+00,-6.596525615694100786e+00,-8.076773223494068676e-02,-9.311448934020938317e-01,1.062845219983038270e+00,0.000000000000000000e+00,1.306407275238813170e+00,-6.788413809137654020e+00,-7.528219307018709117e+00,1.052068622950689836e+01,1.417057223850002101e+00,-2.014991720638008577e+00,-7.036968180025902908e-02,-8.983602132637432902e+00,6.773698646850309091e-01,7.701383445355534096e-01,-1.638231745769508052e+01,-2.609697825315039577e+00,1.030112861914192202e+01,4.153702569863209959e+00,-2.140995571449671786e+00
-2.325439284307197207e-01,-2.426299976299574279e+00,-7.566882247709507681e-01,-2.030594946397816614e+01,2.553432746076546578e-01,5.665823310431090665e-01,-1.997474676534322757e+00,-4.419688531563675249e-01,1.446653924778428912e+00,0.000000000000000000e+00,5.062107371544121159e-01,-3.476471436133576454e+00,9.004853808311880314e+00,3.160706765209694957e+00,2.041656959491960688e+00,-1.837640529829356995e+00,1.348328774120439499e+00,2.803701569807835803e+00,1.081384424031271863e+01,-5.774670522765018355e+00,1.248955160771132222e+00,1.294956495182012191e+01,1.080449906462764886e+01,1.183671023402740330e+00,-2.423440566172722299e+00
-1.089798368430494380e+00,-1.999441982057238443e+00,-2.173505966672676593e+00,-1.756992066266520780e+01,-1.023394504414330664e+00,-1.113929720321628736e+01,-5.266936268625377338e-01,-2.099326385824173968e+00,8.471535118048941770e-01,0.000000000000000000e+00,-7.660277410042310109e+00,-1.478799709541914087e+00,4.703031590970145892e+00,-4.733202409043886227e+00,5.740547824983406322e+00,-1.562246808739061965e+00,-1.321702404578420698e+00,-1.862194817137574532e+01,8.457566040895905246e+00,1.163199841418427471e+00,4.259132469835607004e+00,1.015126724744453146e-01,1.003693134508269580e+01,2.661642648280662993e+00,-4.501287558852997250e+00
9.718212435828830209e-01,-1.143648757588656917e+00,-2.644615233312316516e+00,-1.672034761930671909e+00,7.824213506642491156e-01,3.039625208417521485e+00,-2.758043960684716023e+00,-1.065709333034806638e+00,2.863803581837814360e-01,0.000000000000000000e+00,-6.874535218425375405e+00,3.099298418269392022e-02,2.951468268932741168e+00,-1.478737307196569795e+01,5.116511613351475418e+00,-4.486397382410599599e-01,-1.591991862227479571e+00,-2.065671316896489174e+01,-1.299103382323649569e+01,-2.575436186763032431e+00,-2.956580766082088640e+00,3.038695697315044519e+00,-1.476202545764267171e+01,3.724546536318497747e+00,-5.745218435623863584e+00
3.840352171266837589e-01,1.846284998156072943e+00,-1.471685170395802045e+00,-1.353004559667114037e+01,-1.501486134104291548e+00,-3.241146847186802571e+00,-7.894903176450870363e-01,-2.660700440704169445e+00,-2.239445518715264871e+00,0.000000000000000000e+00,2.062386741516754329e-01,-3.997080788935623019e+00,3.764094373599775167e+00,-1.735463742918308627e+00,-2.068646615355423712e+00,4.834838808123817500e-02,-2.126207635446127675e+00,-2.081194738814971856e+01,-3.212469786357617263e+00,-2.598267283780082426e+00,1.167258673022552173e+01,1.838327391813661293e+01,-1.891251523077298202e+01,3.667813522463361231e+00,-2.688168856462275880e+00
-9.110797634364333764e-01,-4.743952114234962103e+00,-1.360944742214856840e+00,-7.671151100266481393e+00,-2.196017028046139519e+00,-9.446812916995609655e+00,-1.809075759249098470e+00,-5.933821202330461508e-01,-3.073802135619434051e+00,0.000000000000000000e+00,-2.983282264071990042e+00,-3.485632740347905489e+00,1.950372874581272731e+00,6.472286740035048780e+00,-3.440724930731846598e-01,1.358665517626004515e+00,-1.854762404544663346e+00,-5.013412104150254400e+00,3.569042339198308600e+00,2.440378546114464253e+00,2.971970314211194619e+00,5.119589660337427794e+00,-1.363713843780106183e+00,1.003811345495211782e+00,1.193451674407572494e+00
-2.632054952866564324e-01,-3.594317656432794550e+00,-5.589909818374335648e-01,1.935282323475925770e+00,-1.129576276801813162e+00,3.036858234688695646e+00,1.214410471177663542e+00,-1.510538717773081574e+00,-6.441239224300224997e+00,0.000000000000000000e+00,-5.872422539766685823e+00,-5.114565065340340944e+00,-1.705234367132534512e+00,5.204632582072557412e+00,1.211006277273991127e+00,9.633322058125115550e-01,-7.401539688428189212e-01,-1.163070148798915326e+01,8.571317064249743822e+00,6.962708549344999165e-01,3.859271719288785985e+00,-1.186316476758283445e+00,4.337605362175363410e+00,1.722540020448740661e+00,-1.492827327416734962e+00
3.101907448947885948e-01,-2.651630567818169960e-04,1.232778480139020139e-01,-2.184196339537114007e+00,-1.369398073727577936e+00,-2.865567127807743475e+00,1.976634799422549993e-01,1.479493289003920076e+00,2.233502932635601235e-01,0.000000000000000000e+00,-2.882412659379887665e-01,-2.313558729310559059e+00,-7.040738337408516401e-01,7.740153733197386865e-01,-1.425917989436885414e+00,8.711268462390441281e-01,6.219819441748206668e-01,-2.110825565994853381e+00,1.694976226330318969e+00,3.608650142034666608e+00,4.229323305210220596e+00,9.356162305050297334e+00,-4.416882874462367603e+00,2.646403740911211333e+00,-3.390383244777717575e+00
1.351697331683588965e+00,3.886355483398443167e-01,-6.469244713655385171e-02,1.448131186637321210e+00,-1.046740319906378280e+00,-3.697475459021176913e+00,2.947259308396419808e+00,1.750705894852987887e+00,1.915319848503324485e+00,0.000000000000000000e+00,-1.664496468463008361e+00,-8.506743235414345738e-01,1.500470691984189919e+00,1.475185108936335254e+00,-3.062036003496931280e-01,1.527165562251421083e+00,1.126024864816950410e+00,-1.088106516434422488e+01,-3.827540537757153860e+00,-3.262683524283943814e+00,3.311588709064092306e+00,1.021145510759826536e+01,7.872338090655673248e+00,2.557968476075399344e+00,-1.801528839786671332e+00
3.026211458968265378e-01,-6.909057537326622755e-01,-1.086440649190354657e+00,3.258716359240501514e+00,-4.797054910220201543e-03,-3.420910381078970719e+00,5.710816319481056169e+00,9.703027960115507833e-01,4.515232473932991653e+00,0.000000000000000000e+00,-3.430664287850172300e+00,-3.247803461463051544e+00,-3.799864815074449065e-01,3.169487106721827541e+00,7.089058457867553065e-01,2.736955125695918145e+00,3.124000576738187540e+00,-8.961669895783707318e+00,2.453408967385184880e+00,8.144762829305253860e+00,-4.488096692784312225e+00,1.842185613919052889e+00,-2.277490651108940334e+00,1.301742909846069773e-01,-9.520259954302620065e-01
7.935421400370056277e-01,-8.892954422814750570e-01,-1.955380295909598720e+00,2.606919866301516731e+00,-2.028083754529706739e-02,-3.360213371579285901e+00,8.603043749037825094e+00,-9.297073776631474828e-01,-4.553287832024370541e-02,0.000000000000000000e+00,-1.724219933739497279e-02,-2.677618047715273786e+00,-1.976412009563316419e-01,3.789241449782768445e+00,1.210316097543683300e+00,2.417294911283677461e+00,3.590002096191410086e+00,-1.150325333387334403e+01,5.714342823355665679e+00,7.609064192974102525e+00,6.155225749079931696e-02,5.165560591461057172e+00,-1.853933667947548614e+01,3.727760361581301307e+00,2.748028472735961625e-01
1.445123921328294481e+00,-1.824305625885889459e-01,-7.495728404169130776e-01,1.868556436098734119e+00,8.229946042450803079e-01,5.896458327086327778e+00,2.576563758620316502e+00,-1.747572459336965256e+00,-1.397073043653830560e+01,0.000000000000000000e+00,-1.061996269963576545e-01,-5.622635814411837352e+00,2.032921638513505158e+00,4.487510998774495441e+00,-2.499845393020681872e+00,2.765314965466204367e+00,4.451327320726491621e+00,2.255785728708625371e+00,-6.478826767942662102e+00,5.386815541495691306e+00,-2.120757872743561645e-01,-5.213161464982609683e-01,4.832219004653788730e+00,5.379900785514405648e+00,1.203540651409044093e+00
4.392247687220780961e+00,9.678244007689648098e-01,1.410752181857047205e+00,1.220732218894652776e+00,1.793683716670211314e+00,-4.843477886851307090e+00,4.172386721182045122e+00,-4.938058443722504465e-01,1.373249321979745252e+00,0.000000000000000000e+00,-1.555259877213534425e+00,1.265724547529110344e+00,-2.790412272649733239e-01,3.794365672186903016e+00,3.842565439053200915e+00,2.247498097411757545e+00,-3.315071428969706968e+00,6.198937010913724066e+00,9.460878177670416278e+00,3.103313406610210379e+00,2.752356785373957226e+00,-2.775316108226875134e+00,1.614491739158762984e+00,4.266709319679328871e+00,2.605662834119222282e+00
2.576919697244605789e+00,-9.634310037024865214e-02,1.066491796203831610e+00,-3.430589959799430488e-01,1.510141011887376594e+00,-1.356115462134424576e-01,2.273040873266817918e+00,-1.338235446706050213e+00,2.058235512295258918e+00,0.000000000000000000e+00,-2.035622598443028730e-01,-1.804961835386327706e+00,3.161568907166995013e-02,3.929274775328233105e+00,1.775524634256427703e+00,1.285856339637378776e+00,8.091930929139302675e-01,-1.007104516248505499e+00,4.212002582547706986e+00,2.097148637887514155e+00,7.452255187551302562e+00,2.319294095677961742e+00,2.449770644330026226e+00,4.335202733182563328e+00,2.397238336218111776e+00
1.691820998029178180e-01,2.370610807778574358e+00,1.007986166927674621e+00,3.226166976567191869e-01,2.020373646290375635e+00,5.213220352442327066e-01,3.168687080606928053e+00,-7.901492939798779869e-01,2.535829419249024247e-02,0.000000000000000000e+00,1.191691458010686322e+00,-9.268720846212155084e-01,4.904462246590326480e+00,5.900912314180520646e+00,5.511008669548695948e-01,3.563376177079152995e+00,-8.494635228202644939e-01,9.439302616210992980e+00,3.540905280970945146e+00,2.976244509780872516e+00,2.537446668578520192e+00,7.291786102162076122e-02,3.492987193064360785e+00,2.371204393954441159e+00,3.554274168306057913e+00
-1.176239592298751191e+00,8.698045060201325951e-01,1.143761282079848174e+00,3.349624842601962360e+00,2.871110013244928982e+00,-2.985010224893354991e+00,2.355395589637180098e+00,-3.631781206616949143e-01,-6.194771125439006099e+00,0.000000000000000000e+00,-1.277292425391243214e-01,-6.636589667143308890e-01,3.650793799849564536e+00,4.031408677880928160e+00,2.547044436386029509e-01,3.728788417739913541e+00,-7.616103691099305184e-01,1.045893426427717765e+00,4.613985171732898571e+00,3.127179230649475450e+00,-5.748613781080886831e-01,1.444905329888816370e+00,-9.924756599684099179e-01,9.592910494527496779e-01,4.190483161035798432e+00
-1.406010617742874169e+00,-7.652753357032877901e-02,8.175074701014853895e-01,2.725105547795181771e+00,1.918313678047660398e+00,6.417614837242935799e+00,8.203653523791750724e-01,-1.238393610344971307e+00,4.031978845116223731e+00,0.000000000000000000e+00,-7.996177302997553582e-01,-1.156422372092874573e+00,3.844899876248023762e+00,1.654473129205000781e+00,1.016459633344221625e-01,1.770056023245002885e+00,-9.178369723167673078e-01,1.000326981727704956e+00,2.889881861825988052e-01,-3.033955170402945711e+00,-7.268357992377966204e-01,9.344960709213790961e-01,5.142442296035226512e+00,1.238985119472959751e+00,7.739386689860343616e-01
-1.190479150155810073e+00,9.321333120057396782e-01,6.382125910075127084e-01,1.983099740976580205e-01,9.125614695325461323e-01,2.785740066379796431e+00,2.854311467546023495e-01,-7.321265024831221657e-01,4.529189248767123921e+00,0.000000000000000000e+00,-4.491049914303712476e-01,-1.859753639175707907e+00,2.955335189567885212e+00,1.004875601586222356e+00,-3.460054972157148301e-01,5.033307864047066316e-01,7.784702843584515725e-03,1.107505104670219120e+00,-1.677750039829886408e-01,-3.026191923318755972e+00,2.627712249854194049e+00,1.912319833002831926e+00,7.692481074144632558e+00,1.941045417247911464e+00,3.961372449533744788e+00
-7.344544700649509039e-01,1.353444288955891972e+00,5.670888035576964192e-01,2.422676339673987655e+00,7.278268666501095385e-01,-6.720777116173193733e+00,9.661607332106015855e-01,4.157445349879568264e-01,-1.166635484120367394e+01,0.000000000000000000e+00,-1.078791004442182011e+00,9.549252817774295243e-01,1.020252543834483383e+00,2.172547874880417673e+00,-1.355989560932248539e+00,-1.674538367542972306e-01,1.076488803151290474e+00,4.069098243061617381e+00,-3.263768748261118624e+00,-1.171467044839548804e-01,6.107018517646958244e+00,5.926089721601679017e+00,1.156750837565438772e+01,7.464838561223092750e-01,3.755725385133710681e+00
-1.531182617590392203e+00,1.640956669381761879e+00,4.715375363615442739e-01,-1.092169088580953185e+00,-3.939353705915142334e-01,8.808233858550742923e+00,-1.565517696410928306e+00,4.905524132521683067e-01,-8.332107791567551214e-01,0.000000000000000000e+00,-3.721459822838133924e+00,-1.445922363361926255e+00,-7.365702274674782446e-01,-9.805325903964803302e-01,-3.154670723263480081e+00,-2.773747000500331183e-01,1.111948588965873785e+00,-8.198012244764055767e-01,-1.727035400497695994e+00,-6.968201830830100807e-01,-1.616586195239184898e+00,4.361641714479657317e+00,-2.315072298117604621e+00,-1.065295406077306772e+00,2.413997494340021088e+00
-1.233016875035428672e+00,6.468514257877315821e-01,7.874219772762810488e-01,-7.275492829194666333e-01,-1.798890531771330403e+00,-9.387385782270351697e+00,-1.170913039836720904e+00,4.461047289633540136e-01,8.572311034121985474e-01,0.000000000000000000e+00,-1.853448176942042558e+00,-1.214774932640260818e+00,3.107386832840103086e+00,-4.946737997191811287e-01,-6.652670657679496946e-01,-7.942240862206949581e-01,1.117792368940985881e+00,1.443897950570564026e+00,6.612894964477279203e+00,-4.502064416117431023e+00,2.502769060017397518e+00,8.254375846276625239e+00,-1.203280973627720307e+01,2.153304379123398338e+00,2.499972654552767626e+00
1.521063730598158248e+00,8.625678299265970850e-01,6.220397173427767434e-01,1.756803841620509399e+00,-5.169669425568522492e+00,4.178548475467813716e+00,9.384891300377823375e-01,3.492785092824558513e-01,-1.867108210320033024e+01,0.000000000000000000e+00,-1.463016760351259382e+00,-9.144600060659637819e-01,3.800542337782950586e+00,7.898331809078201760e-01,2.894480360405759511e-01,-1.559508961497004242e-01,9.327844334395177794e-01,4.029316189392994296e+00,2.125509881890863539e+00,-2.891387920714843851e+00,9.910612633660189630e+00,-7.547517329328226054e+00,-1.342315907389015806e+01,5.168793310844009170e+00,6.689524422639202328e+00
-3.855359264987646695e-01,-2.863496469910894682e+00,-8.253802948026817132e-02,-9.284160146439639494e-01,-6.244499434505166313e+00,-1.911169088470392685e+00,7.738365339879647031e-01,1.279967153865568141e+00,-1.622695335215928836e+01,0.000000000000000000e+00,-5.055792778054801762e-01,-1.654856410386067012e+00,-1.923227138894011201e+00,1.633536292364785592e+00,-2.590620566271291114e-01,-9.835335648299917688e-01,5.895471188562808607e-01,1.373593814627584342e+00,-4.812980706861337055e+00,-2.918392865905743871e+00,2.262279017122325264e+00,-6.910794831265461902e+00,-3.114952524680172363e+00,4.279279343055773843e+00,3.298531626896780811e+00
-8.850122538225840829e-01,-1.717178586286337127e+00,1.433351297384969757e-03,-8.887532818057796158e-01,-2.126208234395231322e+00,-4.254228473659814824e+00,-6.049451237877915277e-01,3.201623062734950231e+00,-6.089867133514206721e+00,0.000000000000000000e+00,-3.873959426662042294e+00,-3.658969391319186304e+00,-2.901258618654637633e+00,8.462695682394302921e+00,1.362413837777707970e+00,-2.399194488506688039e+00,-4.560765407737948252e+00,2.206604063240923674e-01,-3.964886216250895323e+00,-1.586083242949036798e-01,8.860478658581116829e-01,-8.404489832988993214e+00,1.139995942076959246e+01,1.605851939390312788e+00,-2.205466901474179675e+00
2.390703817886372207e+00,5.347185493346891860e+00,9.073037919668384133e-01,2.529266107840089650e-01,4.201685061885866435e-01,-1.019018709390712196e+01,4.084372983110945654e+00,2.351265444070630206e+00,-1.015159706634721104e+01,0.000000000000000000e+00,-1.844714268731360240e+00,-3.210789219455898458e-01,-5.050450382325440302e+00,8.172557431121482807e+00,2.194859157307992970e+00,-7.111615587038480069e-01,-3.168720549512088258e+00,-4.571530472238187315e+00,7.519002294733874159e+00,6.555196008497597704e-02,9.715277285707234256e+00,-2.845011612404680079e+01,-1.296855746423434219e+01,-3.959896111067129909e-01,2.994367857441019964e+00
1.781826158615546163e+00,-1.708826126949543500e+00,1.493505161511593071e+00,1.068147225759024321e+00,2.322495968543118128e+00,1.484723550688727078e+00,1.312418509538347378e+00,-2.260949279557112335e-01,-3.644312052872217822e-01,0.000000000000000000e+00,1.094198613717731527e+00,-1.172693282267533582e-01,-2.094991447803717044e+00,-4.481167962350059319e+00,-1.312306673003703850e+00,-4.445580659307643012e-01,-7.545629028709543995e-01,-1.647338923875935057e+00,9.892070691121398696e+00,3.017377786577426502e+00,-6.647755056633921633e+00,-1.442625258478098971e+01,-4.935988414872568342e+00,-9.447707451091856612e+00,1.617630192123563182e+00
9.808131723564342819e-01,-1.320357389214636079e+01,1.842007873851355892e+00,-6.760974983297964869e+00,-2.784313153009485564e+00,1.111759518275979275e+01,-2.473697697610632296e-01,2.413374491799650023e+00,1.071386357996458116e+01,0.000000000000000000e+00,3.773185710044399954e+00,-4.032476687987013086e+00,-7.049101299294628475e+00,-7.466127445635784454e+00,-1.351443879155443506e+00,2.216842837186184800e-01,-8.296657056770243566e-01,-7.801469874978908869e+00,1.425730853262960451e+01,8.890913940403333271e+00,-5.632277704183695555e+00,-2.644543285204429495e+00,-7.089805041767388794e+00,-1.161010288846126493e+01,1.232666134087099463e+00
1.845279551212121838e+00,-5.455323551884943889e+00,-1.555504817741421852e-01,-3.653002816143706699e+00,1.803969857046632264e+00,-4.692647537581873252e+00,2.878782563066378586e+00,2.477720629453187051e+00,-4.122881204211449324e-01,0.000000000000000000e+00,3.489345934062288546e+00,1.587046984848434983e+00,-1.430158774646215214e+01,-1.124439566250716993e+01,4.003819630806010110e+00,9.449181585673578354e-01,2.594337751589746777e+00,-1.783887755552540355e+01,1.119849617508842776e+01,-2.991431181778527293e+00,-6.879888657789202000e+00,1.203297510207878140e+01,-3.824178776947595892e+00,-2.928892736704265864e+00,1.001307344431289437e+00
3.447818409553013996e+00,-5.732710430604279317e+00,-1.854338612982823653e+00,-3.534704856977604948e+00,5.603221442673940622e+00,-4.155632430418095602e+00,5.726057826764439085e-01,1.904063377785846001e+00,-4.492968261817733122e+00,0.000000000000000000e+00,4.673015823849281603e+00,-3.555682487992300356e+00,-2.249037144606030836e+01,-1.011142412175941807e+01,4.933715048445278306e+00,1.049863629046258462e-01,-5.125413580775682876e-01,-9.924395232121684174e+00,2.170501474579758749e+01,2.070166965168055206e+00,-1.666677238560977514e+01,-2.641592992202591805e+00,-5.442447559756180553e-01,2.492713572037650316e+00,1.625577249677635061e+00
3.154397641489957049e+00,-4.868085389137886132e+00,-1.852067297758390962e+00,-5.655344008868864236e+00,1.368791363280088991e+00,-5.315088634625031894e+00,7.846817105637776679e-01,1.195983404580621912e+00,7.246389981339760311e+00,0.000000000000000000e+00,5.259682447464518518e+00,-7.755852272835934258e+00,7.995221215936181736e+00,-4.311538585609724361e-01,-2.823483475460336400e+00,-1.117283696939465054e+00,3.143540036622692213e+00,-1.189261955828765593e+00,5.360081933828766410e+00,-2.503898719806769257e+00,-2.121828598089687645e+01,1.391638595286317859e+01,9.900553794199190349e+00,-3.075493736247932389e-02,-4.899175400146606463e-01
2.084472974695749770e+00,-8.465155905508646939e+00,-2.983907771556194799e+00,-4.366309296651049721e+00,1.813031840252766980e+00,-6.677573877528408808e+00,2.668267705122234101e+00,4.156584179638279641e-01,6.146830214285249561e+00,0.000000000000000000e+00,-9.443547606914943771e-01,-1.259568877406102239e+00,1.366924416395256792e+01,5.145149220358858244e+00,-8.204173929297567947e-01,-1.472416882233185786e+00,4.349919349140229485e+00,-1.187052074036232874e+01,6.037969424412865660e-01,4.044942921256228452e+00,-1.390830837254279650e+01,1.405483990439131148e+01,1.655328652831536473e+01,-1.199356097528845533e+00,2.341338788847319830e+00
1.134337299984287339e+00,-4.754167361011413462e+00,-3.826982949705737713e+00,3.968015692343599188e+00,2.715465741697804969e+00,6.027887219077211256e+00,-3.332042822585699948e+00,8.419951516882731024e-01,1.047852526569661658e+00,0.000000000000000000e+00,-6.116765790536176972e+00,1.238996012490639620e+00,8.878716553739906203e+00,-8.301899864862795297e+00,3.631939161836840846e+00,5.728741063430493607e-01,1.730027861170654102e+00,-6.511858853154572024e+00,-3.069049035233752942e-01,2.329483488837619465e+00,-1.363389499975372132e+01,1.285988602109462065e+01,2.380141312781703267e+00,-2.395616807261211179e+00,-8.267012715770993836e-01
1.795453737621556467e+00,7.606855651620070269e-02,-2.163839483278368725e+00,-7.585405898713264428e+00,1.142916756494946950e+00,-2.488647423074180853e+00,-4.118309986682385571e+00,-1.209455344931505305e+00,-5.506960883807751728e+00,0.000000000000000000e+00,8.925585368024222532e-01,-4.414664232212121009e-01,-3.344240179618911402e+00,-5.718606074278342888e+00,4.126593690338366649e+00,8.171318891192408396e-01,1.477673673030953871e+00,7.190233728229006971e+00,-1.170698895720776900e+00,2.464556606780281101e+00,-9.615890292687211627e+00,5.052269138483649336e+00,-1.483503984989940960e+01,4.080688161598424735e+00,-2.719418096108526584e+00
-2.422011375543686285e+00,-1.973420129218595553e+00,-2.332026251013418872e+00,-6.927393162707551788e+00,-1.490361640496401963e+00,-3.312853826924582190e+00,-1.976677809579199474e+00,2.473452878184691617e+00,-2.369601634413230906e-01,0.000000000000000000e+00,-6.450659884050712556e+00,-3.265932127535324803e+00,-2.921493479157238227e+00,-4.726076976494926640e+00,2.461772913758057957e+00,6.584726695229873306e-01,-2.550273483552573106e-01,2.932958846109917861e+00,9.999624729410436785e+00,3.113345975257188591e+00,-1.230588612755892086e+01,8.389183281280457871e-01,-4.129126069307218927e+00,9.935350129556090870e-01,2.160104580719257150e+00
2.121282622893979064e-01,-5.505242982294660692e+00,-1.213920734056477491e+00,6.882691536081442685e+00,-7.995144216961256323e-01,2.185326088495521901e+00,-5.139450239796055087e-01,1.835739436744575181e+00,-8.261750781584115799e+00,0.000000000000000000e+00,-3.901199522195930136e+00,-2.463128732776574292e+00,5.492719519045264676e+00,-3.535069959866048439e+00,1.990474421433231056e+00,1.841141859946100690e+00,-4.460810948272159737e-01,-1.292741424848507847e+01,1.297213898810623878e+00,-3.627444261911419776e+00,-3.310830219031611232e+00,4.669885262155626826e+00,2.700260359925949594e+00,-9.261389770265421317e-01,6.550193648102599076e-01
2.435821586871063538e+00,-2.495294274224754361e+00,-7.062926013560093252e-02,9.813981687791750730e-01,-1.302080605394455359e+00,2.973291714410314368e-01,1.391849108632176479e+00,-1.789277333833075190e+00,-1.629833307707698742e+00,0.000000000000000000e+00,2.875683434273988759e+00,-9.684104872183674217e-01,-9.282175128641491080e-01,-6.159120863713434257e-01,-6.206416576033662036e-01,1.830193620650307107e+00,8.833795766814551698e-01,-4.505891324781744478e-01,1.331320894724050130e-01,6.680463083225730792e+00,1.068385833290716924e+01,1.161810680769022852e+01,-1.391850419605679789e+01,2.011755625058200714e+00,-6.354349550902864685e-01
7.499247051373510997e-01,-1.265924745390489548e-01,-3.018274939598548749e-03,-2.079767886545923705e+00,-1.539819806829465954e+00,-7.292845107368468582e+00,-9.676687344156783555e-01,2.007815950628717427e+00,2.381976106008960148e+00,0.000000000000000000e+00,-1.300920646836054129e+00,2.086615998047118559e-01,9.009145587324067783e-01,-3.324431231785616614e+00,-1.834573300327969614e+00,2.068013266855035059e+00,5.312579565896851097e-01,6.266244855914370859e+00,-8.600412031988122763e+00,-2.950574508770520854e+00,2.533240340260201062e+00,6.309264955610713876e+00,1.100815507249697767e+01,3.012839757985881661e+00,-4.017167065338195897e+00
-2.043148843439260176e+00,-2.964569037583982339e-02,-1.069654425103061302e+00,1.386568805519611480e+00,5.335049682100516666e-01,-2.438821966500866800e+00,2.322246233895060907e+00,-3.661354855419733934e-01,4.197006251216729211e+00,0.000000000000000000e+00,-1.033467930521641653e+00,-1.845968224309298522e+00,3.737288564202918106e+00,2.299693804848161882e+00,9.191797183856140196e-02,1.735910384038791276e+00,1.422160053598234386e+00,4.059619517827066204e+00,1.631843903576991328e-01,1.299566393138903386e+01,-2.652789459414377493e+00,1.420112241614597259e+01,-4.869702479322770117e+00,1.116169808108005812e+00,-2.070834054112873801e+00
-2.848795857086223182e-01,-1.236311835533433490e+00,-1.919300198835792726e+00,-1.742128808581083987e+00,9.014374565029646680e-02,-4.481442938637487217e+00,4.725210616266885211e+00,-3.443784093945221780e+00,-5.086939154999407797e-03,0.000000000000000000e+00,-4.046817041129311399e-01,-1.653451425931402152e+00,-1.005091916677415043e+00,2.574933099884470611e+00,2.936009501767569585e+00,2.023148468164785996e+00,3.007189846046788517e+00,4.861221711160927383e-01,4.841192985318032882e+00,7.822622563149724151e+00,7.336711186364835768e+00,4.422611761370402128e+00,-2.363984827079125139e+01,4.673728141202295738e+00,-9.573806126775969982e-01
5.396308983463301567e-01,-1.019431781384484870e+00,-7.909118825279388698e-01,-5.085556565826972353e+00,5.589155623242988424e-01,5.892117859222575582e+00,4.497945181423952832e+00,-6.699785719880560819e+00,-8.891186322654528240e+00,0.000000000000000000e+00,-3.225359258176219157e-01,-5.016373514835991365e+00,6.544678614288503837e-01,3.177116206661447340e+00,-1.060426358568064886e+00,2.578835199396550149e+00,3.554604505539105563e+00,-1.688670105652440467e+00,-3.010517898426974259e+00,9.190117921253469768e-02,3.106960557627715502e+00,-6.899972249063005769e+00,3.052855922881143602e+00,6.804514888432707798e-01,2.543866702850500552e-03
4.152075088927712265e+00,6.952365792073050832e-01,1.173151657966590378e+00,-3.089388277403181116e-01,1.460272662586671322e+00,-4.864324491907884074e+00,3.017463090164812289e+00,-1.034618117160297945e+00,2.974145448529195712e-01,0.000000000000000000e+00,-1.419608480358875102e+00,2.337823241744302893e-01,-1.519401268635936608e+00,2.757422350930380794e+00,2.330670069548051337e+00,1.407430991242077045e+00,-2.947590554002756047e+00,4.547464033550937756e+00,6.509753335957253917e+00,2.239778886620833021e+00,-5.722571196193700915e-01,-2.271726550333100558e+00,1.293871212629370548e+00,3.149506703981870270e+00,2.592488066455215012e+00
2.056760159090383677e+00,-1.780097133081142147e-01,7.993728359091990532e-01,-2.853792370971543146e+00,1.387291830617465083e+00,-1.460993517997865032e+00,1.289779648944431090e+00,-1.666764115729721274e+00,2.272217642075880395e+00,0.000000000000000000e+00,-6.788154900458368557e-01,-2.870998275283536572e+00,-1.078553344380903223e+00,2.721834496304745610e+00,4.860654618300714880e-01,1.181497563321199928e+00,4.262623738403040208e-01,-3.474712733768158479e+00,3.015493778566941341e+00,1.342008409944757119e+00,7.430836437718058463e+00,2.426742206161438542e+00,9.959581345988818279e-01,3.106439434007573830e+00,2.503366963073895946e+00
-1.826436423100374351e-01,2.365493883973964984e+00,7.975621650683776265e-01,-1.095097692916049414e+00,1.656128816744584675e+00,2.678227717299854760e+00,2.856309651825836848e+00,-9.751057944026291224e-01,2.553794577401991450e+00,0.000000000000000000e+00,1.232710130197939069e+00,-1.817825046958052804e+00,4.198618049276833908e+00,4.888041175363126989e+00,3.065375492631439713e-01,3.474631050907894370e+00,-2.822982713025502299e+00,5.029952417885836802e+00,2.710124456469259258e+00,-1.266924457951814353e-01,4.238311318280442164e-01,-7.815780689499836065e-01,2.530091182415196371e+00,1.434919770451175358e+00,1.849084980284385837e+00
-1.605950814780384484e+00,2.558950242941976372e-01,9.746279363495199410e-01,9.923425998239262524e-01,1.714316931287749091e+00,-3.920755411815090685e+00,1.235086845651026000e+00,-9.177329860411478357e-01,-1.305260094929371739e+01,0.000000000000000000e+00,-3.278615126793842927e-01,-1.795113899280626590e+00,2.542073539457077480e+00,3.120862211833382638e+00,-5.021039173898682595e-01,3.669634808784377977e+00,-1.914243775849070905e+00,-4.473515670105155273e+00,2.289770747474499490e+00,7.556726911199296293e-01,-9.437839020524599887e-01,-9.476890732872991219e-01,-3.015028729145285524e+00,-1.541899142042251480e-01,4.359842037056446351e+00
-1.072425542547303268e+00,-1.520539584192583393e-01,5.478538930382806926e-01,2.005695574874565068e+00,1.347458503074795866e+00,6.469272173840542095e+00,2.584186774749195337e-01,-1.442397949880308561e+00,3.717097472972979322e+00,0.000000000000000000e+00,9.144956507835817483e-01,-1.949349299669699276e+00,2.377755527012582970e+00,4.957296494279343491e-01,-1.486439582583518826e+00,2.010854501482788770e+00,-2.172867832317331160e+00,1.640974831754388463e-01,-1.975642001367780898e+00,-3.443406101234921302e+00,-2.155533620440001741e+00,1.620416110676569932e-01,3.438130789032405321e+00,4.023196658965632055e-01,-5.975114059100274932e-01
-1.350342694467801419e+00,9.883612393971991095e-01,5.024203283761484728e-01,-1.109195606559698177e+00,4.072409692718600427e-01,4.887706026995858322e-01,1.724613469287902712e+00,-1.358960783993706234e-01,9.990498722905950757e+00,0.000000000000000000e+00,1.252560510077404210e+00,-3.066447029757474407e+00,4.347540107981883728e-01,8.274834230526032508e-01,-2.809173622064569109e+00,1.356491563729269378e+00,-1.780862696839630832e+00,-1.174924434361988013e+00,-2.209525500356288141e+00,-2.748224236221837868e-01,-4.661405605970295185e-01,2.816578169443331170e+00,1.204492909061720418e+01,8.491682998880590860e-01,3.913552627024083463e+00
-1.366902028431167038e+00,1.316128143502474757e+00,5.774004206498412062e-01,2.366409937755617143e+00,1.448545708303683677e+00,-3.767410966789889404e+00,3.082118447550021290e-01,-3.078700470218453944e-01,-4.862796629348681954e+00,0.000000000000000000e+00,-1.448423965489877618e+00,2.537613907434105087e+00,3.405136065836380371e-02,2.447583435350460412e+00,-2.899256663517560284e+00,2.450969864671701318e-02,-2.696199654221597686e-01,5.252135592467412017e+00,-1.210168280953782816e-01,7.403175782936631144e+00,7.057002801997549923e+00,6.501539367577350959e+00,1.150534227166556178e+01,-1.513918579768032346e+00,1.943347072844870072e+00
-2.869500296281462415e+00,1.178025886739882733e+00,9.957852920014959031e-01,-7.823821723031015862e-01,-1.420926947512719973e+00,9.354123167090886426e+00,-1.912311673732888906e+00,5.459454381586896499e-02,-3.121725707426140861e+00,0.000000000000000000e+00,-3.596529010018947758e+00,-1.674462359992879845e+00,-1.872325767195128110e+00,-3.622830221634274483e-01,-3.754265865318938911e+00,-7.931816841214147651e-01,5.309609708552087692e-01,-4.324706318909452007e-01,-2.571149796449999081e-01,5.705633077163784428e+00,-2.302103386831972076e-01,2.336317761888832667e+00,-5.207764750216402838e+00,-2.407758557915001152e+00,2.666276313608022530e+00
-1.758276004096831935e+00,-3.269937771415708516e-01,1.546560847962237029e+00,3.834758103296715515e+00,-9.584126791823217584e-01,-5.435247020433062737e+00,-1.321097738663153720e+00,9.521940803980161183e-01,-5.764923011074767345e+00,0.000000000000000000e+00,-2.155555348200602239e+00,-2.732048473115983978e+00,4.657720231591547133e+00,-1.871321370548918450e+00,1.729547221244509103e+00,-2.154111813874235892e+00,1.332227147906517750e+00,1.478645639741331674e+00,6.354007310025552302e-01,-3.920957667708575123e+00,5.889527364176753155e-01,9.595171752085633443e+00,-1.750760073455300159e+01,6.392233433836304046e-01,6.340848340406853190e+00
1.830329612817004792e+00,1.726204287215126865e+00,6.442036664858293848e-01,9.463199751336775378e+00,-2.210290983176199209e+00,3.007564247323052165e+00,2.490471834812152174e+00,1.916120889680965167e+00,-1.468750531046652874e+01,0.000000000000000000e+00,-1.053836185095641115e-01,1.309285249026101328e+00,1.105428774613469223e+00,-6.004030593335087040e+00,5.529074639998369456e+00,-1.280472671345848745e+00,2.521264421338219819e+00,1.658215263032677811e+01,1.629999246889955788e+00,-7.490426457415556349e+00,1.211181327528670160e+01,-5.876723217870101212e-01,-1.630809791031536093e+01,-2.724886001554010506e-01,6.339660119144911121e+00
1.370597206788017053e-01,-1.625213259449261649e+00,-7.263882721131253994e-01,2.964288225546940492e+00,-3.000895896075554958e+00,5.540479427159649140e-01,3.493265921130360052e+00,2.147054855109452376e+00,-1.266011613003839287e+01,0.000000000000000000e+00,-3.250134013081273920e-01,-2.534816582204615809e+00,-2.310302371400728916e+00,-3.755634030688687286e+00,3.176551092407258192e+00,-5.542020566623180322e-01,1.561535665723219557e+00,3.243714825957979997e+00,-3.775695580897548975e+00,-1.595686608965802167e+00,7.939482975850987501e+00,-1.200253456507640415e+01,-8.340072378627802152e+00,6.771574590012077621e+00,2.807927806495665202e+00
1.031279364821239719e+00,-1.211671330749178210e+00,6.867580893477313042e-01,2.978778892675250756e+00,-2.505099740019494092e+00,-1.168633045896168010e+00,4.408199125605293922e+00,4.400025141552417196e+00,-3.643317924561189081e+00,0.000000000000000000e+00,-1.508780297307769080e+00,9.619416131125310132e-01,-4.586876033559731169e+00,7.652977675831722948e+00,-3.122241392194687659e+00,-2.383217425377581300e+00,-1.527585970506855961e+00,1.608912542109690591e+01,-5.873544838682038360e+00,-4.961787923186991023e-01,4.304069172397973375e+00,5.456570071227089258e+00,-6.230288089524267381e-01,-3.849286228827682788e+00,1.673109539332520823e+00
1.786543118706055644e+00,3.913582521426686611e+00,2.464021606360613514e+00,1.135630061629963095e+01,-4.936323885205532586e-02,-1.047669002858986076e+01,6.921570083736273027e+00,3.429494736478415184e+00,-1.197436986680884985e+01,0.000000000000000000e+00,3.389901985433543707e+00,2.045032487817007638e+00,-1.763888266039734987e+01,1.392626612808822451e+01,3.503916687821113207e+00,-5.434041837234496741e-01,-6.959554315226351484e+00,8.399075538384018103e+00,1.669976687987422537e+01,-2.446493930119711280e+00,6.519723618612221827e+00,-8.795593834019369339e+00,-1.626435270613063011e+01,-9.973000730803049940e-01,4.076115903727595580e+00
-1.828590491946525953e-01,-2.168716318144317423e+00,2.315130132608554714e+00,6.408443052999924561e+00,5.825849442254433797e+00,4.730920256719747030e+00,2.778399828626561430e+00,1.599561500723007956e+00,-7.744862772416786889e+00,0.000000000000000000e+00,1.563681525520215887e+00,1.788403549487814104e+00,2.208752243905955037e+00,6.111969386115419844e+00,6.204439671094902131e+00,9.452976287365068286e-02,-5.764716357375845313e+00,9.689015774724062169e+00,3.371622694900993533e+00,-1.868511826222271521e+00,5.167915340490171872e+00,-5.720267917900560661e+00,-1.318344143398093671e+01,-4.931388067098512629e+00,2.361783607942413710e+00
2.973391952297776086e+00,-1.116315423144629193e+01,1.692789827107402001e+00,-1.016477301500141017e+01,1.531733920105601054e+00,7.554401203433205758e+00,-3.320058865144019045e+00,2.965047396703464511e+00,1.481301462287750859e+01,0.000000000000000000e+00,2.476463167482318983e+00,-1.508487327323978944e+00,-3.606618341317936238e+00,4.590074563252330542e+00,-7.462281398786863029e-01,8.358652486101413315e-01,-7.072335859594414131e-01,-6.757269838558978670e+00,-1.461510353096095116e+00,8.736850625163315343e+00,3.288638200477743911e+00,-1.186622664751442713e+01,-4.364687440849864153e+00,-4.183591000463010579e-01,2.205508279600786548e+00
5.527960894545864257e+00,-6.047703451492233206e+00,5.216692199887937864e-01,-6.325662560030385961e+00,-6.111030986224279538e-01,-4.170434871955150058e+00,1.732236029233286123e+00,4.337178285047852633e+00,2.434612288688725812e+00,0.000000000000000000e+00,4.522845024921351431e+00,1.379535864217487529e+00,-1.138798683654875887e+01,4.614916494252777390e+00,5.284014592782001252e+00,2.263546468018719615e+00,3.394408018863708243e+00,-1.782069582839359256e+01,4.384607427299424209e+00,-5.414790934474757123e+00,-2.144184039685511911e-01,-3.096476138334473216e+00,-8.165369592424445710e-02,2.491050189598842390e+00,3.074008295439346838e+00
3.459298868589273823e+00,-6.322125994701281115e+00,-4.502030162273176206e-01,-3.626702737903479967e+00,8.224383593692881356e-02,-8.515328908044807577e+00,-1.315136170237033664e+00,6.458270608881920616e+00,1.608079236641458909e+00,0.000000000000000000e+00,6.930334086410785410e+00,-9.479734716117830251e-01,-9.294262846158948932e+00,-5.854393136705807521e+00,6.616000332369171844e+00,2.060725006866175324e+00,-2.263594173769339246e+00,9.376844500552138584e+00,1.393050597015053427e+01,-5.371012201748802894e+00,-3.117657000350694929e+01,-3.217558516004531022e+00,-7.922171998883346333e+00,-2.676765024305654439e+00,1.618527477268178583e+00
-5.882720257707280131e-01,-3.391432738280216963e+00,-4.296828474961876587e+00,7.800861979835245208e+00,-9.861493586183157634e-01,-9.072547101613743337e+00,-4.989981848021281946e-02,3.939396659144774659e+00,7.794972947543327813e+00,0.000000000000000000e+00,6.192490059336198449e+00,-3.702677321083002848e+00,-7.806196940524424477e+00,4.998316977707382591e+00,3.358288170299797759e+00,9.751350501328254206e-01,-6.829699719896255017e-01,-1.167153667457651345e+01,8.500259749651267072e+00,1.214680436365531913e+00,-7.971479005570863308e+00,-6.058779233826768085e+00,-6.752075197684078711e-01,-1.655011933670103685e+00,-7.322498282974445605e-01
7.453085521295370164e+00,-7.396416207382481289e+00,-5.370706276710532912e+00,1.976979090741263212e+00,-5.131279072955075016e+00,3.898029184216295295e+00,1.842421234180704470e+00,2.691155307053509471e+00,1.165354469365326651e+01,0.000000000000000000e+00,5.490287823641919474e+00,-1.786591353735395238e+00,8.784845184086789160e+00,1.140148973048175529e+00,1.185850209675384548e+01,1.016198039597252301e+00,2.064704092689464421e+00,-9.438727395011334287e-02,1.494891200130382458e+00,1.058334217205476513e+01,-9.809928746110621489e+00,1.672554687479928859e+01,5.854220264241424054e+00,4.682917692660924502e-01,4.206363327720135104e+00
8.754579859750645454e+00,-4.650434786375810425e+00,-3.599343576084116592e+00,7.728900046741657981e+00,-5.691279460695582770e+00,4.573974650069192016e+00,-1.189030481923688543e-01,7.957879300553003521e-01,5.729329571582303160e+00,0.000000000000000000e+00,1.390582934487572864e+00,3.455644607998941353e+00,-1.072381742196824472e+00,-2.758925560762254037e+00,-2.414551725570853513e+00,1.739759782405498001e+00,2.922125840233200211e+00,-2.984867149417161514e+01,6.509907335657937111e+00,9.121656119250726391e+00,-1.083192943748734649e+01,1.985177109570892640e+01,8.426045174554063877e+00,4.435013656314972685e+00,4.014476933503445366e+00
3.405377271615468882e+00,-4.442637597155721707e+00,-3.126645489445247783e+00,-7.353656680957020297e-01,-1.774564006775761538e+00,3.424599316215214184e+00,-1.101518917475533321e+00,6.533689966218294565e-01,-1.897942948733749358e+00,0.000000000000000000e+00,-2.457153039815898943e+00,2.031811152042871438e+00,1.276325455312142809e+00,-1.003425775387992935e+01,-3.112968850500960283e+00,2.418956007050216961e+00,5.553599392729897666e+00,-2.895022252647155625e+01,-7.671493476981487092e+00,4.405144609863154592e+00,4.939252770067329434e-01,-8.896084821960241473e-02,-3.278454797976259272e+00,-1.806151959493940806e+00,-1.398644723593077746e-02
-3.460105230873106730e-01,-1.826657976346165446e+00,-4.489615031645686649e+00,-7.880110271025494662e+00,-3.939172553318488479e-01,-8.948531522417288997e-01,-4.469043937821475687e+00,7.388741470415479684e-01,6.452062379313285412e+00,0.000000000000000000e+00,-4.539407758840802387e+00,-2.200370366524551091e+00,-1.141991530421559986e+01,4.769985610446306090e+00,4.178000424083454512e+00,6.098790811529756217e-01,3.832685700275598517e+00,-1.309467760090347177e+01,-2.006524531363579111e+00,1.237980838335651645e+00,-1.995386058012978836e+01,-1.192542677396149919e+01,-1.518273823046466964e+00,5.880445136891625069e+00,4.778294621042318724e+00
-2.025455193244153129e+00,-2.391539602146243393e+00,-2.627041449423769492e+00,6.657916538844165011e+00,2.629426861954465622e+00,8.589307190879181819e-01,-5.280586178331114766e+00,2.681659946775715841e+00,-1.234431520876385635e+00,0.000000000000000000e+00,-1.735017690132692580e+00,1.254571351726362138e+00,6.556429793605260237e+00,-1.788706602335094376e+00,1.280083959144517447e+00,1.821733318475238228e+00,2.964193940088840074e-01,-2.101993985491190031e+01,4.861890605489714190e+00,-1.716368052093864671e+00,6.758688074419075820e-01,-1.496165418432743088e+01,-4.729260292786287012e-01,-1.684496343076255620e+00,5.807207844942707808e+00
5.387870815026769566e-01,-2.532193578058552497e+00,1.990102782780035495e-01,-1.109329126629933659e+00,-1.300663045876654822e+00,2.443117186472484992e+00,4.918463109888465690e-01,-1.414535955988932558e+00,-4.751892906347400469e+00,0.000000000000000000e+00,5.129131665638864135e+00,2.853630363141601123e+00,4.022626537350446618e+00,-4.788697926276873851e+00,-1.680086099304408442e+00,2.562105944071258801e+00,8.928625658520476793e-02,-9.163267697696635850e+00,2.454787227548519413e-01,6.154120849583801345e+00,5.891610766071215366e+00,2.918698673688432610e+00,-1.257837750684671896e+01,-7.468944755229116161e+00,1.118843865280876537e+00
-1.354490442346879320e+00,-4.185137236498388535e-01,3.160332961882183489e-01,-1.195900490559883345e+00,-1.011321710217055303e+00,-3.919634764358243650e+00,-5.200400724099176308e+00,3.011366505251291237e+00,1.683009034653181413e+00,0.000000000000000000e+00,-1.304945347477414863e+00,9.525999233380415265e-02,-4.616543416847383341e+00,-4.525064501590897237e+00,-1.503491414359997780e+00,2.302466313103352036e+00,1.635899862305075780e+00,9.258437273719867022e+00,-9.067740291692555132e+00,-2.896267082676267091e-01,5.319169379114746299e+00,-1.166923673721064780e+01,4.917195838392267149e+00,1.743616745052529948e+00,-4.421741675921105674e+00
-3.763966867420506457e+00,4.680778989372790244e-01,-1.219543286748678179e+00,9.040893917448440398e-01,1.366440104186040116e+00,-6.433350157754275322e+00,-4.174209229158166501e+00,5.982043857293446454e-01,4.835952360740889411e+00,0.000000000000000000e+00,-5.706470949884634436e-02,-1.934527415019389407e+00,6.952446690221783854e+00,-1.521051411787494208e-02,2.638883183324611803e-01,1.666473040458405608e+00,6.873153970516640010e-01,1.817281335140872756e+01,-7.745426280684779563e+00,1.377134679659189587e+01,-3.022807803280981309e-01,1.192080970682955687e+01,-9.278117864522043234e+00,1.240932332427853613e+00,-1.590345099951294250e+00
1.651524505037753887e-01,-9.254534191311970526e-01,-2.081985234114251515e+00,-1.222581021673349255e+00,3.124607102632092626e-01,-2.361719901639883989e+00,4.207785917391076325e+00,-7.242996982675218298e+00,2.399270488767492715e+00,0.000000000000000000e+00,-8.522377275667033514e-01,-3.394200671481964804e+00,-1.370633324872002401e+00,6.923269376318627044e-01,3.651459813733180404e+00,2.449900392403732585e+00,2.939002244584250967e+00,1.149391524063793391e+01,2.329997772769471176e+00,3.084792957964877846e+00,3.674482292128425698e+00,-4.347259073962028708e+00,-1.209097745367949273e+01,-2.631046533473197169e+00,-2.651018649072496292e+00
-2.586130494405788349e-01,-8.053543413220821678e-01,-1.407906268943964978e+00,-7.869741842499751172e+00,6.842085218195496088e-01,4.330285757927256007e+00,2.802471316447669558e+00,-1.049897295553436116e+01,-8.029842063031877863e-01,0.000000000000000000e+00,-7.954744321398969642e-02,-5.582291330863115242e+00,-7.219150572558773460e-01,1.698939407782076305e+00,6.574906984589418135e-01,2.533531835459400749e+00,3.652641412449034952e+00,3.920210202483372708e+00,4.099646756870857778e-01,-1.801114147581142744e+00,-5.984377941999345918e-01,-1.334231011606362038e+01,-4.947262737782963882e+00,-4.786064393498295821e+00,-1.791861078528933948e+00
3.783922338563573184e+00,4.442735435989321746e-01,9.192930285270249913e-01,-2.504027788691151724e+00,8.342434923491377496e-01,-6.413488321798551439e+00,1.589248573893262018e+00,-1.319837962924250929e+00,6.001790021650643681e-01,0.000000000000000000e+00,-1.383340475821757565e+00,-1.479983972734115749e+00,-1.342567637382698686e+00,1.967434743637931582e+00,1.779054659045046671e+00,1.232003584215446423e+00,-2.966552608666111368e+00,2.225217169306973997e+00,4.922803233976780213e+00,7.302236205639746069e-01,-7.861794465555469458e-01,-4.075491355940202176e+00,7.507518271514325436e-02,1.677560365937127207e+00,2.227506752670767476e+00
1.380377835463422853e+00,1.383878312380332383e-02,6.120369084927682612e-01,-5.453568194835391125e+00,7.737303227837307729e-01,-2.586360743296451936e+00,6.370844424250188265e-01,-2.062580798668813387e+00,1.723598530734745893e+00,0.000000000000000000e+00,-2.888368753187448568e-01,-3.486750880651179330e+00,-1.248262062321665145e+00,1.678174646449332785e+00,-3.816527821566608192e-01,6.048344460148240564e-01,1.257863034688551318e+00,-3.035407968186718541e+00,-3.367350377417473173e-02,7.719246066822791352e-01,6.184329969803599170e+00,9.272658684974008914e-01,2.920661246627652696e-01,2.236996553332700977e+00,3.188025508507562389e+00
-4.325683498241630898e-01,2.091996956173380884e+00,6.930689087877069943e-01,2.906902545712808927e-01,1.351189058258249975e+00,2.677677505662755753e+00,2.060223833444956743e+00,-9.354055130372066484e-01,2.452740816585980532e+00,0.000000000000000000e+00,1.541349749431399685e+00,-2.108635269406452295e+00,3.148199714911658731e+00,3.665141742910573264e+00,4.521441540102613676e-01,2.143683983930237957e+00,-1.937875352617565161e+00,3.958746832371610402e+00,2.110733887326020408e+00,-1.813176417104622073e+00,-1.398009485738164415e+00,2.354436156045008666e+00,7.106739642593687956e-01,1.869875751163147248e-01,-1.914337879501930129e+00
-1.809091223261683368e+00,-5.277436563344359982e-02,5.353995102177835363e-01,1.450334741844242714e+00,1.010957314322794121e+00,-2.713550023498925365e-02,2.789577997834414291e-01,-2.020229421654245794e+00,-1.428156567406726118e+01,0.000000000000000000e+00,-1.034543159672405954e+00,-2.690995953016671383e+00,1.892848842119866593e+00,1.536415563920851213e+00,-6.177255493707797251e-01,2.128916502122102816e+00,-1.273468207426084575e+00,-4.635007330143576354e+00,1.848120747503470829e-01,-4.028534048411877677e+00,-2.498821339944155007e+00,-4.055520666815758957e-01,-2.150500873290499992e+00,-1.467351826653245483e+00,1.656538782301425261e+00
-8.969214003283536574e-01,-2.962547488814765706e-01,3.258079351277801683e-01,1.804414281099838702e+00,4.558553083984510090e-01,2.886084514216283203e+00,-8.853462413513644158e-01,-1.762064295518569912e+00,5.686340158796248101e-01,0.000000000000000000e+00,1.398008143481221266e+00,-2.527777989882999510e+00,-2.374718156671074887e+00,-1.274774164236846641e+00,-2.766491939458195048e+00,1.917886864605084174e+00,-1.449619765679553307e+00,-2.907405393036976635e-02,-3.061808404457019961e+00,2.547254131024056512e-01,-3.806900863690589443e+00,9.863155946454460477e-01,1.987133581558320206e+00,-9.651850353626379997e-01,-7.140204190261704997e-02
-1.321240704519370812e+00,1.035941463912556815e+00,4.779744562977677330e-02,-7.798739062292254776e-01,9.209063993507488055e-01,1.682687537610813910e+00,2.235722279555064418e+00,-6.358144685115744155e-01,1.381123003609361177e+01,0.000000000000000000e+00,1.849213155130363440e+00,-2.557007700217864610e+00,-3.714844085535612628e+00,1.130755810313633702e+00,-4.624720449728536131e+00,1.183070202477071842e+00,1.684467870708964643e+00,9.179993065055036539e-01,1.525227043192300513e+00,5.517806394921893620e+00,-4.881370777114515391e-01,2.399315580581025120e+00,1.142148879032839304e+01,3.736325159301595589e-02,-1.816102145967106729e+00
-1.671495285558215249e+00,1.296134747545570232e+00,3.642099608717488390e-01,1.539158913093341408e+00,1.257993224944696120e+00,1.797321445159048681e+00,6.051881696720884385e-01,-1.931977514913966409e+00,-3.309260812667734086e+00,0.000000000000000000e+00,-1.466623807140368552e+00,3.141707060842616972e+00,1.953632348414028053e-01,2.400467496140567647e+00,-2.890698023590512644e+00,9.189369530323037161e-01,4.772459520430961666e-01,5.575126984375230244e+00,-1.809814452595882139e+00,6.399750543012492798e+00,4.759355630209821442e+00,2.296849739942671054e+00,1.038437179778726183e+01,2.710645597601500298e-02,-2.371301843161716771e+00
-3.876143636828945027e+00,-1.236172855634817047e+00,1.214247338763261963e+00,1.877954826633125851e-01,-2.039960715037548056e+00,6.817331533673031352e+00,-1.928793586710975783e+00,-2.300766609447232103e+00,-4.907161625010429518e+00,0.000000000000000000e+00,-5.059491471452004063e+00,-1.115103191238194125e+00,8.508563485766212908e-02,-2.132191786369049602e+00,-2.683312479388710425e+00,2.930056445192500414e-01,1.814810002065485373e+00,-3.765304401665386269e+00,-4.379264243613034679e+00,6.423397843515330052e+00,-1.054578823044418773e-01,-1.570374924261415117e+00,-6.288638495079818647e+00,-6.933534900860475192e-01,2.574599883222000507e+00
-2.810382839425331181e+00,-1.658242990741325640e+00,9.928176475027925552e-01,4.199680200566409560e+00,1.520275637480196673e+00,-4.760395115741613559e+00,-3.620934421984711715e-02,-5.210105437042114040e-01,-1.030006775801810015e+01,0.000000000000000000e+00,-2.075574611472395414e+00,-2.715217264906943040e+00,3.944086403302818677e+00,-7.593736395536435424e+00,-1.289665691745007781e+00,-1.346000282753285093e+00,1.839213498907497080e+00,-6.128535787513455624e+00,2.191659866732391215e+00,1.307719336887169570e+00,-1.634518165604923912e+00,7.610843405857707467e+00,-1.262592329277254244e+01,-4.220869697795309072e+00,5.936049544960356528e+00
-8.725273243509552579e-01,3.353483121741182682e+00,-5.642913485223270964e-01,7.133457036112552885e+00,-5.548685931933846627e-01,5.785240547270033007e-01,3.191105910774274079e+00,5.390195608720860232e-01,-7.157466122476629167e+00,0.000000000000000000e+00,2.572724718776021047e-01,6.229775325822920484e-01,2.366486319597197241e+00,-8.012756610192459661e+00,3.632958012382803137e+00,-1.540564715217263458e+00,3.796663684241524894e+00,1.936758999514976409e+01,-3.277092774747323856e-01,9.297709246200419608e-01,9.077084999449221314e+00,7.916092057394359394e+00,-8.942143530839167909e+00,-6.058500952022356500e+00,1.122883557518167486e+00
-5.347694892997764349e+00,6.562599153188051204e-01,1.937833911465566272e-01,-3.670015254011932404e-01,-1.073513016598068026e-01,7.415491664017157092e+00,4.721678145639791602e+00,8.534392880556250782e-01,-4.085863093935709678e+00,0.000000000000000000e+00,-2.955930337661047069e+00,6.369128855900400843e-02,5.204917044129915737e+00,-3.330754042056487840e+00,2.365467878049645645e+00,-6.592986910265549172e-01,1.692465932516677318e+00,3.917549724046628157e+00,1.891787528793374973e+00,-5.811203118370441567e-01,4.271597541561219735e+00,-8.991958516711402893e+00,-6.733576596381553259e+00,-4.667095593156552091e+00,-2.345110046747133498e-02
1.937854816770428368e+00,-2.925069376259883391e+00,4.134007832114234837e+00,-1.371858530008676746e+00,5.313457870593616406e+00,4.595974744893728925e+00,3.954990993920902920e+00,3.354569715004668495e+00,-7.730966696866976129e+00,0.000000000000000000e+00,7.434752409620627445e-01,8.139666367456065643e+00,3.726355076649942699e+00,3.041659739880071545e+00,-1.395700787196444415e+00,-3.433096474070080895e+00,1.814237820766243070e+00,1.896856909655812728e+01,-1.424479049291912425e+01,-1.341260793460677725e+00,3.410933213235583850e+00,1.765630929143468197e+00,-3.880545194809132070e+00,-1.348037060938338527e+01,3.516472267224960424e-01
2.165338272982268997e+00,3.970228938387577511e+00,4.837945630704717281e+00,9.857882047296975259e+00,-2.274999118444585022e+00,1.699163640401577746e+00,7.351525369818776134e+00,4.341646170230208490e+00,-3.367876655524192575e+00,0.000000000000000000e+00,5.652105172113009779e+00,2.082796108269134194e+00,-8.056289006615582338e+00,1.054800665261414494e+01,5.887786007694757906e+00,-3.090782899600410527e+00,-3.173471715015003358e+00,1.209888827214101781e+01,-7.113298713641998283e+00,-1.412953825553248777e+01,1.148053382193927874e+01,-1.353015070812409792e+00,-3.890488565864186565e+00,4.696333180527554774e+00,4.725107587902177109e+00
-4.733315410317702754e-01,-3.884816740457046613e+00,3.341511246237089505e+00,9.570206791207715114e+00,1.619495331648058145e-01,2.156280215526078070e+00,1.857766582970649116e+00,4.692747444351571318e+00,-9.947348726142132946e+00,0.000000000000000000e+00,4.167867211148866602e+00,5.214951477362824939e+00,2.974301996680241089e+00,8.461854360579241785e+00,6.859388049681420796e+00,-1.420249831306776622e+00,-5.195183296146111296e+00,1.950811956382117351e+00,-4.418939173639635953e+00,-1.244655986279088644e+01,1.332923581622003439e+01,-5.914524386358994690e-01,-3.117166974654202338e+00,-2.446407795036999122e+00,1.135186853241025418e+00
1.956339316157554853e+00,-8.380710034044389189e+00,1.517700689909365908e+00,4.525713324835128226e+00,-1.198520715107575629e+00,-5.938550243637142678e+00,-5.249927085795703441e+00,5.822999001172505018e+00,5.137256891472809173e+00,0.000000000000000000e+00,2.052911018007188559e+00,5.119499533393923052e-01,1.011516934414447844e-01,6.932506426068873573e+00,-1.225162233577973714e+00,-1.058571289776498503e+00,-8.489036521348537756e-02,-1.598925904394100872e+00,-3.237197627580651016e+01,8.611531183874788775e-01,5.208752260545940871e+00,-1.014410797661378005e+01,-1.020863883197788979e+00,1.365183568392564162e+00,1.518781899843582472e+00
3.091436156226207821e+00,-1.478675549739856487e+00,-6.001657366332611154e-01,-2.274440811079239566e+00,1.726280529002730546e+00,-6.575831960112435759e+00,-2.256100557196660805e-01,4.327944525627333228e+00,1.022492072226517656e+01,0.000000000000000000e+00,2.992951295563421432e+00,3.315497093275599827e+00,-1.572121982484351221e+01,7.697838807308083453e+00,-2.275965618888019293e+00,1.354990806808585191e+00,-9.625546796376817094e-01,-7.818129017414402249e+00,8.537084245404512606e-01,-3.792310875681199178e+00,9.679022677618934978e+00,-4.771672759059405244e+00,-6.481452230222199518e+00,-3.384556375553223972e+00,5.572623738380731773e+00
